{
  "layers": [
    {
      "index": 0,
      "weight": [
        [
          -0.1690998673439026,
          -0.1520720273256302,
          -0.02353096939623356,
          -0.06126001477241516,
          -0.25642865896224976,
          -0.009324643760919571,
          -0.06447026878595352,
          0.029308006167411804,
          -0.08106594532728195,
          -0.12591849267482758,
          -0.09443563967943192,
          -0.10340603440999985,
          -0.1105351522564888,
          -0.1288328319787979,
          -0.1509857177734375,
          0.0869947150349617,
          0.15835987031459808,
          0.019656335934996605,
          0.18024572730064392,
          0.08560021966695786,
          -0.016061145812273026,
          -0.09759277105331421,
          0.08124596625566483,
          -0.08994931727647781,
          0.041136182844638824,
          0.0028907025698572397,
          0.13443419337272644,
          0.010460947640240192,
          -0.127040296792984,
          0.1564071923494339,
          0.04147418960928917,
          0.08870933949947357,
          0.22302962839603424,
          0.028293784707784653,
          -0.1571139544248581,
          0.018434826284646988,
          0.029418857768177986,
          -0.07182645797729492,
          0.003967858385294676,
          -0.11831052601337433,
          0.13552522659301758,
          0.016017595306038857,
          0.09680651873350143,
          0.004868782591074705,
          0.05573148652911186,
          0.06712693721055984,
          -0.1534084528684616,
          0.0469655841588974
        ],
        [
          -0.263480544090271,
          -0.2286301702260971,
          -0.27572402358055115,
          -0.28596723079681396,
          -0.06261036545038223,
          -0.2551880180835724,
          0.30048367381095886,
          0.06324432045221329,
          -0.08622466772794724,
          -0.11598069220781326,
          -0.1351485401391983,
          -0.13212895393371582,
          0.09485815465450287,
          0.15454043447971344,
          -0.030115891247987747,
          0.20239616930484772,
          -0.16443513333797455,
          -0.06157078593969345,
          0.022958699613809586,
          -0.04188203811645508,
          0.031235864385962486,
          -0.08343950659036636,
          0.09036402404308319,
          -0.02799936942756176,
          -0.07574199885129929,
          0.21080324053764343,
          0.01250605657696724,
          0.05491289868950844,
          0.10975951701402664,
          0.06866835057735443,
          -0.12400401383638382,
          -0.10766295343637466,
          -0.08892566710710526,
          -0.08974193036556244,
          -0.0024859618861228228,
          0.019847631454467773,
          0.07565061748027802,
          -0.1670767366886139,
          -0.13370585441589355,
          0.21434591710567474,
          -0.03278176486492157,
          0.06211790069937706,
          0.058132901787757874,
          -0.13556362688541412,
          0.04374450817704201,
          0.020708167925477028,
          -0.07071848213672638,
          -0.05508112162351608
        ],
        [
          0.12334376573562622,
          -0.07243159413337708,
          -0.18005457520484924,
          -0.06308840215206146,
          0.037314966320991516,
          -0.24088571965694427,
          0.09081138670444489,
          0.07132818549871445,
          -0.3519700765609741,
          0.027780812233686447,
          -0.007569199427962303,
          0.14300714433193207,
          0.025988569483160973,
          -0.15241001546382904,
          0.036160651594400406,
          0.25070175528526306,
          0.18117837607860565,
          -0.06635651737451553,
          0.016011929139494896,
          0.06112123653292656,
          0.12468824535608292,
          0.05406420677900314,
          -0.12835071980953217,
          0.05593377724289894,
          -0.0011165420291945338,
          -0.05010401830077171,
          0.08558603376150131,
          -0.15151777863502502,
          0.06377905607223511,
          -0.11160311847925186,
          -0.1680743545293808,
          0.028749000281095505,
          0.08601050823926926,
          0.06424732506275177,
          -0.11153487861156464,
          -0.03628036752343178,
          0.12381468713283539,
          0.18688665330410004,
          0.00012041009904351085,
          0.03525392338633537,
          0.13596536219120026,
          0.006636026315391064,
          -0.08769138157367706,
          -0.07638898491859436,
          -0.028893429785966873,
          -0.035507746040821075,
          -0.06501065939664841,
          0.014510785229504108
        ],
        [
          -0.15665511786937714,
          -0.2269725203514099,
          -0.12047448754310608,
          -0.13218314945697784,
          0.02606266736984253,
          0.0926387682557106,
          -0.10546576231718063,
          0.020637620240449905,
          0.09489453583955765,
          -0.03283039852976799,
          -0.4477636516094208,
          -0.1532956212759018,
          0.17619459331035614,
          -0.22052814066410065,
          -0.024462871253490448,
          0.2129976749420166,
          -0.16536830365657806,
          0.03251000493764877,
          0.017063423991203308,
          0.013501763343811035,
          -0.029469605535268784,
          0.1298132836818695,
          -0.042418427765369415,
          0.10351639986038208,
          -0.11718662828207016,
          -0.0222051702439785,
          -0.03241267427802086,
          0.01395462080836296,
          0.14449544250965118,
          0.04074271395802498,
          0.06966628134250641,
          0.12220609933137894,
          0.23199038207530975,
          -0.025821750983595848,
          -0.037605173885822296,
          0.07337868958711624,
          0.0019455748843029141,
          0.040611978620290756,
          -0.12648126482963562,
          -0.0858447328209877,
          -0.023380126804113388,
          0.09823247790336609,
          -0.0663168653845787,
          -0.09784549474716187,
          -0.007783104665577412,
          -0.11697409301996231,
          0.012077802792191505,
          0.027350760996341705
        ],
        [
          -0.2535107433795929,
          -0.0924309566617012,
          0.0653323233127594,
          -0.18273331224918365,
          -0.04010942205786705,
          -0.005281979218125343,
          0.07717746496200562,
          -0.37836021184921265,
          -0.13272613286972046,
          0.08369656652212143,
          0.014727077446877956,
          -0.09640132635831833,
          -0.005288482643663883,
          -0.06874410063028336,
          -0.017316091805696487,
          0.04330788925290108,
          0.006741449236869812,
          0.04520617797970772,
          0.1403716802597046,
          0.038123756647109985,
          -0.20387257635593414,
          0.17427663505077362,
          0.13320356607437134,
          0.1298452466726303,
          0.09300512075424194,
          -0.1651361733675003,
          -0.04026886820793152,
          0.09989499300718307,
          -0.07576209306716919,
          0.006809156853705645,
          -0.058232538402080536,
          -0.10104991495609283,
          0.12800230085849762,
          -0.09167766571044922,
          -0.018882807344198227,
          0.12446263432502747,
          0.05500229448080063,
          0.03978034108877182,
          -0.008839032612740993,
          -0.08046324551105499,
          0.12676022946834564,
          -0.016321653500199318,
          -0.09107483178377151,
          -0.061682891100645065,
          -0.04952412471175194,
          0.16707460582256317,
          0.01934560015797615,
          -0.02320745214819908
        ],
        [
          -0.07590330392122269,
          0.016293151304125786,
          0.2532731592655182,
          -0.15902681648731232,
          -0.1749613732099533,
          0.17289261519908905,
          -0.13594698905944824,
          -0.10054377466440201,
          0.13727198541164398,
          0.24839723110198975,
          0.13607463240623474,
          -0.09047005325555801,
          0.16325277090072632,
          0.4522896409034729,
          0.19593742489814758,
          0.013715477660298347,
          0.08773098886013031,
          0.04216254875063896,
          0.030068911612033844,
          -0.030531110242009163,
          0.07904427498579025,
          0.10356161743402481,
          0.015955472365021706,
          0.13100233674049377,
          0.005675004329532385,
          -0.018006931990385056,
          0.04607105627655983,
          -0.07816009223461151,
          0.044776033610105515,
          -0.08355256915092468,
          0.1154705360531807,
          0.04382121190428734,
          -0.03188608959317207,
          0.12162179499864578,
          -0.1572398990392685,
          -0.030823927372694016,
          -0.18245185911655426,
          -0.09578069299459457,
          -0.14261022210121155,
          -0.00855075940489769,
          0.006767227780073881,
          -0.023292725905776024,
          0.15618757903575897,
          0.03129062429070473,
          -0.06751789897680283,
          -0.22784572839736938,
          -0.09787008911371231,
          -0.03956117853522301
        ],
        [
          -0.22484207153320312,
          -0.26133856177330017,
          -0.1709887981414795,
          -0.4468556344509125,
          -0.06541396677494049,
          -0.06252964586019516,
          0.07725048810243607,
          0.045717280358076096,
          0.16865575313568115,
          0.08527035266160965,
          -0.35130730271339417,
          -0.20535443723201752,
          0.26787275075912476,
          -0.22919873893260956,
          -0.0047880057245492935,
          0.08891753107309341,
          0.023697856813669205,
          0.010250126011669636,
          -0.08276253193616867,
          0.0953403189778328,
          -0.007730609271675348,
          0.18069560825824738,
          0.06916956603527069,
          0.04491063579916954,
          -0.16291543841362,
          -0.05404813215136528,
          0.09756042063236237,
          -0.11195763945579529,
          -0.04682561382651329,
          0.06372921913862228,
          0.06117461994290352,
          0.17860367894172668,
          -0.024798359721899033,
          -0.004574710037559271,
          -0.03924965113401413,
          -0.03795972466468811,
          0.018168611451983452,
          -0.08954975754022598,
          -0.14636854827404022,
          -0.04772747680544853,
          -0.03228285536170006,
          -0.10569212585687637,
          0.05029984936118126,
          0.03125118091702461,
          0.1541106104850769,
          0.1346421092748642,
          -0.02344834990799427,
          0.0164492167532444
        ],
        [
          -0.7650462985038757,
          -0.025157291442155838,
          0.01308903843164444,
          -0.07727008312940598,
          0.19431908428668976,
          0.10423415154218674,
          -0.20402252674102783,
          0.0906030535697937,
          -0.10814681649208069,
          0.0934702455997467,
          0.02752050757408142,
          -0.029512345790863037,
          -0.410386323928833,
          -0.16273431479930878,
          0.16164006292819977,
          -0.2918788492679596,
          0.011203399859368801,
          -0.06694397330284119,
          0.0632704496383667,
          0.08127174526453018,
          0.08463154733181,
          -0.03519882261753082,
          0.1698094606399536,
          -0.057942066341638565,
          -0.04794488847255707,
          -0.17396478354930878,
          0.1231149211525917,
          0.005429137498140335,
          0.08779241889715195,
          0.010272669605910778,
          -0.11210986226797104,
          -0.049422938376665115,
          0.03712884709239006,
          -0.014587529934942722,
          -0.10960157215595245,
          0.05587280914187431,
          -0.0011782548390328884,
          -0.09576298296451569,
          0.0213815625756979,
          0.03738362714648247,
          -0.06633450835943222,
          0.12558850646018982,
          0.02648754231631756,
          0.05652370676398277,
          -0.032977715134620667,
          -0.08793781697750092,
          0.11840851604938507,
          0.0015933261020109057
        ],
        [
          -0.051975175738334656,
          0.3028848469257355,
          0.3000353276729584,
          0.0014795257011428475,
          0.07056194543838501,
          0.07287329435348511,
          -0.034998442977666855,
          0.2493487149477005,
          0.02436090260744095,
          0.1152210384607315,
          0.30814844369888306,
          0.12370409816503525,
          0.2107296884059906,
          0.1913958191871643,
          0.17785760760307312,
          0.0020883362740278244,
          -0.049436055123806,
          0.12088105827569962,
          -0.05725342035293579,
          -0.015294907614588737,
          -0.058016665279865265,
          -0.1455918401479721,
          -0.015107984654605389,
          -0.12421072274446487,
          0.07468989491462708,
          -0.0411098375916481,
          0.03714648634195328,
          0.04955820366740227,
          0.034143224358558655,
          -0.0033784217666834593,
          0.05299984663724899,
          0.09445809572935104,
          -0.08944562822580338,
          0.12828132510185242,
          -0.04636561498045921,
          -0.04904377460479736,
          -0.11790475994348526,
          0.1324036866426468,
          -0.010151331312954426,
          0.07522383332252502,
          0.03336839750409126,
          0.08400838822126389,
          -0.0719137117266655,
          -0.07673728466033936,
          0.02842712216079235,
          0.04575911909341812,
          -0.018783023580908775,
          -0.08770576119422913
        ],
        [
          -0.2020997703075409,
          -0.17550691962242126,
          -0.13678455352783203,
          -0.34056657552719116,
          -0.16357313096523285,
          -0.20179857313632965,
          0.17766769230365753,
          0.11705835163593292,
          -0.3124289810657501,
          -0.09801487624645233,
          -0.5567323565483093,
          -0.16772709786891937,
          -0.03469494730234146,
          -0.027333149686455727,
          -0.32369568943977356,
          0.2063964158296585,
          -0.07608551532030106,
          -0.16339732706546783,
          -0.009548497386276722,
          0.016584379598498344,
          0.22941124439239502,
          -0.05849684774875641,
          0.05911709740757942,
          0.035425808280706406,
          0.00911125261336565,
          -0.19794006645679474,
          0.0054252250120043755,
          -0.04715782031416893,
          0.0018483023159205914,
          -0.1250636875629425,
          0.11282151937484741,
          0.03470083698630333,
          -0.08831765502691269,
          0.06697086244821548,
          0.05184481665492058,
          -0.015979325398802757,
          0.008881531655788422,
          -0.15374059975147247,
          -0.019816221669316292,
          -0.06764642894268036,
          0.13504408299922943,
          0.011658442206680775,
          0.01827736385166645,
          0.09354018419981003,
          -0.05126519501209259,
          -0.005029346793889999,
          0.025987951084971428,
          0.009161800146102905
        ],
        [
          0.28050053119659424,
          -0.01242209691554308,
          0.07980053126811981,
          0.12751345336437225,
          0.044582799077034,
          -0.15428563952445984,
          -0.09252925962209702,
          0.24919700622558594,
          0.047420304268598557,
          0.07808412611484528,
          0.20163600146770477,
          0.041103243827819824,
          0.06892739981412888,
          -0.37676453590393066,
          0.19002367556095123,
          0.061034031212329865,
          0.07453487068414688,
          -0.08549750596284866,
          -0.038120340555906296,
          0.05439137667417526,
          -0.17969541251659393,
          -0.18129785358905792,
          -0.14122332632541656,
          -0.016465596854686737,
          -0.039720866829156876,
          -0.06893549114465714,
          -0.07459133863449097,
          -0.08061599731445312,
          0.07382678240537643,
          -0.11361046135425568,
          -0.06033652648329735,
          -0.12567909061908722,
          -0.08799175173044205,
          0.11563337594270706,
          0.05508945509791374,
          -0.07129649817943573,
          -0.042114969342947006,
          -0.08321832120418549,
          -0.10225917398929596,
          -0.09947783499956131,
          -0.10816394537687302,
          -0.07955612987279892,
          0.017514418810606003,
          -0.017663802951574326,
          -0.006549361627548933,
          -0.055238548666238785,
          0.10632883757352829,
          -0.029608894139528275
        ],
        [
          -0.22172854840755463,
          -0.2665441632270813,
          -0.055940233170986176,
          -0.2257724106311798,
          -0.021114887669682503,
          0.024353686720132828,
          0.005155596882104874,
          -0.3081017732620239,
          0.23376436531543732,
          0.03109232522547245,
          -0.3487280607223511,
          -0.050608690828084946,
          0.043529387563467026,
          -0.21189109981060028,
          -0.19443926215171814,
          -0.10669726133346558,
          -0.060136742889881134,
          0.051534686237573624,
          -0.10265708714723587,
          0.057115472853183746,
          -0.10693422704935074,
          0.07460056245326996,
          0.09277909249067307,
          -0.1180504634976387,
          0.017491180449724197,
          -0.0386459119617939,
          -0.05967157706618309,
          -0.027379682287573814,
          0.06258531659841537,
          0.00022370775695890188,
          -0.07924432307481766,
          -0.1452781856060028,
          -0.1138521283864975,
          -0.021377936005592346,
          -0.0037195486947894096,
          -0.04184326156973839,
          -0.02552192099392414,
          0.00046849786303937435,
          -0.08999110013246536,
          -0.09379265457391739,
          0.034364718943834305,
          -0.03507287800312042,
          0.04997161775827408,
          0.040957607328891754,
          -0.087690070271492,
          -0.05717048794031143,
          -0.06199062615633011,
          0.003957756794989109
        ],
        [
          0.04385099187493324,
          -0.09715563803911209,
          0.12193937599658966,
          -0.28518372774124146,
          0.3627220392227173,
          0.408914715051651,
          -0.1219661608338356,
          0.06551084667444229,
          0.10502992570400238,
          0.26009491086006165,
          -0.08582821488380432,
          0.12021072208881378,
          0.16540849208831787,
          0.2541555166244507,
          0.15671494603157043,
          0.09356045722961426,
          -0.03611370176076889,
          0.008057958446443081,
          -0.08473055809736252,
          0.1290254443883896,
          -0.02374032698571682,
          -0.06604335457086563,
          -0.010422577150166035,
          0.12293887138366699,
          -0.023470206186175346,
          -0.058668121695518494,
          0.12167703360319138,
          0.07931915670633316,
          -0.20128028094768524,
          -0.14831039309501648,
          0.05426497757434845,
          0.1700895130634308,
          -0.027639778330922127,
          0.08049340546131134,
          -0.12674881517887115,
          -0.011530863121151924,
          -0.04880682751536369,
          0.002357692923396826,
          -0.008561528287827969,
          0.044348374009132385,
          0.08968494832515717,
          -0.01760881207883358,
          0.12271731346845627,
          -0.02423923648893833,
          -0.050532255321741104,
          -0.08131449669599533,
          0.002066859742626548,
          -0.047655194997787476
        ],
        [
          -0.00529762078076601,
          0.045267023146152496,
          -0.1224118024110794,
          -0.010356472805142403,
          -0.12856130301952362,
          0.035101182758808136,
          0.1574016958475113,
          0.056173939257860184,
          0.026951299980282784,
          -0.10646110028028488,
          -0.17640909552574158,
          -0.11412368714809418,
          0.15787042677402496,
          -0.10363250970840454,
          -0.19778065383434296,
          -0.057591572403907776,
          -0.1979101002216339,
          -0.04342515021562576,
          0.10470984131097794,
          0.11663684248924255,
          0.05704681575298309,
          0.011507137678563595,
          -0.11107765138149261,
          0.16844235360622406,
          -0.05799894407391548,
          -0.06644560396671295,
          -0.07192635536193848,
          0.05408648028969765,
          -0.07546337693929672,
          -0.07693447917699814,
          -0.13264669477939606,
          -0.01532216090708971,
          -0.1862463802099228,
          0.10951945930719376,
          -0.06169768422842026,
          1.1933699170185719e-05,
          -0.05392568185925484,
          0.10153763741254807,
          -0.11520632356405258,
          -0.13708434998989105,
          0.11516865342855453,
          -0.030329881235957146,
          0.07331588864326477,
          -0.0983843132853508,
          -0.10686364769935608,
          -0.09216655045747757,
          0.020786184817552567,
          0.031164173036813736
        ],
        [
          -0.16276153922080994,
          0.015548824332654476,
          -0.018533099442720413,
          0.05269869416952133,
          0.03951451554894447,
          -0.06366856396198273,
          0.1187787875533104,
          -0.09266304969787598,
          0.07623881101608276,
          0.3217094838619232,
          0.003472625743597746,
          -0.05263257399201393,
          -0.3183278441429138,
          -0.14983128011226654,
          0.15124396979808807,
          -0.1884685605764389,
          -0.1493450552225113,
          -0.08516623824834824,
          0.13133226335048676,
          -0.04771050065755844,
          -0.07530586421489716,
          -0.01137306448072195,
          -0.15644697844982147,
          -0.19541588425636292,
          0.15380370616912842,
          -0.054349444806575775,
          0.06288033723831177,
          0.09414756298065186,
          -0.08885963261127472,
          0.0008890835451893508,
          -0.0317845344543457,
          0.03247596696019173,
          -0.07379961013793945,
          -0.09426245093345642,
          0.03249889239668846,
          0.112293541431427,
          0.10618328303098679,
          -0.22379352152347565,
          0.009681398048996925,
          -0.019427621737122536,
          0.09855180233716965,
          -0.06325335055589676,
          -0.126670241355896,
          0.03266158699989319,
          -0.029638517647981644,
          0.07768293470144272,
          0.1011066734790802,
          -0.08144794404506683
        ],
        [
          0.09324703365564346,
          -0.007455077022314072,
          0.05873836576938629,
          -0.4009571373462677,
          0.12567612528800964,
          0.1377798616886139,
          0.13701151311397552,
          -0.00949852541089058,
          -0.012214909307658672,
          -0.29772624373435974,
          0.1396537721157074,
          0.08554834872484207,
          0.11930692940950394,
          -0.012330465950071812,
          0.10067049413919449,
          0.1112780049443245,
          0.06418045610189438,
          -0.09786520898342133,
          0.027897147461771965,
          -0.0744156613945961,
          -0.0881531685590744,
          -0.12218046188354492,
          0.08747999370098114,
          -0.005556314717978239,
          -0.24013598263263702,
          0.08711637556552887,
          0.025496073067188263,
          -0.026734426617622375,
          0.05731390044093132,
          -0.13617458939552307,
          0.06267480552196503,
          -0.06956898421049118,
          0.06992676854133606,
          -0.0882348120212555,
          -0.029295360669493675,
          0.1737983375787735,
          0.12941570580005646,
          0.07009010761976242,
          0.015611929818987846,
          -0.023798810318112373,
          -0.06369723379611969,
          -0.07641459256410599,
          0.1454421430826187,
          -0.10632530599832535,
          -0.030524222180247307,
          -0.0948219746351242,
          -0.12444716691970825,
          0.11811131238937378
        ],
        [
          -0.11039885133504868,
          0.026729654520750046,
          -0.1331692934036255,
          -0.004510817583650351,
          -0.17408759891986847,
          0.10914166271686554,
          0.25852251052856445,
          -0.08970847725868225,
          0.07609859108924866,
          -0.1041005551815033,
          -0.0012501111486926675,
          -0.10999573022127151,
          -0.13876472413539886,
          0.1107511892914772,
          0.09309661388397217,
          0.002529761753976345,
          -0.02048194408416748,
          -0.058476950973272324,
          -0.1312389075756073,
          -0.061086539179086685,
          0.07622551172971725,
          -0.08424599468708038,
          -0.08244841545820236,
          -0.07324252277612686,
          -0.010591701604425907,
          0.03410473093390465,
          0.0955963134765625,
          0.03673481196165085,
          0.09357511252164841,
          -0.0018666026880964637,
          0.01346670649945736,
          -0.041144996881484985,
          -0.07984039187431335,
          0.06180482730269432,
          0.04773387685418129,
          0.11327369511127472,
          -0.052668001502752304,
          0.03132544830441475,
          0.09531246870756149,
          0.12561719119548798,
          -0.0597202405333519,
          -0.02829989790916443,
          -0.04710984230041504,
          -0.043310727924108505,
          -0.029906922951340675,
          -0.12209583073854446,
          -0.02331738919019699,
          0.10171351581811905
        ],
        [
          0.23624540865421295,
          0.2345464527606964,
          0.09313845634460449,
          0.15053831040859222,
          0.09603623300790787,
          -0.010034889914095402,
          -0.04081590846180916,
          0.060097988694906235,
          -0.1543688029050827,
          -0.04891778156161308,
          -0.033041901886463165,
          -0.05322956293821335,
          -0.20728684961795807,
          -0.031965844333171844,
          0.02213066816329956,
          0.11111416667699814,
          0.06570597738027573,
          -0.04653433337807655,
          0.16152337193489075,
          0.005203612148761749,
          0.15311501920223236,
          -0.06943520903587341,
          0.01794840395450592,
          0.14736053347587585,
          0.023717327043414116,
          -0.03131849318742752,
          -0.19101153314113617,
          0.04219238832592964,
          0.08764360845088959,
          -0.06376553326845169,
          -0.05265860632061958,
          -0.0025473537389189005,
          -0.07528338581323624,
          0.08589239418506622,
          -0.11820105463266373,
          0.007777749095112085,
          -0.024444185197353363,
          -0.02480279467999935,
          -0.10944814234972,
          0.01767740771174431,
          -0.07566676288843155,
          -0.1297098845243454,
          -0.005169766955077648,
          -0.01926487684249878,
          0.1489066481590271,
          -0.04652153700590134,
          -0.04725601524114609,
          0.0938226729631424
        ],
        [
          0.002860360313206911,
          0.11419474333524704,
          0.09502353519201279,
          -0.12712739408016205,
          0.33782559633255005,
          0.39180687069892883,
          -0.23019488155841827,
          -0.0019657681696116924,
          -0.21642202138900757,
          0.45629358291625977,
          0.19946253299713135,
          0.13227170705795288,
          -0.2542193531990051,
          0.3880056142807007,
          0.17189456522464752,
          -0.2886500954627991,
          -0.13591749966144562,
          -0.11947626620531082,
          0.0591975674033165,
          0.09251740574836731,
          0.09681975841522217,
          -0.1286611109972,
          0.05353739857673645,
          0.01589001901447773,
          -0.08947627991437912,
          0.002385202795267105,
          0.04775890335440636,
          0.12606030702590942,
          0.047996968030929565,
          -0.06745202839374542,
          -0.09699267148971558,
          -0.09161131829023361,
          0.01813402771949768,
          0.10046180337667465,
          -0.0379856713116169,
          0.002922972897067666,
          -0.05373138561844826,
          -0.004535675514489412,
          -0.09144730865955353,
          -0.042927417904138565,
          0.12309803813695908,
          -0.07890073955059052,
          0.031221164390444756,
          0.09560883045196533,
          -0.0812930092215538,
          0.09248669445514679,
          -0.02179941162467003,
          0.04330477863550186
        ],
        [
          0.020330961793661118,
          -0.07853484153747559,
          -0.18429751694202423,
          -0.06289396435022354,
          -0.06828141957521439,
          -0.06155621260404587,
          0.19411849975585938,
          -0.10878495872020721,
          0.022497527301311493,
          0.09510516375303268,
          -0.41638922691345215,
          0.05311289057135582,
          -0.12255072593688965,
          -0.20572294294834137,
          -0.04908924922347069,
          0.37843629717826843,
          0.019291013479232788,
          0.0838397964835167,
          -0.07230375707149506,
          -0.14306192100048065,
          -0.02015428990125656,
          0.03096824698150158,
          -0.07522716373205185,
          -0.02203616127371788,
          -0.025001317262649536,
          -0.007820638827979565,
          0.06654380261898041,
          0.0017785440431907773,
          -0.04924513399600983,
          0.01609966903924942,
          0.044779807329177856,
          0.059107303619384766,
          0.27507439255714417,
          0.018604470416903496,
          -0.032860081642866135,
          0.013734367676079273,
          -0.06694294512271881,
          0.009299387224018574,
          0.09412679821252823,
          -0.06004137545824051,
          -0.046403780579566956,
          0.12592124938964844,
          -0.05705729126930237,
          -0.038193218410015106,
          0.14946867525577545,
          0.045252442359924316,
          0.03343690559267998,
          -0.012960491701960564
        ],
        [
          -0.23793789744377136,
          -0.28746870160102844,
          -0.1639389842748642,
          -0.3666996955871582,
          -0.01896809972822666,
          0.0769364982843399,
          0.30466413497924805,
          -0.10366842150688171,
          0.27359381318092346,
          -0.29475438594818115,
          0.06334389001131058,
          -0.26485711336135864,
          0.1039641946554184,
          -0.23910705745220184,
          -0.20819154381752014,
          0.18351322412490845,
          0.12278766185045242,
          -0.09143351018428802,
          -0.015985405072569847,
          0.00839383527636528,
          -0.06040221080183983,
          0.015715600922703743,
          -0.04833359271287918,
          0.09058748930692673,
          -0.0031524759251624346,
          -0.20077775418758392,
          -0.012309672310948372,
          0.1711607426404953,
          -0.1673106551170349,
          -0.04326055571436882,
          -0.024937167763710022,
          -0.01585427299141884,
          0.13455353677272797,
          -0.09299293160438538,
          0.009779279120266438,
          0.0972072184085846,
          0.05806903913617134,
          -0.13626395165920258,
          -0.06706584990024567,
          0.09440267086029053,
          -0.08575445413589478,
          -0.023030882701277733,
          -0.08879248797893524,
          -0.04886382818222046,
          -0.007829796522855759,
          0.12004676461219788,
          0.12037526071071625,
          -0.1395171880722046
        ],
        [
          -0.04633006453514099,
          -0.18644201755523682,
          -0.03584667295217514,
          0.16761545836925507,
          0.06265953928232193,
          0.005149779841303825,
          -0.078886479139328,
          -0.08704813569784164,
          -0.04437803477048874,
          0.029622038826346397,
          -0.07052529603242874,
          -0.09634194523096085,
          -0.443631649017334,
          -0.01981264166533947,
          -0.09527991712093353,
          -0.22309227287769318,
          -0.025277920067310333,
          0.03952600434422493,
          0.04853087291121483,
          -0.053756579756736755,
          -0.21067176759243011,
          -0.013815604150295258,
          -0.10048132389783859,
          0.058968041092157364,
          0.08548019081354141,
          0.03367689251899719,
          0.07670708000659943,
          0.050096914172172546,
          0.0034866149071604013,
          0.046329617500305176,
          -0.059476934373378754,
          -0.03263954818248749,
          -0.1536925882101059,
          0.056386224925518036,
          -0.13876472413539886,
          0.09868072718381882,
          0.004954336676746607,
          -0.02989267185330391,
          0.07826802879571915,
          0.05826348438858986,
          -0.05164157599210739,
          0.012695123441517353,
          -0.12742339074611664,
          -0.1104821190237999,
          0.02595914900302887,
          -0.0024301495868712664,
          -0.015527831390500069,
          -0.06483300775289536
        ],
        [
          0.12840701639652252,
          -0.054222170263528824,
          -0.08234113454818726,
          0.18516191840171814,
          0.11803969740867615,
          -0.05103994160890579,
          0.04363854601979256,
          -0.0224223081022501,
          -0.07916738837957382,
          0.0984339490532875,
          0.07424523681402206,
          -0.17079880833625793,
          -0.06640617549419403,
          0.0427648201584816,
          0.16703598201274872,
          0.2345941811800003,
          -0.04350113496184349,
          0.054227475076913834,
          0.03407552093267441,
          -0.03344929963350296,
          -0.07353038340806961,
          0.11139900982379913,
          0.08455518633127213,
          -0.008599559776484966,
          0.1399957239627838,
          0.031648989766836166,
          0.13676470518112183,
          0.09861553460359573,
          0.14094386994838715,
          0.058806199580430984,
          -0.1397070586681366,
          -0.022598447278141975,
          -0.0957399532198906,
          0.060764752328395844,
          -0.005500551778823137,
          -0.017945872619748116,
          -0.16320593655109406,
          -0.10039142519235611,
          0.08295039087533951,
          0.02063808962702751,
          -0.1518806368112564,
          -0.036571767181158066,
          -0.04342187941074371,
          0.007692090235650539,
          0.11134956777095795,
          0.042842522263526917,
          -0.10483163595199585,
          -0.014844044111669064
        ],
        [
          -0.18943580985069275,
          0.03475017100572586,
          -0.016324641183018684,
          -0.01710670441389084,
          0.10605552792549133,
          0.028429003432393074,
          -0.2789313793182373,
          -0.09347324073314667,
          -0.13630473613739014,
          -0.0932515561580658,
          -0.02715621143579483,
          0.102299764752388,
          -0.19845381379127502,
          -0.15982109308242798,
          -0.053018029779195786,
          -0.043353352695703506,
          0.14847858250141144,
          0.09163055568933487,
          0.09364573657512665,
          -0.02718198671936989,
          -0.10948614776134491,
          -0.08589193969964981,
          -0.03601067513227463,
          -0.018836084753274918,
          -0.07516906410455704,
          -0.12808017432689667,
          0.025608351454138756,
          0.05327752232551575,
          -0.10321681946516037,
          0.030897339805960655,
          -0.10058897733688354,
          -0.0056325155310332775,
          0.12475605309009552,
          0.10546316206455231,
          -0.08614363521337509,
          0.04907325655221939,
          -0.0071974811144173145,
          0.07881981134414673,
          0.09278836846351624,
          0.08151081204414368,
          0.02401399239897728,
          -0.06670419126749039,
          -0.06179628521203995,
          -0.028415225446224213,
          0.031181376427412033,
          0.03520612418651581,
          -0.05678219348192215,
          0.13012909889221191
        ],
        [
          -0.44311320781707764,
          -0.3034895956516266,
          -0.2726261615753174,
          -0.28490981459617615,
          -0.0755104124546051,
          -0.22525277733802795,
          -0.16194972395896912,
          -0.307809442281723,
          -0.1595049649477005,
          -0.20271997153759003,
          -0.06915134936571121,
          -0.2563753128051758,
          -0.2412647008895874,
          -0.06738953292369843,
          -0.3019331693649292,
          0.00016497710021212697,
          -0.08397426456212997,
          -0.06584636867046356,
          -0.061969954520463943,
          -0.02555401623249054,
          0.10000979155302048,
          -0.08733909577131271,
          0.04481230676174164,
          -0.20627698302268982,
          0.09032022953033447,
          0.09180005639791489,
          0.06760358810424805,
          -0.06046879291534424,
          -0.1421770602464676,
          0.1566154807806015,
          -0.03928790241479874,
          -0.046834442764520645,
          -0.054825007915496826,
          0.03878811001777649,
          -0.042489536106586456,
          0.043155308812856674,
          0.07043413817882538,
          0.05170482024550438,
          0.12858648598194122,
          0.08032028377056122,
          -0.17884224653244019,
          0.0343950092792511,
          -0.01796303316950798,
          0.08099577575922012,
          0.023588676005601883,
          -0.10213399678468704,
          0.0010893238941207528,
          0.08130642771720886
        ],
        [
          -0.17949561774730682,
          0.08439014106988907,
          -0.050985515117645264,
          0.001227945671416819,
          -0.256155788898468,
          -0.4947102665901184,
          0.10852575302124023,
          0.13076648116111755,
          -0.2982689440250397,
          -0.2846393585205078,
          -0.2472563236951828,
          -0.1033845916390419,
          -0.175469309091568,
          -0.013870187103748322,
          -0.1673285961151123,
          0.2441461980342865,
          0.16021943092346191,
          -0.020997483283281326,
          0.15425021946430206,
          0.013537900522351265,
          0.017622238025069237,
          -0.03176738694310188,
          -0.13390809297561646,
          0.09076213091611862,
          0.07803437113761902,
          -0.14770205318927765,
          0.19729827344417572,
          -0.10626426339149475,
          -0.090756855905056,
          -0.08740867674350739,
          0.1568334847688675,
          0.1673882007598877,
          0.059423938393592834,
          -0.05661686882376671,
          0.1406581997871399,
          -0.02204369381070137,
          -0.0048268623650074005,
          -0.039945825934410095,
          0.006144051905721426,
          -0.05890533700585365,
          0.06993910670280457,
          -0.1257621943950653,
          0.14113947749137878,
          -0.05470689386129379,
          -0.06069619208574295,
          0.08818113058805466,
          0.17980313301086426,
          0.02598460204899311
        ],
        [
          -0.12444645911455154,
          -0.1923528015613556,
          0.04826413840055466,
          -0.0062752775847911835,
          0.17022167146205902,
          -0.09835173189640045,
          -0.010466481558978558,
          0.06562956422567368,
          -0.2815636694431305,
          0.12665750086307526,
          -0.061846766620874405,
          0.20958028733730316,
          -0.09487946331501007,
          0.06059584021568298,
          0.07883572578430176,
          -0.1742384284734726,
          0.13799259066581726,
          -0.09488856047391891,
          0.2408389449119568,
          0.016760295256972313,
          0.023399369791150093,
          0.13335680961608887,
          -0.041812386363744736,
          0.07300149649381638,
          0.1615343540906906,
          -0.030717333778738976,
          -0.13144655525684357,
          -0.07668069005012512,
          -0.08915026485919952,
          0.0032306681387126446,
          0.0318424329161644,
          -0.05347280576825142,
          0.016405148431658745,
          0.0005798970232717693,
          -0.057735346257686615,
          -0.05091913044452667,
          0.02764056995511055,
          0.037079229950904846,
          0.0622277595102787,
          0.0004436380404513329,
          0.05891036242246628,
          0.002218765439465642,
          0.060683995485305786,
          -0.09135795384645462,
          0.06442698836326599,
          -0.050646595656871796,
          -0.0016531081637367606,
          -0.06914673000574112
        ],
        [
          -0.022813135758042336,
          -0.08753738552331924,
          0.16784849762916565,
          0.07443408668041229,
          -0.37977659702301025,
          -0.23634551465511322,
          0.08800072222948074,
          0.19196569919586182,
          -0.20063340663909912,
          0.22980837523937225,
          -0.13113944232463837,
          -0.10615050792694092,
          0.03603541851043701,
          0.30222082138061523,
          -0.14369021356105804,
          0.02660910040140152,
          0.028859063982963562,
          0.044961534440517426,
          -0.013841689564287663,
          0.011509404517710209,
          0.07942723482847214,
          -0.019496668130159378,
          -0.052030663937330246,
          -0.0994468629360199,
          -0.03867478668689728,
          -0.026944784447550774,
          -0.10140037536621094,
          0.1377645581960678,
          0.0713990330696106,
          0.05570502579212189,
          -0.17070372402668,
          -0.058579593896865845,
          0.09466246515512466,
          -0.03233627602458,
          0.022558562457561493,
          0.05419675260782242,
          -0.1546807885169983,
          0.1148425042629242,
          -0.04094496741890907,
          0.025869617238640785,
          0.017364153638482094,
          -0.048753250390291214,
          -0.041637200862169266,
          0.09253376722335815,
          -0.15806740522384644,
          0.20765094459056854,
          -0.015803713351488113,
          -0.053237058222293854
        ],
        [
          -0.16449153423309326,
          -0.32976245880126953,
          -0.1361035704612732,
          -0.32176873087882996,
          0.09100033342838287,
          -0.051738984882831573,
          0.06612294912338257,
          -0.009155694395303726,
          -0.11677677929401398,
          -0.005425974261015654,
          -0.07372850179672241,
          -0.05922461301088333,
          -0.10477423667907715,
          0.04071912169456482,
          -0.056628234684467316,
          0.16071699559688568,
          0.09132810682058334,
          0.0837964341044426,
          -0.1632598489522934,
          0.07013113051652908,
          0.0709068700671196,
          -0.06960923224687576,
          -0.01280561275780201,
          0.07973141968250275,
          0.09172636270523071,
          -0.01064551156014204,
          -0.002236689208075404,
          -0.06467514485120773,
          -0.02797522395849228,
          0.03573693707585335,
          0.004936065059155226,
          0.08196114003658295,
          0.23367460072040558,
          0.022608323022723198,
          -0.028608597815036774,
          0.05433710291981697,
          -0.0347554013133049,
          -0.016823625192046165,
          -0.13530731201171875,
          0.0014425860717892647,
          -0.114463210105896,
          0.0011337678879499435,
          -0.11776698380708694,
          0.06207384914159775,
          0.1273868978023529,
          -0.04412287846207619,
          -0.06786759942770004,
          -0.00118566257879138
        ],
        [
          -0.02889258787035942,
          -0.0506027415394783,
          -0.2180214524269104,
          -0.1377142071723938,
          -0.3168909251689911,
          -0.2600938379764557,
          0.10765450447797775,
          0.02763010375201702,
          0.04476948454976082,
          -0.3221592605113983,
          -0.2434353530406952,
          -0.21551698446273804,
          0.20110547542572021,
          -0.16320809721946716,
          -0.014105995185673237,
          0.1290668249130249,
          0.03357992321252823,
          0.020898129791021347,
          -0.04574335366487503,
          -0.03005104511976242,
          -0.03623789921402931,
          0.002325066365301609,
          -0.03549572452902794,
          -0.2395571619272232,
          0.07304088771343231,
          0.09591294825077057,
          0.055057696998119354,
          -0.20045888423919678,
          0.086963951587677,
          -0.02829584665596485,
          0.03091525472700596,
          0.012738327495753765,
          0.07759391516447067,
          -0.0013125630794093013,
          -0.08799225836992264,
          0.03835728392004967,
          -0.00855250097811222,
          -0.05769607052206993,
          0.11736658215522766,
          -0.09614304453134537,
          0.1012175902724266,
          -0.00554812652990222,
          0.09429967403411865,
          -0.02817593142390251,
          0.09603147953748703,
          -0.07008306682109833,
          0.04288091883063316,
          0.04561033099889755
        ],
        [
          -0.018189581111073494,
          -0.03126038610935211,
          -0.03651073947548866,
          -0.11211457848548889,
          -0.1621154099702835,
          0.00032104781712405384,
          -0.037716031074523926,
          -0.012333370745182037,
          -0.18292762339115143,
          -0.08008024841547012,
          -0.038229718804359436,
          0.09916985034942627,
          0.0788266658782959,
          0.1852824091911316,
          -0.12993788719177246,
          -0.03539581224322319,
          0.10211805254220963,
          -0.009201359935104847,
          0.03435186296701431,
          -0.053380824625492096,
          -0.04701218754053116,
          0.0019664964638650417,
          0.055854521691799164,
          0.1479983776807785,
          0.029901226982474327,
          0.03628950193524361,
          0.005200809333473444,
          0.042741402983665466,
          0.0748690515756607,
          -0.15573778748512268,
          -0.09023410826921463,
          0.010844225063920021,
          0.19325146079063416,
          0.01102184597402811,
          0.06334855407476425,
          -0.012743637897074223,
          0.060307782143354416,
          -0.19613826274871826,
          -0.1198643296957016,
          0.10539202392101288,
          -0.17110052704811096,
          0.10132081061601639,
          0.09259513765573502,
          -0.11255482584238052,
          -0.02017984353005886,
          0.04065895080566406,
          0.009304334409534931,
          -0.14282472431659698
        ],
        [
          0.08980048447847366,
          0.1989697515964508,
          0.1442418247461319,
          0.18338334560394287,
          -0.009147915057837963,
          0.12617705762386322,
          0.12283296138048172,
          -0.03898145258426666,
          -0.061514850705862045,
          -0.15259292721748352,
          -0.004367333836853504,
          -0.11122364550828934,
          0.0009872055379673839,
          0.12963485717773438,
          -0.08486241102218628,
          -0.017961379140615463,
          -0.006194020621478558,
          -0.00864606723189354,
          -0.028753118589520454,
          0.0740283727645874,
          0.06772971153259277,
          0.11059369891881943,
          -0.053190045058727264,
          -0.0783558040857315,
          -0.05775866284966469,
          0.06295354664325714,
          0.14317572116851807,
          0.012947004288434982,
          0.16436867415905,
          0.16840074956417084,
          -0.02381071075797081,
          -0.07926119863986969,
          0.052354130893945694,
          0.04490983858704567,
          -0.12266738712787628,
          0.01570793054997921,
          -0.03815684840083122,
          0.017521237954497337,
          0.0134994275867939,
          0.08591795712709427,
          0.09189735352993011,
          -0.07846133410930634,
          -0.028371386229991913,
          0.059044741094112396,
          -0.08363374322652817,
          -0.06359907239675522,
          0.04372648522257805,
          -0.055180877447128296
        ],
        [
          -0.07477916777133942,
          -0.23631881177425385,
          -0.12447421252727509,
          -0.26026272773742676,
          -0.13449737429618835,
          -0.07315979897975922,
          0.0721878856420517,
          -0.19245992600917816,
          -0.21623361110687256,
          -0.07782173901796341,
          -0.33390194177627563,
          -0.2831806540489197,
          0.08311256766319275,
          -0.04981178417801857,
          -0.27432724833488464,
          0.33518683910369873,
          -0.21049225330352783,
          -0.017909899353981018,
          -0.16825295984745026,
          -0.04218960925936699,
          -0.05120736360549927,
          0.032693084329366684,
          0.028847593814134598,
          -0.04504520073533058,
          -0.17101281881332397,
          -0.12532542645931244,
          0.035220641642808914,
          0.02705002948641777,
          -0.09477317333221436,
          -0.057515401393175125,
          -0.06826851516962051,
          -0.09978534281253815,
          0.10659852623939514,
          0.00449266005307436,
          -0.10893861949443817,
          -0.05505926162004471,
          -0.07276614010334015,
          -0.13725964725017548,
          0.04133656993508339,
          0.020065518096089363,
          0.021665574982762337,
          -0.007771951146423817,
          0.11410003155469894,
          0.05016566812992096,
          0.10130394995212555,
          0.018620852380990982,
          -0.004472247324883938,
          -0.16143672168254852
        ],
        [
          0.07715922594070435,
          0.17388661205768585,
          0.061103470623493195,
          -0.031695738434791565,
          -0.021570885553956032,
          0.20881915092468262,
          0.2500823736190796,
          0.11344325542449951,
          -0.019028447568416595,
          0.13191616535186768,
          -0.09475022554397583,
          -0.09929601848125458,
          0.19116538763046265,
          -0.05264582112431526,
          0.21863950788974762,
          -0.07462500780820847,
          -0.015460768714547157,
          -0.01091249193996191,
          -0.12672951817512512,
          0.063438780605793,
          0.007546242326498032,
          -0.19556084275245667,
          0.05834447965025902,
          0.025861617177724838,
          -0.14500904083251953,
          -0.013418891467154026,
          0.14803899824619293,
          -0.15293918550014496,
          -0.05549003928899765,
          -0.14035725593566895,
          0.08204632997512817,
          0.05528244003653526,
          0.05876048654317856,
          0.11133451759815216,
          -0.05592814460396767,
          -0.055787984281778336,
          -0.09697729349136353,
          -0.133790522813797,
          -0.031074516475200653,
          0.015301162376999855,
          -0.07805723696947098,
          -0.0697653666138649,
          0.067008376121521,
          0.04727865010499954,
          0.0004556577478069812,
          -0.05624188110232353,
          0.040061574429273605,
          -0.1183522567152977
        ],
        [
          -0.04196353629231453,
          -0.07044939696788788,
          -0.3329932689666748,
          0.05836418271064758,
          -0.36007261276245117,
          -0.20068033039569855,
          0.025388844311237335,
          0.07847905904054642,
          -0.014976237900555134,
          0.04915306717157364,
          -0.20973549783229828,
          -0.2718590497970581,
          0.40721794962882996,
          0.02772514894604683,
          -0.38490715622901917,
          0.30290257930755615,
          0.14549453556537628,
          0.007233305834233761,
          -0.04479589685797691,
          0.0583944097161293,
          0.2223202884197235,
          -0.10184409469366074,
          0.16827118396759033,
          0.026096053421497345,
          0.047873806208372116,
          -0.15638713538646698,
          -0.10890018939971924,
          0.06683055311441422,
          -0.09442871063947678,
          0.02082081511616707,
          0.14656126499176025,
          -0.06059851497411728,
          -0.10997160524129868,
          0.018389828503131866,
          -0.08142470568418503,
          -0.010970856994390488,
          -0.06192750483751297,
          -0.0015705105615779757,
          -0.14003172516822815,
          -0.04716052487492561,
          -0.13948816061019897,
          -0.046605054289102554,
          -0.03436523303389549,
          0.05423629283905029,
          0.02822379767894745,
          -0.0336989089846611,
          -0.04077042266726494,
          -0.04323606193065643
        ],
        [
          -0.08317012339830399,
          -0.09172539412975311,
          -0.022914035245776176,
          0.04233019798994064,
          -0.20174534618854523,
          -0.004365141503512859,
          0.07276365160942078,
          -0.16606035828590393,
          0.06712774187326431,
          -0.1499963253736496,
          -0.21323730051517487,
          -0.025087865069508553,
          0.16962583363056183,
          -0.13496258854866028,
          -0.20973016321659088,
          0.14213840663433075,
          0.03427722305059433,
          -0.06632976233959198,
          -0.17059266567230225,
          0.08913666009902954,
          -0.0347600020468235,
          -0.02234558016061783,
          0.14348584413528442,
          -0.0064909448847174644,
          -0.20045727491378784,
          0.03987140953540802,
          0.05818832665681839,
          -0.0036800787784159184,
          -0.017801864072680473,
          0.062157511711120605,
          0.016863025724887848,
          0.0325232669711113,
          0.16317233443260193,
          0.05789224058389664,
          -0.09774792194366455,
          -0.07219085842370987,
          0.08992325514554977,
          0.005200546700507402,
          0.05189095810055733,
          0.1521235853433609,
          0.029022138565778732,
          0.15083849430084229,
          0.14338482916355133,
          -0.13994291424751282,
          0.08162736892700195,
          0.016128670424222946,
          -0.06553435325622559,
          -0.01504417322576046
        ],
        [
          -0.2289222925901413,
          -0.35772785544395447,
          -0.30083632469177246,
          -0.18307730555534363,
          -0.2561399042606354,
          -0.17520028352737427,
          0.1793314814567566,
          -0.20267948508262634,
          -0.3254659175872803,
          -0.13260775804519653,
          -0.10967759042978287,
          -0.26565489172935486,
          0.13135989010334015,
          -0.24872419238090515,
          -0.24902045726776123,
          0.2648812532424927,
          -0.1473211795091629,
          -0.0395827554166317,
          -0.0646810531616211,
          0.0979749858379364,
          0.016870083287358284,
          -0.0817895159125328,
          -0.21519562602043152,
          -0.19975417852401733,
          0.12325714528560638,
          0.10504981875419617,
          0.07356464117765427,
          -0.17609703540802002,
          -0.0850391834974289,
          0.008137769065797329,
          -0.055043015629053116,
          0.06623726338148117,
          0.11228278279304504,
          -0.09272773563861847,
          -0.12167078256607056,
          0.08682972192764282,
          -0.04322081059217453,
          -0.15240806341171265,
          -0.2352340668439865,
          -0.05655154958367348,
          0.1005174070596695,
          0.08455052226781845,
          -0.0444401353597641,
          -0.021121077239513397,
          -0.010604611597955227,
          0.09971433132886887,
          -0.06453240662813187,
          -0.09176428616046906
        ],
        [
          0.21904149651527405,
          -0.024822067469358444,
          0.1510205864906311,
          0.12865078449249268,
          0.12957756221294403,
          0.12523819506168365,
          -0.23042304813861847,
          0.044917162507772446,
          0.24549952149391174,
          -0.16937841475009918,
          0.023259371519088745,
          0.2627736032009125,
          0.0613030306994915,
          -0.02689455822110176,
          0.04124968871474266,
          0.034115567803382874,
          -0.10316646844148636,
          0.12481062114238739,
          -0.041699688881635666,
          0.09549518674612045,
          0.017015153542160988,
          -0.011319813318550587,
          0.04833962395787239,
          0.12658658623695374,
          0.06145872920751572,
          0.03576147183775902,
          0.025476859882473946,
          0.11068607121706009,
          -0.15128035843372345,
          0.11673025041818619,
          -0.05627506598830223,
          0.1532341092824936,
          -0.011058260686695576,
          0.09091875702142715,
          -0.0291527658700943,
          0.08579285442829132,
          0.0516410693526268,
          -0.17092356085777283,
          0.10254081338644028,
          -0.1093781590461731,
          -0.027042564004659653,
          0.02231091633439064,
          0.0183543898165226,
          -0.0218989048153162,
          -0.04669303447008133,
          0.04501849412918091,
          -0.09914452582597733,
          0.02292630821466446
        ],
        [
          0.056839268654584885,
          -0.043721601366996765,
          -0.16164898872375488,
          -0.012381871230900288,
          -0.012235942296683788,
          -0.22676846385002136,
          0.05823599919676781,
          -0.16520504653453827,
          -0.06941032409667969,
          0.3068723678588867,
          -0.3104232847690582,
          -0.03301745280623436,
          0.005312473978847265,
          -0.05204830691218376,
          -0.06278043985366821,
          -0.11844202876091003,
          0.031196141615509987,
          -0.11252366751432419,
          0.10037440806627274,
          -0.07596113532781601,
          -0.03258617967367172,
          0.17081396281719208,
          0.008378027006983757,
          -0.009091033600270748,
          -0.12541279196739197,
          0.02718251198530197,
          -0.0786099061369896,
          -0.14899849891662598,
          0.14647985994815826,
          0.1405777782201767,
          -0.18218894302845,
          0.11979585140943527,
          0.08226851373910904,
          -0.05655970051884651,
          0.020197352394461632,
          -0.03895602747797966,
          -0.0253921989351511,
          0.08375199884176254,
          -0.14477308094501495,
          -0.11753824353218079,
          0.06031258404254913,
          0.04467406123876572,
          -0.030064832419157028,
          -0.008005961775779724,
          0.11947217583656311,
          -0.07639412581920624,
          -0.04473799839615822,
          -0.07172601670026779
        ],
        [
          -0.25302383303642273,
          0.005344158038496971,
          -0.07226228713989258,
          0.06860095262527466,
          0.18040060997009277,
          0.056842461228370667,
          0.23214444518089294,
          -0.07163266837596893,
          0.07137920707464218,
          0.12224972993135452,
          -0.011687096208333969,
          -0.016617869958281517,
          -0.41917306184768677,
          -0.07983332127332687,
          -0.13269099593162537,
          -0.16724535822868347,
          -0.07899235934019089,
          0.037764500826597214,
          0.013317923992872238,
          -0.07932420819997787,
          -0.06014062091708183,
          0.1265147477388382,
          0.0050065647810697556,
          -0.03458236902952194,
          -0.009058521129190922,
          -0.06600677967071533,
          -0.05117679759860039,
          0.1328374445438385,
          0.0662481039762497,
          0.05948682129383087,
          0.11991323530673981,
          0.09124207496643066,
          -0.08942191302776337,
          0.046585265547037125,
          -0.04334130510687828,
          0.06097137928009033,
          0.05655583739280701,
          0.04191092029213905,
          -0.15538135170936584,
          0.07223841547966003,
          0.04542946442961693,
          0.10295095294713974,
          -0.108058400452137,
          0.13978087902069092,
          -0.1291496306657791,
          -0.09180580824613571,
          0.10951882600784302,
          -0.03199726343154907
        ],
        [
          -0.16643138229846954,
          -0.451928049325943,
          -0.23064355552196503,
          -0.33438238501548767,
          -0.35602426528930664,
          -0.26266002655029297,
          0.004727683030068874,
          0.004606259521096945,
          -0.377690851688385,
          0.17460039258003235,
          -0.44551217555999756,
          -0.28994250297546387,
          -0.18487851321697235,
          -0.07555441558361053,
          -0.3647247850894928,
          0.1584610641002655,
          0.1785966157913208,
          0.10237760096788406,
          0.02772575616836548,
          -0.01535335835069418,
          0.019918635487556458,
          -0.05238940194249153,
          -0.04875028505921364,
          0.13002945482730865,
          0.023694463074207306,
          -0.04232342541217804,
          0.17205142974853516,
          0.020323988050222397,
          0.07038538157939911,
          -0.1095496192574501,
          -0.12352938205003738,
          -0.08185296505689621,
          -0.20378731191158295,
          0.018511125817894936,
          -0.07833727449178696,
          -0.006716706324368715,
          -0.128656268119812,
          0.05666797235608101,
          -0.0894433930516243,
          0.14064007997512817,
          -0.07827598601579666,
          -0.004994979593902826,
          -0.04821961000561714,
          -0.1622989922761917,
          0.09826861321926117,
          -0.0032723811455070972,
          0.029903201386332512,
          0.07577842473983765
        ],
        [
          0.3198457360267639,
          0.13537240028381348,
          -0.026668963953852654,
          -0.0180144552141428,
          0.14907896518707275,
          0.16470061242580414,
          0.12380137294530869,
          0.08008623123168945,
          0.20616509020328522,
          0.045671626925468445,
          0.06263658404350281,
          0.042791303247213364,
          -0.017938166856765747,
          -0.18882133066654205,
          0.135488823056221,
          -0.062211256474256516,
          -0.2991931438446045,
          -0.1260932981967926,
          0.07501111179590225,
          0.06265705823898315,
          0.00028066104277968407,
          0.02899741753935814,
          -0.14839674532413483,
          -0.07867342978715897,
          -0.010002240538597107,
          -0.1136837974190712,
          -0.08556269109249115,
          0.005736188963055611,
          -0.04254177212715149,
          0.06462546437978745,
          -0.12117034941911697,
          -0.211710587143898,
          -0.09252896159887314,
          -0.03026549331843853,
          0.01724405400454998,
          0.058368075639009476,
          -0.026340488344430923,
          0.07848948240280151,
          -0.05021442100405693,
          -0.021582964807748795,
          -0.13871094584465027,
          0.01633254997432232,
          0.08088701218366623,
          -0.14210492372512817,
          -0.04062257334589958,
          -0.012095492333173752,
          -0.07660562545061111,
          -0.043387316167354584
        ],
        [
          0.03704679012298584,
          -0.24577729403972626,
          -0.08992645889520645,
          -0.2165086716413498,
          -0.09224642813205719,
          -0.21452586352825165,
          -0.029609039425849915,
          0.0701577216386795,
          -0.03391589596867561,
          -0.12620891630649567,
          -0.22292935848236084,
          -0.21970315277576447,
          -0.1916329264640808,
          -0.12819534540176392,
          -0.1078343465924263,
          0.2319883555173874,
          0.04162350669503212,
          -0.056649986654520035,
          0.0333540141582489,
          0.04940590262413025,
          -0.029036130756139755,
          0.1354832500219345,
          0.07309049367904663,
          -0.04253575578331947,
          -0.033536992967128754,
          -0.08275597542524338,
          -0.08279237151145935,
          -0.07636292278766632,
          0.019950667396187782,
          -0.02018769271671772,
          -0.12509840726852417,
          -0.134300097823143,
          -0.10311198979616165,
          0.07387396693229675,
          0.10592422634363174,
          0.14478066563606262,
          -0.035868413746356964,
          -0.09258616715669632,
          0.0867307186126709,
          -0.08151064068078995,
          0.11894906312227249,
          -0.043354880064725876,
          0.059691328555345535,
          0.09565916657447815,
          -0.13280920684337616,
          -0.00435675447806716,
          -0.1265946626663208,
          0.17584966123104095
        ],
        [
          -0.41319891810417175,
          -0.28163912892341614,
          -0.082493357360363,
          -0.24750089645385742,
          -0.32937681674957275,
          -0.32043954730033875,
          0.1900240033864975,
          0.030226657167077065,
          -0.028471387922763824,
          -0.07618533819913864,
          -0.4189502000808716,
          -0.1105823740363121,
          -0.026856442913413048,
          -0.16216543316841125,
          -0.21668623387813568,
          0.19504417479038239,
          -0.08268938958644867,
          0.04608148708939552,
          -0.009321904741227627,
          0.08454588055610657,
          -0.09190645068883896,
          0.1572224497795105,
          0.13549654185771942,
          -0.017716893926262856,
          0.05159462243318558,
          -0.08168719708919525,
          0.03145488351583481,
          -0.03420528396964073,
          -0.08767177164554596,
          0.07680441439151764,
          0.00850234366953373,
          -0.022732611745595932,
          -0.04085734114050865,
          0.02824070118367672,
          -0.039803385734558105,
          0.00839207973331213,
          0.01678614504635334,
          0.0022740785498172045,
          0.049254607409238815,
          0.14527447521686554,
          -0.14481474459171295,
          -0.13518550992012024,
          0.08742942661046982,
          0.034429680556058884,
          0.10514681041240692,
          -0.011332486756145954,
          0.012370252050459385,
          -0.1391482800245285
        ],
        [
          0.04409495368599892,
          -0.12407130748033524,
          -0.14974462985992432,
          -0.0667598769068718,
          -0.0013139642542228103,
          -0.17485520243644714,
          0.14567342400550842,
          -0.18458938598632812,
          -0.16447052359580994,
          -0.0055620926432311535,
          0.11688040941953659,
          0.09992986917495728,
          -0.17314699292182922,
          0.0002891769399866462,
          -0.027795588597655296,
          -0.15158644318580627,
          -0.019341707229614258,
          -0.027714168652892113,
          -0.02864995412528515,
          -0.013481500558555126,
          -0.06645253300666809,
          0.05887015536427498,
          -0.05229611322283745,
          0.015456194058060646,
          0.0771990492939949,
          -0.03768673539161682,
          0.08202691376209259,
          -0.11164827644824982,
          -0.0006283095572143793,
          0.06953415274620056,
          0.133907288312912,
          -0.11120090633630753,
          -0.16216108202934265,
          0.04790441691875458,
          -0.06842593848705292,
          0.0673990473151207,
          0.13710714876651764,
          0.00810395460575819,
          -0.047371756285429,
          0.04240691661834717,
          -0.1580791473388672,
          -0.0065363626927137375,
          0.15121212601661682,
          0.06273698806762695,
          0.043337270617485046,
          0.21132823824882507,
          0.04687725007534027,
          -0.1016496792435646
        ],
        [
          -0.23985786736011505,
          -0.18462130427360535,
          -0.2350545972585678,
          -0.15962396562099457,
          -0.1804581582546234,
          0.023610861971974373,
          0.2653007209300995,
          0.05641959607601166,
          -0.1865176111459732,
          0.05236930772662163,
          -0.17969901859760284,
          -0.10696446895599365,
          -0.3531976640224457,
          -0.19251510500907898,
          -0.05347290635108948,
          0.10312888771295547,
          0.018749607726931572,
          0.007284135092049837,
          -0.11896999180316925,
          0.029824454337358475,
          -0.0017095414223149419,
          -0.024251051247119904,
          0.07698850333690643,
          0.17239460349082947,
          -0.2512863874435425,
          -0.10680178552865982,
          0.030429337173700333,
          -0.01337224431335926,
          -0.10457251220941544,
          -0.08312883228063583,
          0.008478472009301186,
          -0.1854887306690216,
          -0.12817955017089844,
          0.0307100098580122,
          -0.06430478394031525,
          -0.0555155873298645,
          -0.03708343952894211,
          0.04565360024571419,
          0.039905235171318054,
          -0.03423520550131798,
          -0.04569409042596817,
          -0.1320033222436905,
          0.030091525986790657,
          -0.0808950737118721,
          0.0370667390525341,
          0.002031345386058092,
          -0.13521850109100342,
          -0.18149186670780182
        ],
        [
          0.06700946390628815,
          0.023314325138926506,
          -0.043576788157224655,
          -0.04301637038588524,
          -0.03715405613183975,
          0.022337181493639946,
          0.09794436395168304,
          -0.028148846700787544,
          -0.061788804829120636,
          0.1997864842414856,
          -0.22663620114326477,
          0.07781840860843658,
          -0.059887006878852844,
          -0.08514075726270676,
          -0.08405964076519012,
          0.1488170623779297,
          0.19352450966835022,
          -0.1026783138513565,
          0.06671490520238876,
          0.0374269001185894,
          0.022776572033762932,
          -0.06610587984323502,
          -0.006066012196242809,
          -0.004275729414075613,
          -0.11017611622810364,
          0.1815967559814453,
          -0.035665515810251236,
          0.1302267462015152,
          0.11376562714576721,
          -0.017882592976093292,
          -0.09058760851621628,
          0.04135869815945625,
          0.06398843228816986,
          0.10265590250492096,
          0.05526937171816826,
          -0.06985088437795639,
          -0.10606452077627182,
          -0.09371355921030045,
          0.08200394362211227,
          -0.11268863826990128,
          -0.19331936538219452,
          -0.058734651654958725,
          0.11853082478046417,
          0.04648187756538391,
          0.010415058583021164,
          -0.0010502452496439219,
          0.0061298031359910965,
          -0.018027743324637413
        ],
        [
          -0.07981926202774048,
          -0.23733241856098175,
          -0.14070245623588562,
          -0.33747273683547974,
          -0.29497456550598145,
          -0.25264492630958557,
          0.11171738058328629,
          0.08555327355861664,
          0.007971282117068768,
          0.08743219077587128,
          -0.14890213310718536,
          -0.15512214601039886,
          0.22589054703712463,
          -0.08674617856740952,
          -0.23754668235778809,
          0.26454365253448486,
          0.2567214369773865,
          0.1242653951048851,
          0.0552152544260025,
          -0.03722443804144859,
          0.018125610426068306,
          0.0803641527891159,
          0.07608714699745178,
          -0.08868671953678131,
          0.026361148804426193,
          0.03467532992362976,
          0.009872600436210632,
          -0.046717118471860886,
          -0.11566456407308578,
          0.1383124142885208,
          -0.138577401638031,
          0.01760176755487919,
          0.11378083378076553,
          -0.06949920207262039,
          -0.03662199154496193,
          0.012758088298141956,
          -0.053468700498342514,
          0.05004866421222687,
          -0.021798444911837578,
          -0.04034033790230751,
          -0.04895554855465889,
          -0.009447121061384678,
          0.02803613431751728,
          -0.11612856388092041,
          0.05406900495290756,
          -0.048461608588695526,
          0.07548555731773376,
          -0.10850691050291061
        ],
        [
          0.012985150329768658,
          0.10789893567562103,
          -0.07966876775026321,
          0.14335227012634277,
          -0.41810882091522217,
          -0.3846653699874878,
          0.18497589230537415,
          0.03638792037963867,
          -0.18242129683494568,
          -0.36596161127090454,
          -0.1424541473388672,
          -0.16139276325702667,
          -0.02065802365541458,
          -0.029549192637205124,
          -0.29297390580177307,
          0.4912205636501312,
          0.09364748001098633,
          0.028217334300279617,
          -0.11279915273189545,
          0.08569908142089844,
          0.014880827628076077,
          -0.047848429530858994,
          0.03655155003070831,
          -0.023246947675943375,
          0.03760527819395065,
          0.0733296200633049,
          -0.010116059333086014,
          -0.129597008228302,
          -0.03947576880455017,
          -0.10181113332509995,
          -0.000978137948550284,
          0.03293983265757561,
          0.13245078921318054,
          -0.07848501950502396,
          0.08741866797208786,
          -0.017599327489733696,
          -0.04191835597157478,
          0.028238870203495026,
          -0.012453757226467133,
          0.02465500310063362,
          0.12157625705003738,
          -0.15187151730060577,
          -0.018088316544890404,
          0.11223646253347397,
          0.07479086518287659,
          -0.038088005036115646,
          0.03200024366378784,
          -0.07821666449308395
        ],
        [
          -0.1561889797449112,
          -0.0012036551488563418,
          0.007914546877145767,
          -0.18485119938850403,
          -0.13610291481018066,
          -0.2464493364095688,
          0.0401957668364048,
          -0.011381721124053001,
          -0.3917398154735565,
          -0.1271284520626068,
          -0.103790283203125,
          -0.1730424016714096,
          -0.11740396171808243,
          -0.17245206236839294,
          -0.250975102186203,
          0.28386199474334717,
          0.13072168827056885,
          -0.10168769955635071,
          -0.14924356341362,
          0.02974902279675007,
          0.1444813311100006,
          -0.013990219682455063,
          -0.01057757530361414,
          0.03699227049946785,
          0.0003573249850887805,
          -0.013153699226677418,
          0.1348682940006256,
          0.06551732867956161,
          -0.05592694506049156,
          -0.16726770997047424,
          -0.0961058959364891,
          0.06974489986896515,
          0.15484169125556946,
          -0.11917238682508469,
          0.09618443250656128,
          -0.06676436960697174,
          -0.01649780385196209,
          -0.07516314834356308,
          0.06204855814576149,
          -0.13885024189949036,
          -0.14813946187496185,
          -0.006096589844673872,
          -0.011599479243159294,
          -0.09431076794862747,
          0.0017417841590940952,
          0.007763000670820475,
          -0.06476684659719467,
          -0.04285147786140442
        ],
        [
          -0.036453865468502045,
          0.25847989320755005,
          0.2072209119796753,
          0.3292410373687744,
          0.1688956618309021,
          -0.0015593476127833128,
          -0.2880026698112488,
          0.04463275149464607,
          -0.017330633476376534,
          -0.07119202613830566,
          0.3170774281024933,
          0.038166556507349014,
          -0.25591152906417847,
          0.32272738218307495,
          0.27552899718284607,
          -0.22709143161773682,
          -0.04451610893011093,
          -0.03459982946515083,
          -0.1733289211988449,
          0.052196256816387177,
          0.061141662299633026,
          0.010226833634078503,
          -0.1326758712530136,
          0.029387354850769043,
          -0.08030886948108673,
          -0.028034523129463196,
          0.0695870891213417,
          -0.11708865314722061,
          -0.03276431933045387,
          0.11464039981365204,
          -0.03637611120939255,
          -0.06048322841525078,
          0.06293819844722748,
          0.016725972294807434,
          -0.010275132954120636,
          -0.03244924172759056,
          -0.1263582557439804,
          0.034410588443279266,
          -0.08085692673921585,
          -0.035390760749578476,
          -0.09748885780572891,
          0.11184585839509964,
          -0.07670915126800537,
          0.032925914973020554,
          0.0013206999283283949,
          0.12437047064304352,
          0.05520898848772049,
          -0.04508037865161896
        ],
        [
          0.05396562069654465,
          -0.23131249845027924,
          -0.09825056791305542,
          -0.13545887172222137,
          -0.3732302188873291,
          -0.2762871980667114,
          0.05402102321386337,
          0.06830711662769318,
          -0.09281060844659805,
          -0.09211811423301697,
          -0.4130416810512543,
          -0.24987637996673584,
          0.07094756513834,
          -0.17298007011413574,
          -0.062402158975601196,
          0.1820441037416458,
          0.04581400752067566,
          0.020769787952303886,
          -0.026751788333058357,
          -0.050786398351192474,
          0.0007755026454105973,
          0.052279725670814514,
          -0.15589743852615356,
          -0.20411688089370728,
          0.0912550762295723,
          -0.03257298097014427,
          0.015683267265558243,
          -0.12334813922643661,
          -0.13336077332496643,
          -0.07184496521949768,
          0.06279807537794113,
          -0.1711147576570511,
          -0.12146341055631638,
          0.09115806967020035,
          -0.17358385026454926,
          0.07165799289941788,
          -0.1667882353067398,
          0.023171793669462204,
          -0.2085389494895935,
          -0.21803945302963257,
          0.01897837035357952,
          -0.04475382715463638,
          -0.121883325278759,
          0.03011816181242466,
          -0.08347643911838531,
          -0.10378222912549973,
          0.039655525237321854,
          0.0524371936917305
        ],
        [
          0.23258984088897705,
          0.005380761343985796,
          -0.11116109788417816,
          -0.17554154992103577,
          0.02361886389553547,
          -0.01888141594827175,
          0.1449507623910904,
          0.13507668673992157,
          -0.10362527519464493,
          0.1256215125322342,
          -0.08220130950212479,
          -0.023751161992549896,
          -0.12830021977424622,
          -0.2344016581773758,
          -0.004594859667122364,
          0.09743665903806686,
          -0.25167742371559143,
          0.12120277434587479,
          -0.11459659039974213,
          -0.07594609260559082,
          0.07242700457572937,
          -0.08283006399869919,
          0.05137234553694725,
          0.07054722309112549,
          -0.035962700843811035,
          0.002382782055065036,
          -0.05314496159553528,
          -0.07442784309387207,
          -0.020648756995797157,
          -0.07941258698701859,
          -0.13655968010425568,
          -0.14967013895511627,
          -0.07652678340673447,
          0.04248886927962303,
          0.024024873971939087,
          -0.024403095245361328,
          0.010966773144900799,
          0.041884828358888626,
          0.07840912789106369,
          -0.1490718126296997,
          -0.03502296283841133,
          -0.0326627679169178,
          0.013248900882899761,
          -0.03210965543985367,
          0.08855709433555603,
          -0.04668818414211273,
          -0.01773558184504509,
          -0.03657320886850357
        ],
        [
          0.18410782516002655,
          -0.2494286596775055,
          -0.15160249173641205,
          0.007490130141377449,
          -0.04836605116724968,
          -0.191865012049675,
          0.3352465033531189,
          -0.06823621690273285,
          -0.1828245222568512,
          0.018732337281107903,
          -0.1620049923658371,
          -0.016607007011771202,
          0.13371902704238892,
          -0.21658162772655487,
          -0.030408699065446854,
          0.27239781618118286,
          0.08754425495862961,
          -0.006726543419063091,
          -0.017520179972052574,
          -0.07557103782892227,
          -0.04450918734073639,
          -0.17751869559288025,
          -0.048725880682468414,
          -0.06255848705768585,
          0.11421618610620499,
          -0.06368877738714218,
          0.0641733780503273,
          0.04741537198424339,
          -0.023208215832710266,
          -0.018747517839074135,
          0.056108295917510986,
          -0.13348416984081268,
          -0.007912504486739635,
          0.060165610164403915,
          -0.0410761833190918,
          0.11581720411777496,
          0.030799243599176407,
          -0.031016679480671883,
          0.17395460605621338,
          -0.12415838241577148,
          0.15946194529533386,
          -0.08490092307329178,
          0.22173810005187988,
          0.10221093147993088,
          -0.01277698203921318,
          -0.03186677768826485,
          -0.1263819932937622,
          -0.008756086230278015
        ],
        [
          -0.1454727053642273,
          0.11813414841890335,
          0.08809054642915726,
          0.01456416305154562,
          0.2996337115764618,
          0.26785776019096375,
          -0.06681081652641296,
          0.11490634828805923,
          0.11041729152202606,
          -0.03002922423183918,
          0.29772546887397766,
          0.23508620262145996,
          -0.1395864635705948,
          -0.10119625180959702,
          0.17006662487983704,
          -0.17746832966804504,
          0.05157075449824333,
          -0.10876557230949402,
          0.013200199231505394,
          0.1083933562040329,
          -0.05098236724734306,
          0.07390819489955902,
          -0.0348854623734951,
          -0.04407801479101181,
          0.10719749331474304,
          -0.07242363691329956,
          0.07209143787622452,
          -0.014832661487162113,
          0.048098888248205185,
          0.054696179926395416,
          0.14361898601055145,
          -0.07644665986299515,
          0.06227239966392517,
          0.08281004428863525,
          -0.06179698929190636,
          -0.09691470116376877,
          0.024130981415510178,
          -0.09248813986778259,
          0.13081565499305725,
          0.026608025655150414,
          -0.046177808195352554,
          0.013965442776679993,
          -0.036003172397613525,
          -0.06833746284246445,
          -0.07453541457653046,
          0.08453196287155151,
          0.05667997896671295,
          0.010097040794789791
        ],
        [
          -0.1764596700668335,
          -0.06914076954126358,
          -0.04135759174823761,
          -0.18115761876106262,
          0.10413631796836853,
          -0.09344737976789474,
          0.06989405304193497,
          0.24801290035247803,
          0.008547928184270859,
          -0.024528546258807182,
          -0.03161695599555969,
          -0.10356472432613373,
          0.24775923788547516,
          -0.019985347986221313,
          0.07947514206171036,
          -0.02108856290578842,
          -0.13748180866241455,
          -0.20097140967845917,
          0.09980230033397675,
          0.08784247189760208,
          0.11699262261390686,
          0.08665036410093307,
          0.04888206720352173,
          0.035945501178503036,
          -0.0023035993799567223,
          0.057060275226831436,
          -0.043354831635951996,
          0.12274684011936188,
          0.11802025139331818,
          -0.06596013903617859,
          0.1648549884557724,
          0.09082718938589096,
          -0.1753263771533966,
          -0.07577379047870636,
          0.08176400512456894,
          -0.03266462683677673,
          0.10590523481369019,
          -0.1477472484111786,
          0.002029124414548278,
          0.2215193659067154,
          0.15049999952316284,
          0.08814124763011932,
          0.14398673176765442,
          -0.14236706495285034,
          0.022155892103910446,
          -0.05179496482014656,
          0.01599053479731083,
          -0.15171772241592407
        ],
        [
          0.023148762062191963,
          -0.24480317533016205,
          -0.18948771059513092,
          -0.3458315432071686,
          -0.03379972279071808,
          -0.29423558712005615,
          0.03457984700798988,
          -0.09557608515024185,
          -0.10791078954935074,
          0.2229708582162857,
          -0.17715075612068176,
          -0.14727318286895752,
          -0.12249112874269485,
          -0.3338891863822937,
          0.00021573284175246954,
          -0.10577373206615448,
          -0.02448052540421486,
          0.1696474701166153,
          0.06147579848766327,
          0.04977727308869362,
          0.16583092510700226,
          0.06199553608894348,
          0.0361345112323761,
          -0.04870643839240074,
          0.0996008887887001,
          -0.11442798376083374,
          0.01627667434513569,
          -0.09423217922449112,
          -0.046135786920785904,
          0.05768859013915062,
          -0.1959356814622879,
          -0.008002723567187786,
          -0.0695955753326416,
          0.021916065365076065,
          -0.11988420784473419,
          0.018432294949889183,
          -0.09380798041820526,
          0.01105774287134409,
          0.08350426703691483,
          -0.07938692718744278,
          -0.05562027171254158,
          -0.07489732652902603,
          0.11875880509614944,
          0.07731091231107712,
          -0.03720604628324509,
          0.0371805764734745,
          -0.0557720884680748,
          -0.04982316121459007
        ],
        [
          -0.2292298525571823,
          -0.0755075216293335,
          -0.28595659136772156,
          -0.2504947781562805,
          -0.06051216647028923,
          -0.18732959032058716,
          0.18601872026920319,
          0.21891716122627258,
          -0.2908640503883362,
          -0.2040095180273056,
          -0.046578165143728256,
          -0.05317409709095955,
          0.11888755857944489,
          0.25177326798439026,
          -0.12982113659381866,
          0.05253518372774124,
          0.07029920816421509,
          0.00557888625189662,
          -0.07322537153959274,
          -0.0148689653724432,
          0.0030939362477511168,
          0.011683945544064045,
          0.11317391693592072,
          -0.011771474964916706,
          0.1588815450668335,
          -0.0998472273349762,
          -0.03295781463384628,
          -0.083994559943676,
          0.11644663661718369,
          -0.013838029466569424,
          -0.056590735912323,
          -0.001614495413377881,
          0.0004104522231500596,
          0.15431168675422668,
          0.03714375197887421,
          -0.057967379689216614,
          -0.06843338906764984,
          0.07363184541463852,
          -0.22960957884788513,
          0.03566785156726837,
          -0.10073235630989075,
          -0.019051525741815567,
          0.023438429459929466,
          0.17345084249973297,
          0.026388052850961685,
          0.09907825291156769,
          -0.01759118027985096,
          -0.005946101620793343
        ],
        [
          0.43744298815727234,
          0.01811453141272068,
          -0.15764020383358002,
          -0.0043639796786010265,
          -0.17509698867797852,
          -0.2726495563983917,
          0.1919470727443695,
          0.15233482420444489,
          -0.2770988941192627,
          -0.021084485575556755,
          -0.43871304392814636,
          -0.20617662370204926,
          0.07970135658979416,
          0.06021528318524361,
          -0.21409860253334045,
          0.12099318951368332,
          0.0696905180811882,
          0.0794840008020401,
          0.05538375675678253,
          -0.042140647768974304,
          0.03294955566525459,
          0.028048140928149223,
          0.06448282301425934,
          0.07664645463228226,
          0.14053846895694733,
          0.11307233572006226,
          0.024309558793902397,
          -0.09599217772483826,
          -0.12011324614286423,
          -0.01925160177052021,
          0.018951978534460068,
          0.017980551347136497,
          0.09119472652673721,
          -0.010742656886577606,
          -0.07559731602668762,
          0.08514809608459473,
          0.11772526800632477,
          -0.10926716029644012,
          0.05133378505706787,
          -0.00843218807131052,
          0.06365776807069778,
          -0.16280902922153473,
          0.10909444093704224,
          -0.042653992772102356,
          0.01794607937335968,
          -0.1466812640428543,
          -0.05536600574851036,
          -0.020462602376937866
        ],
        [
          -0.16664911806583405,
          -0.18734635412693024,
          -0.06339651346206665,
          -0.2843869626522064,
          -0.08384451270103455,
          -0.23493565618991852,
          0.17817193269729614,
          -0.3344760835170746,
          0.05775316804647446,
          0.013443258590996265,
          -0.20270949602127075,
          -0.29404088854789734,
          -0.043635640293359756,
          -0.17492038011550903,
          -0.15748406946659088,
          0.2167786955833435,
          -0.1881302446126938,
          0.0535004623234272,
          -0.13266848027706146,
          -0.039830032736063004,
          -0.16351218521595,
          -0.1209554672241211,
          -0.23526743054389954,
          0.017721837386488914,
          0.06454139202833176,
          0.06233680993318558,
          -0.07436124980449677,
          0.08955715596675873,
          -0.006819024682044983,
          0.030196374282240868,
          -0.10510268807411194,
          -0.15290473401546478,
          -0.18828034400939941,
          -0.034195687621831894,
          -0.1640690714120865,
          -0.045084450393915176,
          0.04879789799451828,
          0.024760140106081963,
          -0.1062685176730156,
          -0.034445133060216904,
          0.08160500228404999,
          -0.007045615930110216,
          -0.10330911725759506,
          -0.0004611486510839313,
          0.1812988966703415,
          0.025343919172883034,
          0.040747497230768204,
          -0.023435696959495544
        ],
        [
          -0.03240537643432617,
          -0.1326054483652115,
          -0.1856943964958191,
          0.18364690244197845,
          0.06438351422548294,
          -0.02403927966952324,
          -0.11821805685758591,
          -0.1522330641746521,
          0.17268681526184082,
          -0.2509543299674988,
          -0.37151333689689636,
          -0.33917316794395447,
          0.09149328619241714,
          0.01796431839466095,
          -0.09510243684053421,
          0.05287741869688034,
          0.039618588984012604,
          -0.05325160548090935,
          0.0837092250585556,
          -0.11111754924058914,
          0.09985296428203583,
          -0.17470800876617432,
          -0.011469191871583462,
          0.09715001285076141,
          -0.07370799034833908,
          0.06757722049951553,
          -0.02708296664059162,
          0.027181027457118034,
          0.1982003152370453,
          -0.15709994733333588,
          0.09354542195796967,
          -0.007205990143120289,
          0.11040899902582169,
          -0.08734671771526337,
          0.10319700092077255,
          -0.1259528249502182,
          0.01910467818379402,
          -0.05448707193136215,
          0.05906597897410393,
          0.01731017418205738,
          -0.05386648699641228,
          0.05484013631939888,
          0.14811550080776215,
          -0.12288981676101685,
          0.12119929492473602,
          0.1616298258304596,
          0.06851173937320709,
          -0.054998546838760376
        ],
        [
          0.12589031457901,
          0.19628667831420898,
          0.005698570981621742,
          0.1076250746846199,
          -0.1783851981163025,
          -0.15923051536083221,
          -0.04132358729839325,
          0.15732726454734802,
          -0.004353421740233898,
          0.13175387680530548,
          -0.11301977187395096,
          0.14161495864391327,
          -0.06447526067495346,
          0.07293298095464706,
          0.25138401985168457,
          0.12055999040603638,
          -0.015170378610491753,
          -0.035575393587350845,
          -0.02530808560550213,
          -0.026546409353613853,
          -0.12260851263999939,
          0.056699786335229874,
          -0.04804481565952301,
          -0.1407068967819214,
          0.12988677620887756,
          -0.021124623715877533,
          -0.07075328379869461,
          -0.11573202162981033,
          -0.07083537429571152,
          -0.03891702741384506,
          0.05688069388270378,
          -0.048159584403038025,
          -0.0012420027051120996,
          -0.04517074674367905,
          -0.09888634830713272,
          -0.020864341408014297,
          0.07948356866836548,
          0.03771287947893143,
          -0.0435938760638237,
          -0.04054603353142738,
          -0.12703976035118103,
          -0.03640628606081009,
          -0.051877815276384354,
          0.021537356078624725,
          0.027763163670897484,
          -0.13415071368217468,
          0.03321828693151474,
          -0.0902801901102066
        ],
        [
          0.10614163428544998,
          -0.19172364473342896,
          -0.036157187074422836,
          0.07563774287700653,
          -0.053291331976652145,
          -0.1945858597755432,
          0.05584481731057167,
          -0.04895472526550293,
          -0.1850184053182602,
          0.22036443650722504,
          -0.06766534596681595,
          -0.042268410325050354,
          -0.18228964507579803,
          -0.2710985839366913,
          -0.06789024919271469,
          0.0162676814943552,
          0.013092618435621262,
          0.1814105063676834,
          -0.1577724665403366,
          -0.08076151460409164,
          0.12814512848854065,
          0.02380843460559845,
          0.03946195915341377,
          0.004165996797382832,
          -0.031683631241321564,
          0.012611163780093193,
          0.010719403624534607,
          0.16517454385757446,
          0.003180541330948472,
          0.05393344163894653,
          -0.1342388391494751,
          0.07599438726902008,
          -0.034436386078596115,
          0.16219539940357208,
          -0.15265078842639923,
          -0.07831332087516785,
          -0.10979610681533813,
          -0.08301179111003876,
          -0.09405525773763657,
          -0.0019062354695051908,
          0.14160411059856415,
          -0.09396198391914368,
          -0.12937727570533752,
          0.08600300550460815,
          -0.04707125574350357,
          -0.014196697622537613,
          0.10255119949579239,
          0.011074034497141838
        ],
        [
          0.06789658963680267,
          0.12661273777484894,
          0.05354372784495354,
          0.15169242024421692,
          -0.09213573485612869,
          -0.008185264654457569,
          -0.1770504117012024,
          0.11989861726760864,
          0.06285694241523743,
          -0.1695045381784439,
          0.02598869800567627,
          -0.12182345986366272,
          -0.08977420628070831,
          0.02941393293440342,
          0.016634605824947357,
          -0.06780250370502472,
          -0.11425991356372833,
          0.09516327828168869,
          0.052064891904592514,
          0.0643334910273552,
          0.02605198137462139,
          0.028584903106093407,
          -0.045072928071022034,
          0.047454629093408585,
          0.10413193702697754,
          -0.01869891583919525,
          -0.07182887196540833,
          0.09338299185037613,
          -0.1405578851699829,
          -0.030696295201778412,
          0.01258255634456873,
          0.11811944097280502,
          0.033587533980607986,
          0.10377652943134308,
          0.0756823718547821,
          -0.0959930419921875,
          0.05743597820401192,
          0.08344222605228424,
          -0.04919273033738136,
          0.08866662532091141,
          -0.028938857838511467,
          -0.07275445759296417,
          0.033711448311805725,
          -0.027306074276566505,
          -0.0953381359577179,
          -0.10082060843706131,
          -0.028573056682944298,
          -0.11177220940589905
        ],
        [
          -0.06036736071109772,
          -0.22296887636184692,
          -0.1174318715929985,
          -0.02680366300046444,
          -0.033749911934137344,
          0.15545536577701569,
          0.011771759018301964,
          0.016840947791934013,
          -0.25149762630462646,
          0.28971198201179504,
          -0.31646522879600525,
          -0.12888728082180023,
          0.07765629142522812,
          -0.23420192301273346,
          0.039490099996328354,
          0.014470790512859821,
          0.10511115938425064,
          -0.06566879898309708,
          -0.02558302879333496,
          0.10525088757276535,
          -0.029021790251135826,
          0.1532871574163437,
          -0.028111591935157776,
          -0.06522022932767868,
          0.14198516309261322,
          -0.2051791399717331,
          -0.07984327524900436,
          0.15546122193336487,
          -0.09434671700000763,
          -0.10822188854217529,
          0.04026803374290466,
          0.09489387273788452,
          -0.04555011913180351,
          0.05490603670477867,
          0.1467019021511078,
          -0.08059443533420563,
          0.02333238534629345,
          -0.055375609546899796,
          -0.05142003670334816,
          -0.08571597933769226,
          0.08585557341575623,
          0.08966460078954697,
          -0.007324140518903732,
          -0.01864442601799965,
          -0.008877800777554512,
          0.02407330460846424,
