{
  "layers": [
    {
      "index": 0,
      "weight": [
        [
          0.06779235601425171,
          -0.04974161088466644,
          -0.012611203826963902,
          0.05656992271542549,
          -0.1336493343114853,
          0.08034718781709671,
          -0.03813555836677551,
          0.06703178584575653,
          0.017152538523077965,
          -0.02787178009748459,
          0.03506319224834442,
          0.004739015828818083,
          0.046938564628362656,
          -0.053524136543273926,
          -0.01619119569659233,
          -0.01935880444943905,
          0.01591339334845543,
          0.0030435482040047646,
          0.12006038427352905,
          0.016815992072224617,
          -0.06930853426456451,
          -0.11246466636657715,
          -0.034589122980833054,
          -0.025087058544158936,
          -0.07983474433422089,
          0.0115535669028759,
          0.06128433346748352,
          0.06726434826850891,
          -0.13085581362247467,
          0.02897004596889019,
          0.03917701169848442,
          0.09206986427307129,
          0.09003423899412155,
          -0.10499399900436401,
          -0.1291591376066208,
          -0.08516033738851547,
          0.1219734251499176,
          -0.008226611651480198,
          0.06255291402339935,
          -0.06514965742826462,
          0.14085927605628967,
          -0.041182342916727066,
          0.09596410393714905,
          0.009439700283110142,
          -0.0767756849527359,
          0.09339499473571777,
          -0.05225880444049835,
          0.026145659387111664
        ],
        [
          -0.05015387386083603,
          -0.012495990842580795,
          -0.15138134360313416,
          -0.07857003808021545,
          0.0701633021235466,
          -0.04061759635806084,
          0.13368560373783112,
          0.10082711279392242,
          -0.018494945019483566,
          -0.0930403470993042,
          0.08044563978910446,
          0.041210852563381195,
          -0.10453642159700394,
          0.08490917086601257,
          0.08404851704835892,
          0.11945871263742447,
          -0.0626092180609703,
          0.023751525208353996,
          -0.0262451171875,
          -0.016096768900752068,
          -0.08228708058595657,
          -0.055778779089450836,
          0.07612355053424835,
          -0.026783887296915054,
          0.06618417054414749,
          0.02556467428803444,
          0.05439261347055435,
          0.04323321580886841,
          0.07554926723241806,
          0.09942027926445007,
          -0.12389706820249557,
          0.08746872842311859,
          -0.0950576588511467,
          -0.08130677789449692,
          0.02317838743329048,
          0.0074727837927639484,
          0.054810818284749985,
          -0.08812045305967331,
          -0.1264517903327942,
          0.09656286239624023,
          0.004268111661076546,
          0.0791001170873642,
          0.0427846685051918,
          -0.07591438293457031,
          0.023070869967341423,
          -0.006303988862782717,
          -0.05107911676168442,
          -0.07392760366201401
        ],
        [
          0.06282392889261246,
          0.05702032148838043,
          -0.058599624782800674,
          -0.017768554389476776,
          0.14839830994606018,
          -0.00690170144662261,
          0.10284792631864548,
          0.0778399407863617,
          -0.07797802984714508,
          -0.11185958981513977,
          0.15794086456298828,
          0.03449780493974686,
          0.11769037693738937,
          0.05593373253941536,
          0.065714530646801,
          0.13198459148406982,
          0.13211974501609802,
          -0.13273753225803375,
          0.00946782622486353,
          0.14589732885360718,
          0.11332468688488007,
          0.1137080043554306,
          -0.11944796144962311,
          -0.12062238901853561,
          -0.05910226330161095,
          0.039249714463949203,
          0.15447942912578583,
          -0.1164550855755806,
          0.08183566480875015,
          -0.08465628325939178,
          -0.11174976825714111,
          -0.009503998793661594,
          0.04007255285978317,
          0.11359991133213043,
          -0.042153727263212204,
          0.022694507613778114,
          0.1442008912563324,
          0.0738740786910057,
          0.09479346126317978,
          0.09795830398797989,
          0.07197131961584091,
          0.01004007738083601,
          -0.09432219713926315,
          -0.12715797126293182,
          -0.05224323645234108,
          -0.0448080338537693,
          -0.07982312142848969,
          0.02045765519142151
        ],
        [
          0.024037325754761696,
          -0.021453283727169037,
          0.035288430750370026,
          0.019704673439264297,
          0.0754414051771164,
          0.08832833915948868,
          -0.05703744664788246,
          0.13095395267009735,
          -0.028270047158002853,
          -0.019890937954187393,
          -0.1477186530828476,
          -0.10363186150789261,
          -0.10960040241479874,
          -0.07004611939191818,
          0.08386305719614029,
          -0.06559846550226212,
          -0.09745392203330994,
          0.06736716628074646,
          0.06858239322900772,
          0.0774293914437294,
          -0.08543860912322998,
          0.030888691544532776,
          -0.04767059162259102,
          0.017814956605434418,
          -0.1038285568356514,
          -0.0591827854514122,
          -0.04781867191195488,
          0.06458986550569534,
          0.042145952582359314,
          0.03645941615104675,
          0.15278546512126923,
          0.11908227950334549,
          0.06752044707536697,
          -0.017601223662495613,
          -0.11042174696922302,
          0.1175801157951355,
          -0.028194371610879898,
          -0.04057486355304718,
          -0.1391582190990448,
          -0.0577956922352314,
          -0.10614680498838425,
          0.1092335507273674,
          -0.10081139206886292,
          -0.10904373973608017,
          -0.0448194295167923,
          -0.07250979542732239,
          0.03255230560898781,
          -0.07326902449131012
        ],
        [
          -0.05320117995142937,
          -0.003980543464422226,
          0.11399928480386734,
          -0.10355126112699509,
          0.06585907936096191,
          0.09442790597677231,
          0.14300061762332916,
          -0.09547361731529236,
          0.040904536843299866,
          -0.10011035948991776,
          0.11944179236888885,
          -0.05581938847899437,
          0.08312568813562393,
          -0.007334473077207804,
          -0.010137196630239487,
          -0.006274256389588118,
          0.028605107218027115,
          0.04585502669215202,
          -0.002200466813519597,
          0.04599522426724434,
          -0.17440491914749146,
          0.08833418041467667,
          0.11649856716394424,
          0.09783762693405151,
          0.10110142827033997,
          -0.14645615220069885,
          -0.04912150651216507,
          0.1530834585428238,
          -0.12559278309345245,
          0.1147419884800911,
          -0.1435442417860031,
          -0.09305434674024582,
          0.0914149284362793,
          -0.10191398859024048,
          -0.02907179296016693,
          0.12169252336025238,
          0.09140398353338242,
          0.1341005265712738,
          -0.0495368093252182,
          -0.1260608434677124,
          0.15734317898750305,
          -0.047264281660318375,
          -0.06644206494092941,
          0.02339383214712143,
          -0.09467300027608871,
          0.10987164080142975,
          0.10033027082681656,
          -0.09214703738689423
        ],
        [
          -0.13172347843647003,
          -0.032139722257852554,
          0.04553384706377983,
          -0.0154853705316782,
          -0.07873092591762543,
          -0.005051858723163605,
          -0.1437676101922989,
          -0.10640646517276764,
          -0.10429627448320389,
          0.08705136179924011,
          0.12747298181056976,
          -0.0553668849170208,
          0.000606296758633107,
          0.05294894799590111,
          0.004129333887249231,
          -0.07852981984615326,
          0.06308688968420029,
          0.06430552154779434,
          -0.026008201763033867,
          -0.03808388486504555,
          0.13598768413066864,
          0.12197879701852798,
          -0.10710767656564713,
          0.1423109769821167,
          0.0327339693903923,
          -0.11010584235191345,
          0.04956583306193352,
          -0.13858051598072052,
          0.12958277761936188,
          -0.09167763590812683,
          0.0320701077580452,
          0.06821795552968979,
          0.023996340110898018,
          0.14098672568798065,
          -0.03994699940085411,
          -0.09004711359739304,
          -0.10338790714740753,
          -0.008150381036102772,
          -0.0652020052075386,
          -0.015036034397780895,
          -0.029544048011302948,
          0.049490947276353836,
          0.09283861517906189,
          0.02978731319308281,
          -0.05921829491853714,
          -0.09759321063756943,
          -0.13239987194538116,
          0.07848433405160904
        ],
        [
          -0.020009612664580345,
          0.02344655431807041,
          -0.004879165440797806,
          -0.0901901051402092,
          0.08790135383605957,
          0.08674424886703491,
          0.0028061543125659227,
          -0.0895477831363678,
          -0.058963075280189514,
          -0.010680674575269222,
          -0.08536524325609207,
          -0.0825934112071991,
          -0.021763890981674194,
          -0.03304119408130646,
          0.034238871186971664,
          -0.032651372253894806,
          -0.02999122068285942,
          -0.07229264825582504,
          -0.12020260095596313,
          0.12165430933237076,
          0.040959395468235016,
          0.14102576673030853,
          -0.0015994826098904014,
          -0.06780389696359634,
          -0.10994094610214233,
          -0.04838185757398605,
          0.08870425075292587,
          -0.1287287473678589,
          -0.05220314487814903,
          0.08010052889585495,
          0.06186723709106445,
          0.049944985657930374,
          -0.04947331175208092,
          -0.04182815924286842,
          -0.04899899661540985,
          -0.0592118538916111,
          0.04877161234617233,
          -0.05753575265407562,
          -0.09819300472736359,
          0.05381163954734802,
          -0.0863632932305336,
          -0.06422088295221329,
          0.07699623703956604,
          0.018319206312298775,
          0.12998875975608826,
          -0.08070085197687149,
          -0.013490377925336361,
          -0.06907174736261368
        ],
        [
          -0.1626434475183487,
          -0.11530403792858124,
          0.0010962820379063487,
          0.005176292732357979,
          -0.0948881059885025,
          -0.12439600378274918,
          -0.14337602257728577,
          0.1177176907658577,
          -0.034858886152505875,
          -0.04737543314695358,
          -0.07056175172328949,
          -0.08966497331857681,
          -0.14851084351539612,
          -0.09404982626438141,
          0.07064264267683029,
          0.014429034665226936,
          0.002125788014382124,
          -0.03263581171631813,
          0.06582028418779373,
          0.10789734870195389,
          0.13465216755867004,
          0.0408346988260746,
          0.11958643794059753,
          -0.029573222622275352,
          -0.06042356416583061,
          -0.12337087094783783,
          0.1274394541978836,
          -0.02776263654232025,
          0.04225435480475426,
          0.020527398213744164,
          -0.14602170884609222,
          -0.07617802172899246,
          0.011445879004895687,
          -0.0399915985763073,
          -0.1006716713309288,
          0.0940970852971077,
          0.005496202502399683,
          -0.03954382613301277,
          0.09442754834890366,
          0.029561946168541908,
          -0.035048872232437134,
          0.11296069622039795,
          0.0925782322883606,
          0.005528929643332958,
          0.008335873484611511,
          -0.10079874843358994,
          0.10826534777879715,
          -0.027927111834287643
        ],
        [
          -0.08512897044420242,
          0.09291180968284607,
          0.02680368907749653,
          0.027149716392159462,
          -0.038391415029764175,
          -0.05429821088910103,
          0.021342920139431953,
          0.09796572476625443,
          0.014759384095668793,
          -0.06538446247577667,
          0.1349513977766037,
          0.003507086541503668,
          0.10687180608510971,
          0.02487293817102909,
          0.12358029931783676,
          0.0796494111418724,
          -0.07221432775259018,
          0.11564626544713974,
          0.02126409485936165,
          -0.0997973382472992,
          -0.05860009416937828,
          -0.12138649076223373,
          -0.05006938427686691,
          -0.07184877246618271,
          0.08283062279224396,
          -0.0148529764264822,
          -0.001303512486629188,
          0.06588321924209595,
          0.01926060952246189,
          -0.09875530749559402,
          0.06576777249574661,
          0.024939987808465958,
          -0.09323336184024811,
          0.10847636312246323,
          -0.07003505527973175,
          -0.0189617071300745,
          -0.11376412957906723,
          0.09998205304145813,
          0.0382198691368103,
          0.11678465455770493,
          0.017540326341986656,
          0.05836937949061394,
          -0.030867822468280792,
          -0.09227580577135086,
          0.007203143555670977,
          -0.008127604611217976,
          0.0006804981967434287,
          -0.042024776339530945
        ],
        [
          0.026809636503458023,
          0.043001189827919006,
          0.0925244390964508,
          -0.10485711693763733,
          0.08281676471233368,
          0.02061394415795803,
          0.09768018871545792,
          0.10942842066287994,
          -0.10325618088245392,
          0.14604082703590393,
          -0.12146085500717163,
          0.09514856338500977,
          0.02088448777794838,
          0.07897292822599411,
          -0.07063209265470505,
          0.09555450826883316,
          -0.09672503173351288,
          -0.14636041224002838,
          0.03330057114362717,
          0.04511382803320885,
          0.12882086634635925,
          -0.014039394445717335,
          0.1011187732219696,
          0.10931773483753204,
          -0.05783011019229889,
          -0.11555942893028259,
          0.05495264381170273,
          -0.10046978294849396,
          0.05670381709933281,
          -0.13827058672904968,
          0.12893027067184448,
          0.0027476204559206963,
          0.022523703053593636,
          0.07576418668031693,
          -0.14505508542060852,
          -0.03947782516479492,
          0.008368977345526218,
          -0.058269523084163666,
          -0.040511857718229294,
          -0.04879140853881836,
          0.10588587820529938,
          0.11335042119026184,
          0.08396521955728531,
          0.10865511745214462,
          -0.13199320435523987,
          0.054581888020038605,
          0.019181430339813232,
          -0.08137406408786774
        ],
        [
          0.06774382293224335,
          -0.06439688801765442,
          0.028262250125408173,
          0.060665663331747055,
          0.1375199407339096,
          -0.053090982139110565,
          -0.10178074985742569,
          0.15481771528720856,
          0.0755826085805893,
          0.09106447547674179,
          0.0671626552939415,
          -0.0416828952729702,
          0.11073155701160431,
          -0.10965131223201752,
          0.038753215223550797,
          0.0807739868760109,
          0.11188294738531113,
          -0.039559151977300644,
          -0.10738662630319595,
          0.04777708649635315,
          -0.09137336164712906,
          -0.12494749575853348,
          -0.11019296199083328,
          -0.10467880964279175,
          -0.039490994065999985,
          -0.09212180227041245,
          -0.06145666167140007,
          -0.12429368495941162,
          0.11185668408870697,
          -0.03441227599978447,
          -0.1052030548453331,
          0.02704858034849167,
          -0.11321641504764557,
          0.06541817635297775,
          0.09271573275327682,
          -0.1383696049451828,
          -0.12913835048675537,
          -0.12923680245876312,
          -0.05394478887319565,
          0.023043647408485413,
          -0.15345926582813263,
          -0.10841863602399826,
          0.05316409841179848,
          -0.05876937508583069,
          -0.08747512847185135,
          -0.11534637212753296,
          0.035534102469682693,
          0.01975439488887787
        ],
        [
          -0.06032085046172142,
          -0.06248906999826431,
          0.035434555262327194,
          0.05652039125561714,
          0.07710892707109451,
          0.05738796293735504,
          -0.0034359039273113012,
          -0.10901516675949097,
          0.10185500234365463,
          0.007598032709211111,
          -0.060616105794906616,
          0.15458323061466217,
          0.0988287702202797,
          -0.11144760996103287,
          -0.05656469985842705,
          -0.03426108881831169,
          -0.08322327584028244,
          0.09460936486721039,
          -0.10021475702524185,
          0.11106503754854202,
          -0.06414825469255447,
          0.10643991827964783,
          0.033639222383499146,
          -0.06042557209730148,
          0.09660562127828598,
          -0.12221863120794296,
          -0.09588561952114105,
          -0.009876495227217674,
          0.14697255194187164,
          -0.06888339668512344,
          -0.06222664564847946,
          -0.08917269110679626,
          -0.043152328580617905,
          -0.08540702611207962,
          -0.01885782741010189,
          -0.048141658306121826,
          0.03355111926794052,
          -0.027651630342006683,
          -0.11171022057533264,
          -0.04351858049631119,
          -0.01194552518427372,
          0.01156508456915617,
          0.07198546826839447,
          -0.019158918410539627,
          -0.13491985201835632,
          -0.11047358810901642,
          -0.010566928423941135,
          -0.024111123755574226
        ],
        [
          0.046487078070640564,
          -0.027461562305688858,
          0.040667738765478134,
          -0.05414257198572159,
          0.10697012394666672,
          0.03282520920038223,
          -0.04622473195195198,
          0.13160033524036407,
          0.03168099746108055,
          -0.09249116480350494,
          -0.08344949036836624,
          0.09737501293420792,
          0.07590635120868683,
          0.1082719936966896,
          -0.010953817516565323,
          0.10473257303237915,
          0.04995874688029289,
          0.016776038333773613,
          -0.05462729558348656,
          0.12945134937763214,
          -0.0025754126254469156,
          -0.04256327450275421,
          0.008031212724745274,
          0.11713840812444687,
          0.07181001454591751,
          -0.04629935324192047,
          0.12889693677425385,
          0.018071305006742477,
          -0.08040390908718109,
          -0.13624656200408936,
          0.07400835305452347,
          0.13045991957187653,
          -0.0545557402074337,
          0.05980927124619484,
          -0.014225238934159279,
          -0.04468168690800667,
          -0.019781239330768585,
          0.033761635422706604,
          0.039948318153619766,
          0.0699678435921669,
          0.04102659225463867,
          0.04289162904024124,
          0.09458987414836884,
          0.055654093623161316,
          -0.0032074355985969305,
          -0.054639313369989395,
          0.06699608266353607,
          -0.010329260490834713
        ],
        [
          0.08171796053647995,
          0.13858389854431152,
          -0.04406207054853439,
          0.08912767469882965,
          -0.04283154383301735,
          0.1109803169965744,
          0.1058126762509346,
          -0.07067816704511642,
          -0.00601688539609313,
          -0.08339741826057434,
          -0.062182266265153885,
          -0.03874136880040169,
          -0.020883115008473396,
          -0.0685548484325409,
          -0.15208831429481506,
          -0.11497464776039124,
          0.0329664908349514,
          -0.057903170585632324,
          0.08640988916158676,
          0.08604778349399567,
          0.06679735332727432,
          0.03706632927060127,
          -0.13076826930046082,
          0.1582794338464737,
          -0.15115714073181152,
          -0.0127797219902277,
          -0.10919421911239624,
          0.0419723317027092,
          -0.09022463858127594,
          -0.10273504257202148,
          -0.07606510818004608,
          -0.12857100367546082,
          -0.028134062886238098,
          0.10566361248493195,
          -0.04407930001616478,
          0.031909309327602386,
          -0.12153717875480652,
          0.13988028466701508,
          -0.03618209809064865,
          -0.10998377203941345,
          0.09997636824846268,
          0.04680202528834343,
          0.12008687853813171,
          -0.06571841239929199,
          -0.10288400202989578,
          -0.08135918527841568,
          0.02652020938694477,
          0.015822548419237137
        ],
        [
          -0.1945459544658661,
          0.0065187932923436165,
          -0.007520399056375027,
          0.0562065988779068,
          -0.08263324201107025,
          -0.10688653588294983,
          0.0775887668132782,
          -0.08975791186094284,
          0.10095136612653732,
          0.09466198831796646,
          -0.10474535077810287,
          -0.08110062032938004,
          0.018104637041687965,
          -0.13143102824687958,
          0.034027159214019775,
          -0.06111108139157295,
          -0.013801533728837967,
          -0.0584663450717926,
          0.0584728978574276,
          -0.12403521686792374,
          -0.12048561125993729,
          -0.053681619465351105,
          -0.02957221306860447,
          -0.22161656618118286,
          0.0754798874258995,
          -0.08383337408304214,
          0.14463043212890625,
          0.11122571676969528,
          -0.11002060025930405,
          -0.11688423901796341,
          -0.07583585381507874,
          0.11826492846012115,
          0.03219107538461685,
          -0.07947193831205368,
          0.09576088935136795,
          0.18784211575984955,
          0.14062786102294922,
          -0.12334122508764267,
          -0.011399383656680584,
          0.00845377892255783,
          0.13469544053077698,
          -0.08413747698068619,
          -0.0773630440235138,
          0.01113357674330473,
          -0.04219699651002884,
          0.03775379806756973,
          0.03207157924771309,
          -0.11614486575126648
        ],
        [
          0.10831037163734436,
          0.0885813981294632,
          0.014314405620098114,
          -0.15116851031780243,
          0.05610882490873337,
          0.08500678092241287,
          0.03170911595225334,
          -0.06250635534524918,
          0.0012491346569731832,
          -0.0545695498585701,
          0.1270790696144104,
          0.1326357126235962,
          -0.020569467917084694,
          -0.1055874451994896,
          0.0747716873884201,
          0.06553691625595093,
          0.09664111584424973,
          -0.09986540675163269,
          0.03203367814421654,
          -0.06128716841340065,
          -0.124425508081913,
          -0.11353059113025665,
          0.04222382977604866,
          0.04261906072497368,
          -0.14270712435245514,
          0.0492817722260952,
          0.11208176612854004,
          0.07965919375419617,
          0.05496273562312126,
          -0.024467049166560173,
          0.09110203385353088,
          0.11621811240911484,
          0.07946617901325226,
          -0.0727393850684166,
          -0.06626754254102707,
          0.1099177896976471,
          0.10885576158761978,
          0.10684993863105774,
          -0.03207112103700638,
          -0.018019815906882286,
          -0.09395475685596466,
          -0.06414707005023956,
          0.08505895733833313,
          -0.09916967898607254,
          -0.027984607964754105,
          0.027029311284422874,
          -0.05026187375187874,
          0.034106697887182236
        ],
        [
          0.001713381614536047,
          0.04910832643508911,
          -0.12390857189893723,
          0.019859399646520615,
          -0.13404537737369537,
          0.09131098538637161,
          0.12376376241445541,
          -0.05338841676712036,
          0.012549098581075668,
          -0.0784417986869812,
          -0.09177664667367935,
          -0.05822739377617836,
          -0.04889225587248802,
          0.051796283572912216,
          -0.01700226031243801,
          0.0141012417152524,
          -0.13651064038276672,
          -0.04939163103699684,
          -0.10372994840145111,
          -0.09606403112411499,
          0.1373949646949768,
          0.06089635193347931,
          -0.0969531312584877,
          -0.020521890372037888,
          0.021778861060738564,
          0.09192200750112534,
          0.14255201816558838,
          0.03326031565666199,
          0.10159719735383987,
          -0.05772261694073677,
          0.018341319635510445,
          -0.09395209699869156,
          0.02199002355337143,
          0.0916527584195137,
          0.1022065058350563,
          0.1547599732875824,
          -0.05885633826255798,
          -0.04462362453341484,
          0.029649313539266586,
          0.11783153563737869,
          -0.12054800242185593,
          -0.10159516334533691,
          0.0385533906519413,
          -0.08723385632038116,
          0.030962927266955376,
          -0.029130620881915092,
          -0.024897834286093712,
          0.046403367072343826
        ],
        [
          0.11016930639743805,
          0.16375529766082764,
          0.045050833374261856,
          -0.028843039646744728,
          0.11120010167360306,
          0.10669921338558197,
          -0.07908160239458084,
          0.051498305052518845,
          -0.0009453462553210557,
          -0.06494107842445374,
          -0.05403660610318184,
          -0.05197945609688759,
          -0.11563561111688614,
          -0.056641172617673874,
          0.04321453720331192,
          0.08871744573116302,
          0.025836780667304993,
          -0.11223245412111282,
          0.10071190446615219,
          -0.061320122331380844,
          0.13007552921772003,
          -0.12348134815692902,
          -0.0615934357047081,
          0.1322851926088333,
          0.027196820825338364,
          -0.022855311632156372,
          -0.10473927110433578,
          0.022056836634874344,
          0.05509017035365105,
          -0.08408233523368835,
          -0.09941768646240234,
          -0.0040468559600412846,
          -0.02520453743636608,
          0.07691775262355804,
          -0.12817040085792542,
          -0.011601441539824009,
          -0.09254239499568939,
          -0.01352477166801691,
          -0.015734771266579628,
          0.006874180398881435,
          -0.07473816722631454,
          -0.09564117342233658,
          -0.042218632996082306,
          -0.10111960023641586,
          0.0885462537407875,
          -0.042505599558353424,
          -0.046381279826164246,
          0.06311046332120895
        ],
        [
          -0.04055923968553543,
          0.051386184990406036,
          -0.0580722950398922,
          -0.13800756633281708,
          0.02261359430849552,
          0.08109715580940247,
          -0.1510620266199112,
          0.0018386088777333498,
          0.015357322059571743,
          0.012660668231546879,
          -0.02444816753268242,
          -0.058113664388656616,
          -0.11413794010877609,
          0.011906301602721214,
          -0.11241018772125244,
          -0.13129688799381256,
          -0.04270419105887413,
          -0.0809876024723053,
          0.05338991433382034,
          0.07329203188419342,
          0.0921749621629715,
          -0.09955985844135284,
          0.10373613238334656,
          0.08807997405529022,
          -0.03360067307949066,
          0.025581181049346924,
          0.01610221341252327,
          0.07651305198669434,
          0.039617132395505905,
          0.03857532888650894,
          -0.09314984828233719,
          -0.09097889810800552,
          -0.05350789427757263,
          0.09728138148784637,
          -0.037037406116724014,
          0.009452298283576965,
          -0.10560593754053116,
          0.023056691512465477,
          -0.035470105707645416,
          -0.07125195860862732,
          0.12397424876689911,
          -0.0761113315820694,
          -0.05031584948301315,
          0.015973372384905815,
          -0.10340280830860138,
          0.12339267134666443,
          -0.03916045278310776,
          0.09836837649345398
        ],
        [
          0.05064539238810539,
          0.14329129457473755,
          0.03306467831134796,
          0.10831094533205032,
          0.1349734514951706,
          0.023408761247992516,
          -0.03745025768876076,
          -0.05063101649284363,
          0.028917403891682625,
          0.062344953417778015,
          -0.1186755895614624,
          0.1149216890335083,
          0.032204821705818176,
          -0.13840945065021515,
          0.046866364777088165,
          0.08790458738803864,
          0.04866607487201691,
          0.11782504618167877,
          -0.005212404299527407,
          -0.1450602114200592,
          0.011443362571299076,
          0.09250427037477493,
          -0.09482811391353607,
          0.10375190526247025,
          0.0024298657663166523,
          -0.00865474808961153,
          -0.015747003257274628,
          0.048685040324926376,
          -0.08509299159049988,
          0.10312391072511673,
          0.09220865368843079,
          0.050744637846946716,
          0.15003207325935364,
          -0.0035826852545142174,
          -0.10352538526058197,
          -0.03296206519007683,
          -0.04941084235906601,
          0.07246482372283936,
          0.10377703607082367,
          -0.06822462379932404,
          -0.02093038335442543,
          0.1480056494474411,
          -0.1309453696012497,
          -0.029621295630931854,
          0.13759392499923706,
          0.11198929697275162,
          0.03915593773126602,
          -0.07456840574741364
        ],
        [
          -0.036615896970033646,
          -0.13368073105812073,
          -0.12104194611310959,
          -0.12985388934612274,
          0.14862459897994995,
          0.11549282819032669,
          0.055793847888708115,
          -0.0229285079985857,
          0.1273508220911026,
          -0.04744240269064903,
          0.10300938785076141,
          -0.00464610755443573,
          -0.05263320729136467,
          -0.04399929568171501,
          -0.019602825865149498,
          -0.12941418588161469,
          0.036084506660699844,
          -0.03444460406899452,
          0.046148188412189484,
          0.04439892619848251,
          -0.00419934606179595,
          0.08994285762310028,
          0.018616432324051857,
          0.09347828477621078,
          -0.10013020038604736,
          -0.02514250949025154,
          -0.09290536493062973,
          0.09737476706504822,
          -0.10470234602689743,
          -0.0914011225104332,
          0.006146338302642107,
          0.12015707045793533,
          0.09453398734331131,
          -0.13582538068294525,
          -0.09628341346979141,
          0.11730624735355377,
          0.009255804121494293,
          -0.11584097892045975,
          -0.04942081868648529,
          0.06842628866434097,
          -0.01742769032716751,
          -0.08601267635822296,
          -0.10846451669931412,
          -0.06003645062446594,
          0.004420330747961998,
          0.04973169416189194,
          0.08259354531764984,
          -0.06961958110332489
        ],
        [
          -0.022101109847426414,
          -0.10832998156547546,
          0.10588186979293823,
          0.13800981640815735,
          0.1365208774805069,
          0.06695564091205597,
          -0.049403123557567596,
          -0.018857832998037338,
          0.04569847509264946,
          -0.13542084395885468,
          -0.006629358511418104,
          -0.12487474828958511,
          -0.1377253532409668,
          0.012540486641228199,
          -0.05080600082874298,
          -0.09306000173091888,
          -0.014149192720651627,
          0.037749841809272766,
          0.033074431121349335,
          -0.07145193964242935,
          -0.12305578589439392,
          0.007193997967988253,
          -0.046816952526569366,
          -0.004811644088476896,
          0.131760373711586,
          0.0264432430267334,
          0.06760727614164352,
          -0.07396043092012405,
          -0.12442241609096527,
          0.039910394698381424,
          -0.05982644110918045,
          0.023159177973866463,
          -0.11081376671791077,
          0.09023188054561615,
          -0.07951949536800385,
          0.13580355048179626,
          0.12681196630001068,
          0.0944436639547348,
          0.08468428254127502,
          -0.0026060922536998987,
          -0.018596014007925987,
          -0.005669278092682362,
          -0.042415961623191833,
          -0.10631633549928665,
          0.14804869890213013,
          0.016357824206352234,
          0.07991553097963333,
          0.0099287498742342
        ],
        [
          0.062462691217660904,
          -0.0860222578048706,
          -0.1001131534576416,
          0.12122485041618347,
          0.06631723046302795,
          0.08159337192773819,
          -0.13884329795837402,
          0.031016938388347626,
          -0.1234365850687027,
          -0.011813432909548283,
          -0.0004137637442909181,
          -0.09465552121400833,
          -0.1363592892885208,
          0.011888463981449604,
          0.1343519538640976,
          0.14370587468147278,
          -0.1094258576631546,
          -0.04423559457063675,
          -0.11598113179206848,
          -0.10843835771083832,
          -0.04507646709680557,
          0.14697037637233734,
          -0.053338028490543365,
          -0.03454279899597168,
          0.14383664727210999,
          0.010970433242619038,
          0.1257222592830658,
          0.11090564727783203,
          0.12536394596099854,
          0.03260647878050804,
          -0.13876615464687347,
          -0.1279289275407791,
          -0.09433078020811081,
          0.1291494369506836,
          0.07933026552200317,
          0.03201662376523018,
          -0.1079009547829628,
          -0.09698452800512314,
          0.12204224616289139,
          -0.029155217111110687,
          -0.14462189376354218,
          -0.04278426989912987,
          -0.06370119005441666,
          -0.02407940849661827,
          0.08011002093553543,
          0.06231945380568504,
          -0.12714795768260956,
          0.0012594900326803327
        ],
        [
          -0.0967569351196289,
          0.08040113747119904,
          0.04076137766242027,
          0.04847760498523712,
          0.1059497818350792,
          0.04705638810992241,
          -0.16773366928100586,
          0.021235045045614243,
          -0.13050147891044617,
          -0.004739832598716021,
          -0.03242041543126106,
          0.11273571103811264,
          -0.1270754188299179,
          -0.1623256802558899,
          -0.05796321481466293,
          -0.0028634285554289818,
          0.09454923123121262,
          0.0744960680603981,
          0.0912412479519844,
          0.0657593309879303,
          -0.015458276495337486,
          -0.004933666437864304,
          -0.08587917685508728,
          0.022029170766472816,
          -0.09973575919866562,
          0.07759761065244675,
          0.09246496111154556,
          0.12011183798313141,
          -0.14424164593219757,
          0.13469666242599487,
          -0.06109299510717392,
          -0.007767276372760534,
          0.09926516562700272,
          0.07403090596199036,
          -0.02887839823961258,
          0.07029198855161667,
          -0.13493460416793823,
          0.1017184853553772,
          0.17588047683238983,
          -0.023819247260689735,
          0.02916422113776207,
          -0.055191002786159515,
          -0.08582408726215363,
          -0.0868934690952301,
          -0.02351408079266548,
          -0.11997025460004807,
          -0.09334942698478699,
          0.0005344220553524792
        ],
        [
          -0.07933741807937622,
          -0.09995661675930023,
          0.04683228209614754,
          -0.042041122913360596,
          0.15803636610507965,
          -0.02947610430419445,
          -0.07276632636785507,
          -0.03558685630559921,
          -0.0946219190955162,
          0.0653194710612297,
          0.152615487575531,
          -0.07240355014801025,
          -0.03301136568188667,
          0.14555692672729492,
          -0.0936323031783104,
          0.061421915888786316,
          -0.13942033052444458,
          -0.1065066009759903,
          0.025870969519019127,
          -0.1225946843624115,
          0.13866747915744781,
          -0.014004085212945938,
          0.015856755897402763,
          -0.0840563252568245,
          0.08226612955331802,
          0.142777681350708,
          -0.053639546036720276,
          -0.10410398244857788,
          -0.1230037733912468,
          0.1371152102947235,
          0.0879661813378334,
          0.05701790377497673,
          0.013505477458238602,
          0.028224680572748184,
          0.036183714866638184,
          0.06076354533433914,
          0.08181458711624146,
          0.008990642614662647,
          0.13197070360183716,
          0.12100149691104889,
          -0.03483196720480919,
          -0.08220826089382172,
          -0.047663163393735886,
          0.08677222579717636,
          0.08571352064609528,
          -0.03150610998272896,
          -0.04919460788369179,
          0.06507841497659683
        ],
        [
          0.04515713453292847,
          0.15921400487422943,
          0.08297619968652725,
          0.05111916735768318,
          0.04652882367372513,
          -0.1230064332485199,
          -0.04181196540594101,
          0.02760123461484909,
          -0.08840599656105042,
          -0.12717100977897644,
          0.11190413683652878,
          0.055896926671266556,
          -0.11195095628499985,
          0.013427590020000935,
          0.09948427230119705,
          0.09339968860149384,
          0.107627272605896,
          -0.04710548743605614,
          0.07745777070522308,
          -0.12278082221746445,
          -0.004964793100953102,
          -0.108460433781147,
          -0.06697254627943039,
          0.08445771783590317,
          0.06415136158466339,
          -0.0718872919678688,
          -0.04002455621957779,
          -0.019386135041713715,
          -0.0390341654419899,
          -0.09206917136907578,
          0.11643628776073456,
          0.10321987420320511,
          0.14918847382068634,
          -0.08169808238744736,
          0.1109066754579544,
          -0.07611490786075592,
          -0.03654598072171211,
          -0.010562630370259285,
          -0.021231139078736305,
          -0.07194657623767853,
          0.03858771547675133,
          -0.0634111762046814,
          0.08101627230644226,
          -0.131241112947464,
          -0.05537960305809975,
          -0.11410986632108688,
          0.11374951153993607,
          0.09185875207185745
        ],
        [
          -0.1396055966615677,
          -0.08033831417560577,
          0.09398587048053741,
          0.015242273919284344,
          0.08283863961696625,
          -0.11682290583848953,
          0.053821977227926254,
          0.06422252953052521,
          -0.04633273184299469,
          -0.02020595408976078,
          0.09264952689409256,
          0.035276155918836594,
          0.04007621482014656,
          -0.008942215703427792,
          -0.07103817164897919,
          -0.10335284471511841,
          0.1322777271270752,
          -0.015180532820522785,
          0.11924555897712708,
          0.09083495289087296,
          -0.05802912637591362,
          0.023139266297221184,
          0.014475815929472446,
          -0.0264218058437109,
          0.070869080722332,
          0.04978541284799576,
          -0.10243774950504303,
          -0.08722172677516937,
          -0.11417832970619202,
          -0.10688935220241547,
          0.09423813223838806,
          -0.056246981024742126,
          -0.022603798657655716,
          -0.044317424297332764,
          0.03748577833175659,
          -0.009201382286846638,
          0.09812870621681213,
          0.012307939119637012,
          0.045326776802539825,
          0.022726889699697495,
          -0.0381123311817646,
          -0.0022614754270762205,
          0.08347801864147186,
          0.03276129812002182,
          0.07598258554935455,
          0.010182742029428482,
          -0.0031141971703618765,
          0.09090916067361832
        ],
        [
          -0.13744235038757324,
          -0.0036922446452081203,
          0.12964418530464172,
          -0.08311875909566879,
          -0.03367113694548607,
          -0.013841131702065468,
          0.041325729340314865,
          0.048792656511068344,
          0.02820991910994053,
          0.04621884971857071,
          -0.07427722215652466,
          0.05038032680749893,
          -0.061823513358831406,
          0.0879836454987526,
          -0.0514451302587986,
          -0.13452529907226562,
          0.0023902824614197016,
          0.08315631747245789,
          -0.014938727021217346,
          0.0003587121027521789,
          0.002180785406380892,
          0.06672029942274094,
          0.04339821636676788,
          -0.12093774229288101,
          -0.07518935948610306,
          -0.0037713951896876097,
          -0.007448345888406038,
          0.14736373722553253,
          -0.03760678321123123,
          0.10500405728816986,
          -0.1281784325838089,
          -0.10605955123901367,
          -0.013083172030746937,
          -0.09122160077095032,
          -0.0008509311592206359,
          0.024326028302311897,
          -0.08998699486255646,
          0.09988986700773239,
          -0.08500619977712631,
          0.0786043256521225,
          0.052388180047273636,
          -0.04364899545907974,
          -0.10611699521541595,
          0.007489658426493406,
          -0.04236667603254318,
          0.09926357120275497,
          -0.07713132351636887,
          -0.037781164050102234
        ],
        [
          -0.11508854478597641,
          -0.1313774138689041,
          -0.08279082924127579,
          -0.03824058547616005,
          -0.016365595161914825,
          -0.006024919915944338,
          0.05225116387009621,
          -0.08380546420812607,
          -0.11528296768665314,
          -0.055594101548194885,
          0.11452985554933548,
          -0.04733581840991974,
          -0.14990006387233734,
          0.08749738335609436,
          0.00803577434271574,
          -0.006679529324173927,
          0.0412311889231205,
          0.08764267712831497,
          -0.05460401996970177,
          0.10906343162059784,
          0.10759914666414261,
          -0.046767283231019974,
          0.08374442160129547,
          0.0874793753027916,
          0.13589872419834137,
          -0.020926527678966522,
          -0.056558750569820404,
          -0.008974060416221619,
          -0.08798964321613312,
          -0.014099047519266605,
          0.10467684268951416,
          0.09361129254102707,
          0.12468791007995605,
          0.02931063435971737,
          -0.025137340649962425,
          0.05691519007086754,
          0.06701116263866425,
          -0.0066299173049628735,
          -0.048074427992105484,
          0.058083318173885345,
          -0.0020175364334136248,
          -0.07244816422462463,
          -0.0643819272518158,
          0.11594849824905396,
          0.12266994267702103,
          -0.035540517419576645,
          -0.006164053454995155,
          -0.0574248731136322
        ],
        [
          -0.07445073872804642,
          0.16608238220214844,
          -0.09507859498262405,
          0.08938778936862946,
          -0.12133386731147766,
          -0.06313631683588028,
          -0.014711261726915836,
          0.016429953277111053,
          -0.004695205017924309,
          -0.06809850037097931,
          -0.021844975650310516,
          -0.060696884989738464,
          -0.09876234084367752,
          -0.07506231218576431,
          0.1514986902475357,
          -0.061140477657318115,
          -0.08865640312433243,
          0.09450404345989227,
          0.04005198925733566,
          0.1259429156780243,
          -0.18193170428276062,
          -0.1597505509853363,
          -0.08645565807819366,
          -0.07644179463386536,
          0.006431219633668661,
          0.07288794964551926,
          0.11339197307825089,
          -0.16303561627864838,
          0.07344083487987518,
          -0.09828965365886688,
          0.03306373208761215,
          0.04677371308207512,
          0.025043489411473274,
          0.042825691401958466,
          0.022262105718255043,
          0.11338481307029724,
          0.044210080057382584,
          0.1262979805469513,
          0.025478368625044823,
          -0.0699753612279892,
          0.07442943006753922,
          0.037740275263786316,
          0.1473298966884613,
          0.006706812418997288,
          0.14890722930431366,
          -0.0869019478559494,
          0.08084221184253693,
          -0.11077429354190826
        ],
        [
          0.09868951886892319,
          0.014475639909505844,
          0.07386878877878189,
          -0.11957299709320068,
          -0.1543465554714203,
          0.06388300657272339,
          -0.06541464477777481,
          0.03968582674860954,
          -0.09585058689117432,
          -0.04702724143862724,
          -0.002799672307446599,
          0.0797780230641365,
          0.07747236639261246,
          -0.01880807802081108,
          -0.05799144133925438,
          -0.005559414159506559,
          0.08244731277227402,
          -0.12178763002157211,
          -0.042685914784669876,
          -0.12469709664583206,
          -0.001664438983425498,
          -0.011382411234080791,
          0.07937135547399521,
          0.0981241762638092,
          -0.0960879772901535,
          -0.06279110163450241,
          -0.030122775584459305,
          0.016182251274585724,
          -0.06634817272424698,
          -0.08199288696050644,
          -0.06645980477333069,
          0.01203181128948927,
          0.11128474026918411,
          -0.07025058567523956,
          0.0730186328291893,
          -0.08606162667274475,
          0.0065911998972296715,
          -0.13814088702201843,
          -0.21482105553150177,
          0.03656863793730736,
          -0.061909083276987076,
          0.08112531900405884,
          0.12212757766246796,
          -0.13407395780086517,
          -0.03698749840259552,
          -0.008112468756735325,
          -0.06706125289201736,
          -0.07600501924753189
        ],
        [
          -0.015752797946333885,
          0.08060770481824875,
          0.06909605860710144,
          0.11605870723724365,
          0.02038487233221531,
          0.10273247212171555,
          0.04579712823033333,
          0.001479601371102035,
          0.020729966461658478,
          -0.0916653573513031,
          0.00984957069158554,
          -0.011778850108385086,
          -0.017058422788977623,
          -0.03334331512451172,
          -0.006517183501273394,
          -0.07869929820299149,
          -0.024295009672641754,
          -0.002365552354604006,
          -0.03758668899536133,
          0.14169371128082275,
          0.08232500404119492,
          0.05898280069231987,
          -0.06321971118450165,
          -0.01593710109591484,
          -0.08442974090576172,
          0.09654661267995834,
          0.16235816478729248,
          -0.023067476227879524,
          0.10347934067249298,
          0.13366714119911194,
          -0.006642747670412064,
          -0.06195785105228424,
          0.013072109781205654,
          0.017140334472060204,
          -0.14299343526363373,
          0.0022929783444851637,
          -0.08017398416996002,
          0.10603027790784836,
          0.01067825686186552,
          0.11331954598426819,
          0.12678377330303192,
          -0.05875151976943016,
          -0.0038208141922950745,
          -0.05156204104423523,
          -0.03227190300822258,
          -0.08402057737112045,
          0.022421859204769135,
          0.01109343208372593
        ],
        [
          -0.030034314841032028,
          0.023362070322036743,
          0.07814954966306686,
          0.062619648873806,
          0.05977325886487961,
          0.04394333064556122,
          -0.10550343245267868,
          -0.08380401134490967,
          -0.1035006046295166,
          0.0904437005519867,
          -0.12214292585849762,
          -0.10014326125383377,
          0.0842871218919754,
          0.08082114160060883,
          -0.12988491356372833,
          0.08541639149188995,
          -0.04103052616119385,
          0.016686487942934036,
          -0.10138534754514694,
          -0.012029731646180153,
          0.010585353709757328,
          0.09454651921987534,
          0.06630261242389679,
          -0.09756168723106384,
          -0.11192474514245987,
          -0.01815895363688469,
          0.06138376146554947,
          0.07751146703958511,
          -0.16237406432628632,
          -0.022839007899165154,
          -0.02491176128387451,
          -0.0497540608048439,
          0.10745988041162491,
          0.0007093886961229146,
          -0.12148713320493698,
          -0.09791107475757599,
          0.03669455274939537,
          -0.08778523653745651,
          -0.004877916537225246,
          0.16663452982902527,
          0.03515318036079407,
          -0.016105016693472862,
          0.14830580353736877,
          0.10347908735275269,
          0.12286699563264847,
          0.014100005850195885,
          0.04389353096485138,
          -0.12031588703393936
        ],
        [
          0.030130095779895782,
          0.16418883204460144,
          0.02865741029381752,
          -0.10812865942716599,
          0.09715329855680466,
          0.15202735364437103,
          0.14190399646759033,
          0.022582056000828743,
          0.04731171578168869,
          0.029835527762770653,
          -0.036481745541095734,
          -0.006534842774271965,
          0.13844703137874603,
          0.03602757677435875,
          0.15554499626159668,
          -0.07648824900388718,
          -0.035202570259571075,
          0.0018248041160404682,
          -0.08955174684524536,
          0.10589280724525452,
          0.13157664239406586,
          -0.09624890983104706,
          0.12061020731925964,
          0.16610057651996613,
          -0.07974221557378769,
          0.009885333478450775,
          0.12579144537448883,
          -0.11317023634910583,
          -0.013200243934988976,
          -0.11541037261486053,
          0.12232665717601776,
          0.02927655354142189,
          0.05041056498885155,
          0.07164126634597778,
          -0.032060202211141586,
          -0.16123542189598083,
          0.008739650249481201,
          -0.013934336602687836,
          0.030770080164074898,
          0.049442846328020096,
          -0.08191441744565964,
          -0.05761128291487694,
          0.12432073056697845,
          0.06418752670288086,
          0.004410675726830959,
          0.07465112954378128,
          0.03921995684504509,
          -0.10291778296232224
        ],
        [
          -0.006098725832998753,
          0.027770433574914932,
          -0.11854424327611923,
          0.0381750762462616,
          0.002461626660078764,
          0.10986435413360596,
          -0.14485950767993927,
          0.14263775944709778,
          -0.05783596634864807,
          0.09182249754667282,
          0.11236394941806793,
          -0.019739525392651558,
          -0.05989713966846466,
          -0.029959559440612793,
          -0.07632412016391754,
          0.01816592551767826,
          0.04436366632580757,
          0.05298086255788803,
          -0.10297680646181107,
          0.02908395044505596,
          0.15989334881305695,
          -0.02584674581885338,
          0.05301765352487564,
          -0.04364019259810448,
          0.06253042817115784,
          -0.0911569893360138,
          -0.09292641282081604,
          0.003940532449632883,
          -0.0952998623251915,
          0.045380767434835434,
          0.13550621271133423,
          -0.053353309631347656,
          0.04020515829324722,
          0.031590357422828674,
          -0.11123071610927582,
          -0.024725977331399918,
          0.01019237469881773,
          0.12366555631160736,
          -0.10371427983045578,
          -0.010273577645421028,
          -0.1258135437965393,
          -0.02156781405210495,
          -0.010282963514328003,
          -0.07142769545316696,
          0.05416407436132431,
          0.07096338272094727,
          -0.07668237388134003,
          -0.047953370958566666
        ],
        [
          -0.04050567001104355,
          0.018959520384669304,
          0.07059161365032196,
          0.1581549346446991,
          -0.11249533295631409,
          0.07734411954879761,
          -0.06752575188875198,
          -0.09825059771537781,
          0.13152249157428741,
          -0.03424590453505516,
          -0.062106598168611526,
          0.055242858827114105,
          -0.015604049898684025,
          -0.11302141100168228,
          -0.056054577231407166,
          -0.040609028190374374,
          -0.030372412875294685,
          -0.10308243334293365,
          -0.12694069743156433,
          0.08935527503490448,
          -0.11872582137584686,
          -0.03415621444582939,
          0.10157366096973419,
          -0.04026942327618599,
          -0.10664509981870651,
          0.06454791128635406,
          0.10639616847038269,
          -0.01492865476757288,
          -0.007378562353551388,
          0.08128924667835236,
          -0.006052882876247168,
          0.04729080572724342,
          0.060861993581056595,
          0.057301923632621765,
          -0.09831742942333221,
          -0.08166281133890152,
          0.09868957102298737,
          0.02741129882633686,
          0.05380527675151825,
          0.12939049303531647,
          0.09201853722333908,
          0.06725884974002838,
          0.16020165383815765,
          -0.10893378406763077,
          0.06277472525835037,
          0.04548398032784462,
          -0.047084953635931015,
          -0.07107234001159668
        ],
        [
          0.03863893821835518,
          -0.11424023658037186,
          -0.0708385780453682,
          0.1120106428861618,
          -0.05928047373890877,
          -0.053072091192007065,
          0.06650181114673615,
          -0.038196973502635956,
          0.019558241590857506,
          -0.1587139219045639,
          0.08571452647447586,
          -0.12665538489818573,
          0.0027911746874451637,
          -0.15167231857776642,
          -0.12945100665092468,
          0.10936568677425385,
          -0.030272942036390305,
          -0.02454519271850586,
          -0.019888784736394882,
          0.12590773403644562,
          0.022357644513249397,
          0.06833350658416748,
          -0.08865921944379807,
          -0.05816638842225075,
          0.11502315104007721,
          0.062398746609687805,
          0.04495643824338913,
          -0.09568649530410767,
          -0.11938175559043884,
          0.019958147779107094,
          -0.11909615993499756,
          0.10696420818567276,
          0.11996696144342422,
          -0.08154986798763275,
          -0.09278188645839691,
          0.10084248334169388,
          -0.07723414152860641,
          -0.1081177145242691,
          -0.14226962625980377,
          0.05367128923535347,
          0.041092146188020706,
          0.13927163183689117,
          0.13007955253124237,
          0.044579289853572845,
          0.05658037215471268,
          0.12016735970973969,
          -0.05207972973585129,
          -0.01671282947063446
        ],
        [
          0.1762564480304718,
          -0.008119527250528336,
          0.09610948711633682,
          0.06037386134266853,
          0.08615051954984665,
          0.00588415190577507,
          -0.07766158878803253,
          0.1519901156425476,
          0.15144778788089752,
          -0.06563380360603333,
          -0.028415605425834656,
          0.056663136929273605,
          0.11615972220897675,
          0.003747224807739258,
          -0.025228921324014664,
          0.15563808381557465,
          -0.08702600747346878,
          0.13395817577838898,
          0.037617623805999756,
          0.07562374323606491,
          0.005180764943361282,
          0.017410559579730034,
          0.12505608797073364,
          -0.009198768995702267,
          0.08815287798643112,
          0.02611897513270378,
          -0.052532270550727844,
          0.08616320043802261,
          -0.12223262339830399,
          0.060542993247509,
          -0.01753917708992958,
          0.019381575286388397,
          -0.0009189550182782114,
          0.06085081398487091,
          -0.05619782581925392,
          0.0410139262676239,
          0.08348708599805832,
          -0.1196017935872078,
          0.13126693665981293,
          -0.11508572846651077,
          -0.09025269001722336,
          0.06487522274255753,
          0.10318168252706528,
          0.05453484505414963,
          -0.09746043384075165,
          0.006774289067834616,
          -0.08564102649688721,
          0.060224249958992004
        ],
        [
          0.044209692627191544,
          0.026585213840007782,
          -0.09186626970767975,
          0.10303577035665512,
          0.16493885219097137,
          -0.07157128304243088,
          0.06441928446292877,
          -0.039988692849874496,
          -0.012462843209505081,
          0.1494898796081543,
          -0.10950284451246262,
          -0.0010074297897517681,
          0.07988011091947556,
          0.09482777863740921,
          -0.03541365638375282,
          -0.04818440228700638,
          -0.00457790307700634,
          -0.11342166364192963,
          0.03420481085777283,
          -0.12213250994682312,
          -0.011512151919305325,
          0.15508705377578735,
          -0.15401862561702728,
          -0.09694761782884598,
          -0.11469059437513351,
          0.08913995325565338,
          0.12130750715732574,
          -0.0865616425871849,
          0.09897662699222565,
          0.1034620851278305,
          -0.11838282644748688,
          0.056647419929504395,
          0.0762605220079422,
          -0.07639206200838089,
          0.08874424546957016,
          -0.009626662358641624,
          -0.05726930871605873,
          0.07068105041980743,
          -0.17727212607860565,
          -0.12787599861621857,
          0.013079342432320118,
          0.0382450632750988,
          -0.00890758540481329,
          -0.09912385046482086,
          0.11127082258462906,
          -0.09669549018144608,
          -0.09044396877288818,
          -0.14073695242404938
        ],
        [
          -0.10176529735326767,
          0.05365387350320816,
          -0.06903741508722305,
          0.10343623906373978,
          0.15229922533035278,
          0.05697474628686905,
          0.14438611268997192,
          -0.08598074316978455,
          0.08711975812911987,
          0.09965012967586517,
          -0.04173276200890541,
          0.0064273253083229065,
          -0.07157853245735168,
          0.025233348831534386,
          -0.13235700130462646,
          -0.07039479911327362,
          -0.11875034868717194,
          -0.008546947501599789,
          0.035441119223833084,
          -0.114798903465271,
          -0.041006311774253845,
          0.08373864740133286,
          -0.040356025099754333,
          0.04652126133441925,
          -0.05703185498714447,
          -0.008167469874024391,
          -0.11901064217090607,
          0.12068174034357071,
          0.014826683327555656,
          0.11675062030553818,
          0.09694485366344452,
          0.13627643883228302,
          -0.10445807129144669,
          0.03644050657749176,
          -0.13906903564929962,
          0.009776092134416103,
          -0.08579234033823013,
          0.0508151650428772,
          -0.07041928172111511,
          0.10458743572235107,
          0.10290680825710297,
          0.06500604748725891,
          -0.14267104864120483,
          0.10128152370452881,
          -0.10415978729724884,
          -0.11930104345083237,
          0.07494746148586273,
          0.013307609595358372
        ],
        [
          -0.0638832300901413,
          -0.14609956741333008,
          0.02327428199350834,
          -0.06929462403059006,
          -0.1274968385696411,
          -0.033919211477041245,
          -0.11778827011585236,
          0.07355976849794388,
          -0.10456010699272156,
          -0.06767800450325012,
          -0.157012477517128,
          -0.0301226656883955,
          -0.04729803279042244,
          0.0648467168211937,
          -0.04568189010024071,
          0.08644549548625946,
          0.10331806540489197,
          -0.011139116249978542,
          -0.06448036432266235,
          -0.1338135302066803,
          -0.09465184807777405,
          -0.03960166871547699,
          -0.10548620671033859,
          0.10425068438053131,
          -0.07191727310419083,
          -0.03150445222854614,
          -0.010279171168804169,
          -0.10869339853525162,
          0.11306850612163544,
          -0.05554228648543358,
          -0.11173999309539795,
          -0.00800439901649952,
          -0.10255851596593857,
          0.04402094706892967,
          -0.05548446252942085,
          -0.009492008946835995,
          -0.03509780392050743,
          0.12782733142375946,
          0.12835188210010529,
          0.11163520067930222,
          0.03468967601656914,
          0.09092096984386444,
          -0.11268490552902222,
          -0.10801660269498825,
          0.11756119877099991,
          -0.02228451333940029,
          0.030597304925322533,
          0.06405051797628403
        ],
        [
          0.11047674715518951,
          0.07234516739845276,
          -0.07385525107383728,
          -0.042412467300891876,
          0.03952028229832649,
          0.12892590463161469,
          0.012655593454837799,
          -0.03821032494306564,
          0.08706706017255783,
          0.09532806277275085,
          -0.005618961527943611,
          -0.039260443300008774,
          -0.11231174319982529,
          0.025605782866477966,
          0.055620793253183365,
          -0.09190139919519424,
          -0.12706317007541656,
          -0.12318746745586395,
          0.10792277008295059,
          0.10863600671291351,
          0.15452666580677032,
          0.13570769131183624,
          -0.025277279317378998,
          0.11467919498682022,
          0.087310791015625,
          -0.020149076357483864,
          -0.11340541392564774,
          0.09047854691743851,
          -0.021183818578720093,
          0.06494999676942825,
          -0.034743715077638626,
          -0.06187991797924042,
          -0.01832311600446701,
          0.0001287756604142487,
          0.07496339827775955,
          0.08994071930646896,
          -0.005531767383217812,
          0.11707602441310883,
          -0.0858631283044815,
          -0.007311879191547632,
          -0.08204825967550278,
          0.014040470123291016,
          0.13055859506130219,
          -0.08683263510465622,
          0.0244222953915596,
          -0.11295613646507263,
          -0.05679406225681305,
          -0.06417128443717957
        ],
        [
          0.022368984296917915,
          -0.13699255883693695,
          0.024571966379880905,
          -0.1484152227640152,
          0.03206935524940491,
          -0.057634711265563965,
          -0.08851797878742218,
          0.11953180283308029,
          0.018053699284791946,
          -0.09551870077848434,
          -0.10292981564998627,
          -0.06982576847076416,
          -0.07708340138196945,
          0.02674618549644947,
          -0.0029423192609101534,
          0.1299959123134613,
          -0.0021262909285724163,
          -0.056320223957300186,
          0.13661810755729675,
          0.04534343630075455,
          -0.0209687277674675,
          0.1026422455906868,
          0.12535080313682556,
          -0.10231853276491165,
          -0.113932766020298,
          -0.10319890826940536,
          -0.16052868962287903,
          0.003545408835634589,
          0.01201787032186985,
          -0.12606795132160187,
          -0.1380823701620102,
          -0.15181174874305725,
          -0.06762281060218811,
          0.07926791906356812,
          0.10870236903429031,
          0.10931461304426193,
          0.009906856343150139,
          -0.1080641970038414,
          0.13346080482006073,
          -0.10553355515003204,
          0.0953391045331955,
          0.027428798377513885,
          0.06861584633588791,
          0.04676337167620659,
          -0.09213193506002426,
          -0.016559140756726265,
          -0.0855923742055893,
          0.12165559083223343
        ],
        [
          -0.07951654493808746,
          -0.03532100096344948,
          0.1040257140994072,
          0.08342958986759186,
          -0.11737561225891113,
          -0.13505108654499054,
          0.08886826038360596,
          0.0164948720484972,
          -0.1354345977306366,
          0.10860893875360489,
          -0.12496767193078995,
          0.1028522253036499,
          0.07136280089616776,
          0.07667657732963562,
          -0.05399438738822937,
          -0.010479528456926346,
          -0.13269108533859253,
          0.07414452731609344,
          0.04462282732129097,
          0.1044246256351471,
          -0.07192564755678177,
          0.12435582280158997,
          0.08259877562522888,
          -0.05480191111564636,
          0.035458922386169434,
          -0.11483892798423767,
          -0.09561631083488464,
          -0.09188403189182281,
          -0.09465229511260986,
          0.02172832563519478,
          -0.06339781731367111,
          -0.032280970364809036,
          0.0655142292380333,
          0.04709901660680771,
          -0.022603049874305725,
          -0.015149212442338467,
          -0.03844922408461571,
          0.06638586521148682,
          0.09291856735944748,
          0.10384013503789902,
          -0.07316768914461136,
          -0.018337490037083626,
          0.026939386501908302,
          -0.060872435569763184,
          0.08446118980646133,
          -0.0280159879475832,
          0.04277963936328888,
          -0.10733189433813095
        ],
        [
          0.10212823003530502,
          -0.08310040831565857,
          -0.013304016552865505,
          -0.11650273948907852,
          0.11272028833627701,
          0.015054617077112198,
          0.07144353538751602,
          -0.11143440008163452,
          0.013768273405730724,
          0.07618202269077301,
          0.10442537069320679,
          0.10248604416847229,
          -0.021543193608522415,
          -0.009186859242618084,
          0.048430174589157104,
          -0.04821639135479927,
          -0.03950252756476402,
          -0.12901698052883148,
          -0.11572542041540146,
          -0.05556085705757141,
          0.030447514727711678,
          0.014245214872062206,
          -0.017192119732499123,
          0.015300064347684383,
          -0.047647759318351746,
          -0.09404636919498444,
          0.10866343975067139,
          -0.0874885767698288,
          -0.005719549488276243,
          0.08327280730009079,
          0.011271273717284203,
          -0.03950841724872589,
          -0.1282479166984558,
          0.09346757084131241,
          -0.016044411808252335,
          0.1081552803516388,
          0.054353926330804825,
          0.054422929883003235,
          0.02691018022596836,
          -0.03662029653787613,
          -0.09094195812940598,
          -0.005710456985980272,
          0.14748162031173706,
          0.1122853085398674,
          0.09354030340909958,
          0.13156016170978546,
          0.05987101048231125,
          -0.07147330790758133
        ],
        [
          -0.09895648807287216,
          0.0013928819680586457,
          -0.08287688344717026,
          -0.0283949077129364,
          -0.046381305903196335,
          0.13119836151599884,
          0.0019870197866111994,
          0.13791523873806,
          -0.10444649308919907,
          -0.15324142575263977,
          0.03379885479807854,
          0.04044250771403313,
          -0.060273677110672,
          -0.06506113708019257,
          0.048619404435157776,
          0.011546269990503788,
          -0.023600297048687935,
          0.09371254593133926,
          -0.05791566148400307,
          0.07914932072162628,
          -0.09129633009433746,
          -0.07656337320804596,
          0.05892540514469147,
          0.06781550496816635,
          0.00036660913610830903,
          -0.11783949285745621,
          -0.015429136343300343,
          -0.06374852359294891,
          -0.06171266362071037,
          -0.03368889540433884,
          0.04357727989554405,
          -0.02592441625893116,
          -0.1106661930680275,
          -0.05866703391075134,
          -0.11313440650701523,
          -0.1318133920431137,
          0.10316166281700134,
          0.09367962181568146,
          0.09879785031080246,
          0.0071356878615915775,
          -0.036157943308353424,
          -0.08450406044721603,
          0.10215047746896744,
          -0.07281308621168137,
          0.1160426214337349,
          -0.09825491160154343,
          -0.12961626052856445,
          -0.10758610814809799
        ],
        [
          0.06631748378276825,
          0.10295587033033371,
          0.022728420794010162,
          -0.01105328556150198,
          0.11128387600183487,
          0.06296627223491669,
          0.05503365024924278,
          -0.11299971491098404,
          -0.00041113144834525883,
          0.10139235109090805,
          -0.10225974023342133,
          0.12960897386074066,
          -0.1013607308268547,
          -0.05907416343688965,
          -0.02043105661869049,
          0.019578587263822556,
          0.01660803332924843,
          -0.0670609399676323,
          0.02282343991100788,
          -0.005558711010962725,
          -0.004567425232380629,
          -0.13706821203231812,
          0.11563442647457123,
          -0.054913945496082306,
          -0.08051835000514984,
          0.15025363862514496,
          -0.08207761496305466,
          0.08057516813278198,
          0.07339265942573547,
          -0.09312721341848373,
          -0.11991412192583084,
          -0.10601723939180374,
          0.056779056787490845,
          0.12821359932422638,
          0.0353839211165905,
          -0.048291537910699844,
          -0.006890713237226009,
          -0.09971123933792114,
          0.10904300212860107,
          0.022305218502879143,
          -0.12409478425979614,
          -0.046619076281785965,
          0.06348959356546402,
          0.06164084002375603,
          0.11555668711662292,
          -0.0015363729326054454,
          0.007431048434227705,
          0.04265975207090378
        ],
        [
          -0.010784215293824673,
          -0.061805423349142075,
          0.026289230212569237,
          -0.08396963030099869,
          -0.10885404050350189,
          -0.0420750267803669,
          -0.09408290684223175,
          0.019741829484701157,
          0.021271435543894768,
          0.14583176374435425,
          0.04453478008508682,
          0.005648390855640173,
          -0.10698895156383514,
          -0.06435421854257584,
          -0.020707497373223305,
          -0.11076171696186066,
          0.030477404594421387,
          0.05169036239385605,
          0.05026876553893089,
          -0.061882976442575455,
          -0.05322929844260216,
          0.13075950741767883,
          -0.06344262510538101,
          -0.12230085581541061,
          -0.04356556758284569,
          -0.008164038881659508,
          -0.04918708652257919,
          -0.02338353730738163,
          -0.12750154733657837,
          0.033316757529973984,
          -0.09677246958017349,
          0.02995406836271286,
          0.1472582370042801,
          -0.07538122683763504,
          -0.03727750852704048,
          -0.0005399607471190393,
          -0.010862743481993675,
          0.07151319831609726,
          -0.026959313079714775,
          0.057740096002817154,
          -0.09604499489068985,
          0.05218064785003662,
          -0.024739578366279602,
          -0.1496184915304184,
          0.05516350641846657,
          0.011359423398971558,
          0.07954126596450806,
          -0.12347433716058731
        ],
        [
          0.012434670701622963,
          0.09256290644407272,
          0.13152098655700684,
          0.011264452710747719,
          -0.05404027923941612,
          -0.09345194697380066,
          -0.09472283720970154,
          0.1350230574607849,
          -0.102960966527462,
          -0.01793673075735569,
          0.08446590602397919,
          0.09485860168933868,
          -0.12008010596036911,
          0.045303087681531906,
          0.033750951290130615,
          0.15108221769332886,
          0.0037031297106295824,
          0.0393407866358757,
          -0.014554903842508793,
          0.13230159878730774,
          -0.048425234854221344,
          -0.08646217733621597,
          -0.010899030603468418,
          -0.03981412947177887,
          0.02785576321184635,
          0.11521998792886734,
          -0.11042723804712296,
          -0.08075486868619919,
          0.0006337885861285031,
          -0.019468290731310844,
          -0.06220461428165436,
          0.09000799059867859,
          0.06324818730354309,
          -0.042442258447408676,
          -0.0011998871341347694,
          -0.03015175834298134,
          -0.09010567516088486,
          0.07337453961372375,
          -0.09891930222511292,
          -0.012978987768292427,
          0.09407144784927368,
          -0.14348956942558289,
          0.033222392201423645,
          0.1282540112733841,
          0.04995039850473404,
          -0.02954995073378086,
          0.013582903891801834,
          -0.12601366639137268
        ],
        [
          0.024926602840423584,
          0.11022497713565826,
          0.11970269680023193,
          -0.007203912362456322,
          0.04804835841059685,
          -0.03392224758863449,
          -0.05064382404088974,
          -0.0034577774349600077,
          -0.08919188380241394,
          0.06192907691001892,
          0.0615616999566555,
          -0.04821980744600296,
          -0.04317498952150345,
          -0.1180138885974884,
          0.007933192886412144,
          0.04677266255021095,
          0.15876731276512146,
          -0.16565699875354767,
          -0.13659071922302246,
          0.027688246220350266,
          0.10425079613924026,
          0.007953617721796036,
          0.020024269819259644,
          0.023305227980017662,
          -0.002576105296611786,
          0.08857748657464981,
          0.089676134288311,
          -0.07605832070112228,
          -0.07399754971265793,
          -0.10540959239006042,
          -0.0577285997569561,
          -0.0008678800077177584,
          0.11638940125703812,
          -0.14226755499839783,
          0.08052314817905426,
          -0.04178987070918083,
          -0.0005886583821848035,
          -0.005740125197917223,
          0.066257543861866,
          -0.09864816814661026,
          -0.05889463797211647,
          0.0020475820638239384,
          0.06508970260620117,
          -0.06456399708986282,
          0.07509709894657135,
          -0.03223005309700966,
          -0.08975867182016373,
          0.047075193375349045
        ],
        [
          -0.030134230852127075,
          0.06521092355251312,
          0.0761619582772255,
          0.07289468497037888,
          0.07115693390369415,
          -0.12787757813930511,
          -0.16255095601081848,
          -0.0009906573686748743,
          0.02269887737929821,
          -0.127411350607872,
          0.0926390066742897,
          -0.03426167368888855,
          -0.10266254842281342,
          0.0809069573879242,
          0.10690416395664215,
          0.0019253151258453727,
          -0.033030394464731216,
          0.022584218531847,
          -0.09757617861032486,
          0.08871325105428696,
          0.07458416372537613,
          -0.02294621430337429,
          -0.1088179424405098,
          0.1042490229010582,
          -0.10904699563980103,
          -0.06477440893650055,
          0.07183938473463058,
          -0.06782614439725876,
          0.01616145484149456,
          0.10529513657093048,
          -0.0020864910911768675,
          -0.029211459681391716,
          0.05859857797622681,
          0.005623192526400089,
          0.02268287166953087,
          -0.0310092531144619,
          -0.13402383029460907,
          0.015423516742885113,
          -0.06324049830436707,
          -0.08269160985946655,
          -0.09630181640386581,
          0.07759610563516617,
          -0.07794873416423798,
          0.041953522711992264,
          0.00930019374936819,
          0.05744590237736702,
          0.06681472063064575,
          -0.1142866238951683
        ],
        [
          0.07417657971382141,
          -0.0918048545718193,
          0.009697377681732178,
          -0.04792570322751999,
          -0.12131042033433914,
          0.04560286924242973,
          -0.08671928942203522,
          0.13385948538780212,
          0.061074692755937576,
          -0.065575510263443,
          -0.08218784630298615,
          -0.1374713033437729,
          -0.09738648682832718,
          -0.1006304994225502,
          0.006514024920761585,
          0.03204530104994774,
          0.14016355574131012,
          -0.002141407923772931,
          -0.02105823904275894,
          -0.04300528019666672,
          -0.02474306710064411,
          0.08187341690063477,
          -0.14629118144512177,
          -0.13148930668830872,
          0.08439136296510696,
          -0.026903515681624413,
          -0.04577106237411499,
          -0.06844403594732285,
          -0.10187291353940964,
          -0.1061100885272026,
          -0.10394440591335297,
          -0.11897115409374237,
          -0.0949382409453392,
          0.11412389576435089,
          -0.045952245593070984,
          0.10549084097146988,
          -0.09750491380691528,
          -0.005054424051195383,
          -0.04859253019094467,
          -0.11964963376522064,
          0.014600612223148346,
          0.12753096222877502,
          -0.04630792886018753,
          0.16566066443920135,
          0.0011710122926160693,
          -0.04837653040885925,
          0.04878751188516617,
          0.14721176028251648
        ],
        [
          0.11597251147031784,
          0.07647674530744553,
          -0.12561684846878052,
          -0.02794673852622509,
          0.009601252153515816,
          -0.07189345359802246,
          0.07556508481502533,
          -0.03239143639802933,
          -0.12592895328998566,
          -0.06878680735826492,
          -0.08947177976369858,
          0.06437371671199799,
          -0.1104867085814476,
          -0.041576482355594635,
          0.019208861514925957,
          0.060062654316425323,
          -0.10332377254962921,
          0.08877615630626678,
          -0.12642453610897064,
          -0.13224542140960693,
          0.06795034557580948,
          -0.0884312242269516,
          0.09670406579971313,
          0.01933334209024906,
          -0.09698493033647537,
          -0.0628868117928505,
          -0.0713346004486084,
          -0.006589346565306187,
          -0.0044408077374100685,
          0.001878713141195476,
          -0.11153244227170944,
          -0.09543004631996155,
          -0.08131086826324463,
          0.04390249401330948,
          0.02944156713783741,
          -0.07697654515504837,
          -0.040383994579315186,
          0.02393133006989956,
          0.08038093894720078,
          -0.11294877529144287,
          -0.09498703479766846,
          0.006727812346071005,
          -0.06609256565570831,
          -0.11684922873973846,
          0.07269547879695892,
          -0.05601513385772705,
          0.018339239060878754,
          -0.08861697465181351
        ],
        [
          0.13154740631580353,
          -0.08536115288734436,
          -0.04045500606298447,
          0.07652383297681808,
          0.055786311626434326,
          -0.15195110440254211,
          0.07237498462200165,
          -0.1017041876912117,
          -0.03928324952721596,
          0.03537854924798012,
          -0.014137244783341885,
          0.09086430817842484,
          -0.080272376537323,
          -0.12013784050941467,
          -0.017520800232887268,
          0.014719467610120773,
          0.09555542469024658,
          -0.04006563499569893,
          0.0013869329122826457,
          -0.11941201984882355,
          -0.08807487040758133,
          -0.10980571806430817,
          -0.1038404330611229,
          -0.0394669733941555,
          0.013458319008350372,
          0.0028268061578273773,
          0.08039628714323044,
          0.09400266408920288,
          -0.09024149924516678,
          0.024320242926478386,
          0.11081844568252563,
          -0.12665623426437378,
          -0.02947194129228592,
          0.06571411341428757,
          -0.10959372669458389,
          0.13482987880706787,
          0.027940986678004265,
          0.05171610042452812,
          0.1541423350572586,
          -0.1258099228143692,
          0.11606564372777939,
          -0.10446859151124954,
          0.04464877396821976,
          -0.011100155301392078,
          0.08947788178920746,
          -0.016732795163989067,
          -0.14230234920978546,
          0.016784600913524628
        ],
        [
          0.08377967029809952,
          -0.09267839789390564,
          -0.1890375018119812,
          -0.03945073485374451,
          -0.023864425718784332,
          0.004332658369094133,
          0.011460618115961552,
          -0.041579123586416245,
          -0.0365457721054554,
          -0.05084145814180374,
          0.02556169591844082,
          -0.005505125503987074,
          0.03800210729241371,
          -0.033510204404592514,
          -0.051910918205976486,
          0.07779296487569809,
          0.03399807587265968,
          -0.09718014299869537,
          0.04578487202525139,
          0.10861683636903763,
          0.014673483557999134,
          0.13222955167293549,
          -0.09432300925254822,
          -0.011292918585240841,
          0.10149067640304565,
          -0.025874869897961617,
          -0.06052123382687569,
          0.011174540966749191,
          -0.0008009995217435062,
          0.01522902026772499,
          0.0649457573890686,
          -0.010864480398595333,
          -0.07581810653209686,
          0.07221119850873947,
          -0.012969046831130981,
          -0.09924895316362381,
          0.03453570604324341,
          -0.09293112903833389,
          0.1306605488061905,
          0.10080694407224655,
          -0.0006751833716407418,
          0.005179376341402531,
          -0.05947079136967659,
          -0.10361064970493317,
          -0.12593382596969604,
          0.05150884389877319,
          0.031340163201093674,
          -0.03263934329152107
        ],
        [
          -0.06415639817714691,
          -0.05996609106659889,
          -0.09127932786941528,
          -0.09864847362041473,
          0.0777197778224945,
          -0.1389273703098297,
          0.10422982275485992,
          0.06145657226443291,
          -0.05171169340610504,
          -0.020824098959565163,
          -0.057394422590732574,
          -0.12857475876808167,
          0.005703834351152182,
          -0.12424751371145248,
          -0.012010880745947361,
          -0.05989671126008034,
          -0.08108647912740707,
          -0.13983546197414398,
          0.11651088297367096,
          0.13688570261001587,
          0.10355126857757568,
          0.018449906259775162,
          0.04179299622774124,
          0.08982444554567337,
          0.0746508464217186,
          0.016303449869155884,
          0.053197819739580154,
          0.09384741634130478,
          0.056775834411382675,
          -0.08397716283798218,
          0.09339378029108047,
          0.1163574829697609,
          -0.02368210069835186,
          -0.09575507789850235,
          0.006785437930375338,
          -0.08461218327283859,
          0.13215278089046478,
          -0.03083525225520134,
          -0.03649988770484924,
          0.06615395098924637,
          0.04943878948688507,
          0.030906612053513527,
          0.14246609807014465,
          -0.09452614188194275,
          0.05245206132531166,
          -0.07021618634462357,
          0.023392602801322937,
          -0.015500982291996479
        ],
        [
          0.11110838502645493,
          -0.017118947580456734,
          0.002184998244047165,
          -0.12447313219308853,
          0.07684318721294403,
          -0.15431633591651917,
          0.07468629628419876,
          0.0846177414059639,
          0.10406524688005447,
          0.07981082797050476,
          -0.04990614578127861,
          0.02637599967420101,
          0.024433884769678116,
          -0.1476343721151352,
          0.0699293240904808,
          -0.12931421399116516,
          0.06804307550191879,
          0.1455150842666626,
          -0.04754680022597313,
          0.010289646685123444,
          0.0994257777929306,
          0.09379390627145767,
          0.11265746504068375,
          -0.08120592683553696,
          0.0074616000056266785,
          -0.11572607606649399,
          0.04361613839864731,
          -0.11536186933517456,
          0.02481449767947197,
          0.03725006431341171,
          -0.11748389154672623,
          -0.008482269942760468,
          -0.05803712084889412,
          0.09441231936216354,
          -0.007651611231267452,
          0.09080833196640015,
          -0.10141905397176743,
          -0.005902129225432873,
          0.062004588544368744,
          0.004314087796956301,
          -0.04628586396574974,
          -0.052702441811561584,
          0.0930820181965828,
          0.09018031507730484,
          0.004650923889130354,
          0.06649887561798096,
          -0.06753605604171753,
          -0.11390789598226547
        ],
        [
          -0.05740078166127205,
          0.09895801544189453,
          -0.1371661126613617,
          -0.08085589110851288,
          0.029085902497172356,
          0.04901621490716934,
          0.06775280833244324,
          0.04018574580550194,
          -0.13393260538578033,
          -0.04653235897421837,
          0.08239614218473434,
          0.02058548666536808,
          0.07094293087720871,
          0.11413359642028809,
          0.07484958320856094,
          -0.0689421221613884,
          -0.03666288033127785,
          0.0027383591514080763,
          0.031624726951122284,
          -0.006352635566145182,
          -0.010691259987652302,
          0.019660145044326782,
          0.1433892548084259,
          -0.07832129299640656,
          0.06617739051580429,
          -0.1343456208705902,
          0.008357414044439793,
          -0.11360829323530197,
          0.1316724717617035,
          -0.13040709495544434,
          -0.08676841855049133,
          0.06240515038371086,
          0.060178451240062714,
          0.10847233980894089,
          0.06135482341051102,
          -0.11590343713760376,
          -0.050961028784513474,
          0.1004793792963028,
          -0.09466934949159622,
          0.09366212040185928,
          -0.023072609677910805,
          0.006108366884291172,
          0.012994049116969109,
          -0.031196411699056625,
          -0.01758735440671444,
          0.06748981773853302,
          -0.0077710021287202835,
          0.05406912416219711
        ],
        [
          0.12846963107585907,
          0.013524752110242844,
          -0.11161714047193527,
          -0.11859672516584396,
          0.09180772304534912,
          0.05109548941254616,
          0.032117024064064026,
          -0.0733100175857544,
          -0.11526317894458771,
          0.11278318613767624,
          -0.14238083362579346,
          -0.0759061649441719,
          0.05243329331278801,
          0.11915969103574753,
          -0.046569760888814926,
          -0.13921402394771576,
          0.020484954118728638,
          -0.01381113100796938,
          -0.04528585821390152,
          -0.13602736592292786,
          0.09229324758052826,
          0.007684690877795219,
          0.02803221344947815,
          0.10393106937408447,
          0.12455476820468903,
          -0.05062178522348404,
          0.011029290035367012,
          -0.0775761604309082,
          -0.13206426799297333,
          -0.10972871631383896,
          -0.004375394433736801,
          -0.11130353063344955,
          0.08089961111545563,
          0.041653987020254135,
          -0.03504128381609917,
          0.1254538595676422,
          0.11267344653606415,
          -0.06007970869541168,
          0.051720552146434784,
          0.09897875785827637,
          0.15175220370292664,
          -0.09433591365814209,
          0.15712742507457733,
          0.02156730741262436,
          0.05386185273528099,
          0.009984736330807209,
          -0.08982976526021957,
          -0.043328311294317245
        ],
        [
          -0.15650756657123566,
          -0.043475791811943054,
          0.015147295780479908,
          -0.12033570557832718,
          0.029360145330429077,
          -0.16737502813339233,
          0.05009978637099266,
          -0.15894156694412231,
          -0.029256291687488556,
          0.08689504861831665,
          -0.15077054500579834,
          -0.12949346005916595,
          -0.09206216037273407,
          -0.07639669626951218,
          -0.09269699454307556,
          0.09970111399888992,
          -0.088205486536026,
          0.03300543501973152,
          -0.1166277751326561,
          -0.04680414870381355,
          -0.0834481492638588,
          -0.12771698832511902,
          -0.0845518708229065,
          0.00018362114496994764,
          0.07763716578483582,
          0.04729810357093811,
          0.06261080503463745,
          0.08357107639312744,
          -0.0008234701817855239,
          0.14415228366851807,
          -0.13034318387508392,
          -0.06044938042759895,
          -0.10833828151226044,
          -0.08265853673219681,
          -0.06356421858072281,
          -0.12087417393922806,
          0.132303848862648,
          0.0009831655770540237,
          0.0931779146194458,
          -0.04412152245640755,
          0.013591550290584564,
          -0.053660061210393906,
          -0.15099669992923737,
          0.009745189920067787,
          0.08361053466796875,
          -0.035903554409742355,
          0.07432568818330765,
          0.041585106402635574
        ],
        [
          0.08767596632242203,
          -0.15283915400505066,
          -0.09438949823379517,
          -0.0006126359803602099,
          0.12804491817951202,
          0.13267546892166138,
          -0.10871833562850952,
          -0.10917527228593826,
          0.12111854553222656,
          -0.0262383371591568,
          -0.09824632108211517,
          -0.07825284451246262,
          0.05035822466015816,
          0.0826815515756607,
          0.10568450391292572,
          -0.045249395072460175,
          -0.06341108679771423,
          0.017637072131037712,
          0.15750987827777863,
          -0.10445445775985718,
          0.07779832929372787,
          -0.0740111842751503,
          -0.004057890735566616,
          0.12495502084493637,
          0.0026129004545509815,
          -0.03579459339380264,
          0.02049989625811577,
          0.061203230172395706,
          0.11386331915855408,
          -0.1212436854839325,
          0.1358339488506317,
          -0.04777044430375099,
          -0.03075786493718624,
          -0.11174371838569641,
          0.06362053006887436,
          -0.14470379054546356,
          -0.07273153215646744,
          -0.10883577913045883,
          0.07249899208545685,
          0.04347645863890648,
          -0.12691394984722137,
          -0.0037127891555428505,
          0.1361226886510849,
          -0.12550684809684753,
          0.10014422982931137,
          0.12150683999061584,
          -0.016298679634928703,
          -0.07191567122936249
        ],
        [
          0.06858675926923752,
          0.06193315610289574,
          -0.05901012569665909,
          -0.09378700703382492,
          -0.09807455539703369,
          -0.05911004915833473,
          0.02382369339466095,
          0.056233204901218414,
          -0.007331341505050659,
          0.11538003385066986,
          0.02939167059957981,
          0.032381944358348846,
          -0.0814463347196579,
          -0.05551855266094208,
          0.09219682961702347,
          0.06357450783252716,
          -0.030744435265660286,
          -0.10423601418733597,
          -0.14407482743263245,
          0.029021309688687325,
          -0.10933926701545715,
          -0.040610842406749725,
          -0.04242265224456787,
          -0.12033430486917496,
          0.11527353525161743,
          -0.04203955456614494,
          -0.13319101929664612,
          -0.12857186794281006,
          -0.11965704709291458,
          -0.06483374536037445,
          -0.03139021620154381,
          0.07225814461708069,
          -0.022690337151288986,
          -0.15031182765960693,
          -0.1248435378074646,
          -0.08147753030061722,
          0.10420835763216019,
          -0.036433398723602295,
          -0.15591126680374146,
          -0.07261033356189728,
          -0.07715379446744919,
          0.002850156743079424,
          -0.002307028044015169,
          -0.02073691599071026,
          0.1028120368719101,
          -0.12953704595565796,
          0.012295328080654144,
          -0.07774258404970169
        ],
        [
          0.0412597581744194,
          -0.13435392081737518,
          -0.044413819909095764,
          0.0865989699959755,
          -0.08990713208913803,
          -0.06617969274520874,
          -0.008387607522308826,
          -0.08174099773168564,
          -0.08701103925704956,
          -0.041172534227371216,
          -0.011116746813058853,
          -0.029269523918628693,
          0.026166893541812897,
          -0.11754471063613892,
          -0.011795918457210064,
          -0.11672186106443405,
          0.06531056761741638,
          0.1011202335357666,
          -0.1053304448723793,
          -0.06020887568593025,
          0.15285328030586243,
          0.12619180977344513,
          0.03606574609875679,
          -0.09003946185112,
          0.07714318484067917,
          -0.0015357494121417403,
          0.11811289191246033,
          0.09760425984859467,
          -0.020332202315330505,
          0.09275529533624649,
          -0.10030847042798996,
          0.03537364676594734,
          -0.09814498573541641,
          0.16012035310268402,
          -0.11211225390434265,
          -0.15004494786262512,
          -0.14456510543823242,
          -0.06992204487323761,
          0.007977163419127464,
          0.01149285864084959,
          0.030428001657128334,
          -0.16622936725616455,
          -0.1254110038280487,
          -0.06318193674087524,
          0.009726380929350853,
          -0.048929210752248764,
          0.05761955305933952,
          0.08670492470264435
        ],
        [
          -0.0283624567091465,
          -0.026893502101302147,
          -0.03646688535809517,
          -0.003220398910343647,
          -0.07385994493961334,
          -0.032744888216257095,
          -0.11952629685401917,
          0.10535506159067154,
          0.08251146227121353,
          -0.10621337592601776,
          -0.009148531593382359,
          -0.09734633564949036,
          -0.037079405039548874,
          -0.13878433406352997,
          -0.02312362939119339,
          -0.07587116956710815,
          -0.12810729444026947,
          0.1508253514766693,
          0.030722003430128098,
          0.049598295241594315,
          0.0061059193685650826,
          0.014756236225366592,
          -0.04813256487250328,
          0.047968074679374695,
          0.061687979847192764,
          -0.015181075781583786,
          -0.07606960833072662,
          0.11520485579967499,
          -0.03766432777047157,
          -0.1088062971830368,
          0.07381122559309006,
          0.11407168954610825,
          0.11055608093738556,
          0.0776539221405983,
          0.11629166454076767,
          -0.09445149451494217,
          0.02205813303589821,
          0.08388271927833557,
          -0.07129868865013123,
          0.026593739166855812,
          -0.056010954082012177,
          -0.03165177255868912,
          0.058252643793821335,
          0.02628150023519993,
          -0.0632745549082756,
          -0.0434926338493824,
          0.0355205200612545,
          -0.06013059243559837
        ],
        [
          0.10214181989431381,
          -0.15039841830730438,
          -0.08667926490306854,
          0.04544077813625336,
          0.011282311752438545,
          0.09003780037164688,
          0.06359124928712845,
          0.015238435007631779,
          0.026969630271196365,
          0.11385665088891983,
          -0.13690607249736786,
          -0.0455232597887516,
          0.09576117992401123,
          -0.10491538792848587,
          0.06830571591854095,
          0.10260143131017685,
          0.04985924810171127,
          -0.061802301555871964,
          -0.03881654888391495,
          0.010536368936300278,
          -0.04146721214056015,
          0.044733885675668716,
          0.04094388335943222,
          0.052698731422424316,
          0.11986810714006424,
          -0.11680836230516434,
          -0.1479596197605133,
          0.08790528029203415,
          0.0007036853348836303,
          -0.12643635272979736,
          -0.045925263315439224,
          0.09889978915452957,
          -0.03154081851243973,
          0.0418124720454216,
          0.0630226656794548,
          -0.029896868392825127,
          0.028748489916324615,
          0.035291887819767,
          -0.07541374117136002,
          -0.05343608558177948,
          0.09262855350971222,
          0.04567551240324974,
          0.05013972893357277,
