{
  "layers": [
    {
      "index": 0,
      "weight": [
        [
          -0.1962978094816208,
          -0.3345245122909546,
          -0.2445586621761322,
          -0.1838269829750061,
          -0.2063571959733963,
          -0.15236958861351013,
          -0.03630958870053291,
          0.06620735675096512,
          -0.1614147573709488,
          -0.3556308448314667,
          -0.04920237883925438,
          -0.18959565460681915,
          0.06288670003414154,
          0.005819740705192089,
          -0.05065720155835152,
          0.09377449750900269,
          0.03530796617269516,
          -0.05224192515015602,
          0.100366972386837,
          -0.0027563346084207296,
          -0.09432917088270187,
          -0.0722818672657013,
          -0.09297550469636917,
          -0.08045332133769989,
          -0.0981527790427208,
          0.09335074573755264,
          0.040200166404247284,
          0.01796727068722248,
          -0.10335937142372131,
          0.08926782011985779,
          0.023958571255207062,
          0.1583700329065323,
          0.18353600800037384,
          -0.1457962840795517,
          -0.1399143934249878,
          -0.08278469741344452,
          0.017939912155270576,
          0.1674979031085968,
          0.0962369441986084,
          0.019544817507267,
          0.12896417081356049,
          -0.15042224526405334,
          -0.03718435764312744,
          -0.04894612357020378,
          0.09532789140939713,
          -0.06524230539798737,
          -0.08472710102796555,
          -0.07417047023773193
        ],
        [
          -0.20867812633514404,
          -0.1877565085887909,
          -0.3338683247566223,
          -0.25319942831993103,
          -0.016288967803120613,
          0.009796499274671078,
          0.391971230506897,
          0.19011257588863373,
          -0.031001774594187737,
          0.009637463837862015,
          0.3461926579475403,
          0.1630285531282425,
          -0.06356670707464218,
          0.1455560326576233,
          -0.07365050166845322,
          0.1402958184480667,
          -0.06924554705619812,
          0.018074747174978256,
          -0.00033970933873206377,
          0.056642331182956696,
          -0.08233097940683365,
          0.00651503074914217,
          0.06245623156428337,
          0.050910670310258865,
          -0.01067033875733614,
          0.05989133194088936,
          -0.025841133669018745,
          -0.021236518397927284,
          -0.008182494901120663,
          0.04158308357000351,
          -0.059904128313064575,
          -0.016386331990361214,
          -0.1272674798965454,
          -0.03192354366183281,
          0.10866637527942657,
          0.03957910090684891,
          -0.002932331059128046,
          -0.011992589570581913,
          0.01025356538593769,
          0.11109182983636856,
          -0.06213810294866562,
          0.05852267146110535,
          0.021390393376350403,
          -0.007624225690960884,
          -0.046878740191459656,
          0.05757885426282883,
          -0.028247468173503876,
          -0.01951344683766365
        ],
        [
          0.06827585399150848,
          0.18411120772361755,
          0.0736875832080841,
          0.04738601669669151,
          0.16987530887126923,
          -0.1050604060292244,
          0.18992812931537628,
          0.10287778824567795,
          -0.09089759737253189,
          -0.058557868003845215,
          0.38440975546836853,
          0.09891066700220108,
          0.14269648492336273,
          0.03158491849899292,
          -0.011903070844709873,
          0.14108474552631378,
          0.06128266453742981,
          -0.070569708943367,
          -0.023993218317627907,
          -0.033051539212465286,
          0.0694434642791748,
          0.06410384923219681,
          0.027396857738494873,
          -0.12463743984699249,
          -0.10697109997272491,
          0.03333810716867447,
          0.12669478356838226,
          -0.013355805538594723,
          0.011872604489326477,
          -0.0380144901573658,
          0.12285441905260086,
          0.06274846941232681,
          0.0033991560339927673,
          0.0719490796327591,
          -0.1049191802740097,
          0.035483524203300476,
          -0.0006307556759566069,
          -0.04192826524376869,
          0.12174897640943527,
          0.07457391172647476,
          0.07921449095010757,
          0.043116211891174316,
          -0.17557042837142944,
          0.007948307320475578,
          -0.22453361749649048,
          0.03356776759028435,
          -0.03777403384447098,
          0.14687876403331757
        ],
        [
          -0.08439820259809494,
          -0.21594347059726715,
          -0.14717382192611694,
          -0.11273916810750961,
          0.09033439308404922,
          -0.11552737653255463,
          -0.16238737106323242,
          0.24467550218105316,
          -0.19651161134243011,
          0.1721520572900772,
          -0.24179841578006744,
          -0.24760650098323822,
          -0.2158840298652649,
          -0.0242844820022583,
          -0.1354617476463318,
          -0.041997168213129044,
          -0.06431745737791061,
          0.12010597437620163,
          0.09181694686412811,
          0.07110469788312912,
          -0.03452102467417717,
          0.019719189032912254,
          -0.07463948428630829,
          -0.003142390865832567,
          -0.03271526098251343,
          -0.12752652168273926,
          0.08863084763288498,
          0.05070853233337402,
          -0.02016451582312584,
          0.16585153341293335,
          0.08940072357654572,
          0.05540898069739342,
          0.044821519404649734,
          -0.06416782736778259,
          -0.08262713253498077,
          0.11100105196237564,
          -0.003072254592552781,
          -0.03833149001002312,
          -0.14470316469669342,
          -0.010372505523264408,
          -0.12146925181150436,
          0.03326963260769844,
          -0.027877073734998703,
          0.03480759635567665,
          -0.10617285221815109,
          0.04245646297931671,
          -0.02172226458787918,
          -0.03880472108721733
        ],
        [
          -0.00040125835221260786,
          0.16755948960781097,
          0.28128665685653687,
          0.08759094774723053,
          0.23262947797775269,
          0.1530565768480301,
          0.3225587010383606,
          -0.05642310902476311,
          0.05116640776395798,
          0.16588620841503143,
          0.3193344175815582,
          -0.06128477305173874,
          -0.017684748396277428,
          -0.11181826144456863,
          0.03797881305217743,
          0.0046986485831439495,
          0.04319361224770546,
          0.11114729940891266,
          0.10581318289041519,
          0.11735156178474426,
          -0.02675563097000122,
          -0.04222820699214935,
          -0.0863923579454422,
          0.11120153218507767,
          0.10329180210828781,
          -0.14624758064746857,
          -0.017281290143728256,
          0.10861977934837341,
          -0.13820898532867432,
          0.20329365134239197,
          -0.15982060134410858,
          -0.05384797975420952,
          -0.018072625622153282,
          -0.012720619328320026,
          0.08051221817731857,
          0.1252748817205429,
          0.03027084469795227,
          0.057726118713617325,
          -0.17066510021686554,
          -0.03198695927858353,
          0.05324573814868927,
          -0.02370281331241131,
          0.010761367157101631,
          0.03805170953273773,
          -0.02769111469388008,
          0.16224215924739838,
          0.015457521192729473,
          0.09792911261320114
        ],
        [
          0.043246347457170486,
          0.05787455663084984,
          0.17531487345695496,
          0.1507725566625595,
          0.023287372663617134,
          -0.2614191174507141,
          -0.5637599229812622,
          -0.327055960893631,
          -0.07125945389270782,
          0.01348737720400095,
          0.05868272855877876,
          -0.3353520631790161,
          -0.25947341322898865,
          -0.05169311538338661,
          -0.09166108071804047,
          -0.18127581477165222,
          0.041224367916584015,
          0.0841434895992279,
          -0.03687254339456558,
          -0.10669618099927902,
          0.14785057306289673,
          0.1440580189228058,
          -0.054836973547935486,
          -0.009300383739173412,
          0.043387796729803085,
          -0.15206347405910492,
          0.029532110318541527,
          -0.1332312971353531,
          0.02475149743258953,
          0.02844551019370556,
          0.05458461120724678,
          -0.020941084250807762,
          0.014921410009264946,
          0.09818992763757706,
          -0.07048691809177399,
          -0.03474504128098488,
          -0.21551266312599182,
          -0.09413042664527893,
          -0.040223877876996994,
          0.029990358278155327,
          0.09465207159519196,
          0.01933855190873146,
          0.07861171662807465,
          0.037002578377723694,
          -0.02013253979384899,
          0.06770097464323044,
          -0.031215006485581398,
          0.09086006134748459
        ],
        [
          -0.28830382227897644,
          -0.21019303798675537,
          -0.25315409898757935,
          -0.4399392008781433,
          0.03536651283502579,
          -0.0038263604510575533,
          -0.008401122875511646,
          -0.02793039008975029,
          -0.21183601021766663,
          0.026511037722229958,
          0.07321081310510635,
          -0.07008557766675949,
          0.07209005206823349,
          0.045641254633665085,
          0.03927275538444519,
          0.1827070564031601,
          -0.08167492598295212,
          -0.004996513016521931,
          -0.07069821655750275,
          0.08385388553142548,
          0.05806875601410866,
          0.04563777521252632,
          0.05196302384138107,
          0.0013976020272821188,
          -0.025452613830566406,
          -0.025887615978717804,
          0.02878379076719284,
          -0.0004553838516585529,
          0.05508249253034592,
          0.0235204566270113,
          0.05184788629412651,
          0.007285587955266237,
          0.033167291432619095,
          0.04363822564482689,
          -0.0207049660384655,
          -0.0048781493678689,
          0.013503189198672771,
          0.1265290081501007,
          -0.036599040031433105,
          0.006042973604053259,
          0.08767163753509521,
          -0.013823166489601135,
          0.03655429556965828,
          0.12919527292251587,
          0.07633037865161896,
          -0.005665664095431566,
          0.05661265179514885,
          0.010921845212578773
        ],
        [
          0.07641515135765076,
          -0.06330537796020508,
          0.07577988505363464,
          0.14019379019737244,
          -0.3902624249458313,
          -0.22197121381759644,
          -0.427871435880661,
          -0.03250312805175781,
          -0.20751282572746277,
          -0.30489233136177063,
          -0.24777093529701233,
          -0.05197501182556152,
          -0.13553082942962646,
          -0.24112796783447266,
          -0.03158874437212944,
          -0.019936125725507736,
          -0.1247013509273529,
          -0.1388169378042221,
          0.08528406172990799,
          0.09751822799444199,
          0.08287643641233444,
          0.0648069754242897,
          0.02893732115626335,
          -0.016175424680113792,
          -0.11565126478672028,
          -0.10513071715831757,
          0.07060270011425018,
          -0.044604431837797165,
          0.08161866664886475,
          -0.03384125605225563,
          -0.07298599183559418,
          -0.06879875808954239,
          0.028551295399665833,
          -0.10037095844745636,
          -0.18287822604179382,
          0.07496859133243561,
          0.06561720371246338,
          -0.02266814187169075,
          0.09855161607265472,
          -0.006536380387842655,
          0.058393727988004684,
          0.02058478817343712,
          -0.030021633952856064,
          -0.059575315564870834,
          0.047529350966215134,
          -0.05504976585507393,
          -0.011082829907536507,
          -0.05386066809296608
        ],
        [
          0.017963208258152008,
          0.25841525197029114,
          0.21649950742721558,
          0.13412155210971832,
          0.18559613823890686,
          0.015687966719269753,
          0.04336027055978775,
          0.15788967907428741,
          0.09127151966094971,
          0.23028194904327393,
          0.22541144490242004,
          -0.20442813634872437,
          0.18407417833805084,
          0.15724080801010132,
          0.4226539433002472,
          0.32990482449531555,
          0.017225133255124092,
          -0.005025628954172134,
          0.008402752690017223,
          -0.0915505513548851,
          0.06990157812833786,
          0.02375008352100849,
          0.03300638496875763,
          -0.06932812929153442,
          0.0978151187300682,
          -0.05329579859972,
          -0.001991917844861746,
          0.10506190359592438,
          0.0840197205543518,
          -0.08758712559938431,
          0.15422885119915009,
          0.008992333896458149,
          -0.03217736631631851,
          0.05635356158018112,
          -0.06865160912275314,
          -0.042042605578899384,
          -0.06220068037509918,
          0.1309448927640915,
          0.04380263760685921,
          0.0385267548263073,
          0.06963018327951431,
          0.22734323143959045,
          0.03864182531833649,
          -0.05377393960952759,
          -0.03223590925335884,
          -0.020522110164165497,
          0.13066314160823822,
          -0.05767226964235306
        ],
        [
          0.16435277462005615,
          0.23385202884674072,
          0.226954847574234,
          -0.01679883897304535,
          0.13179798424243927,
          -0.10407451540231705,
          -0.07080235332250595,
          0.07148836553096771,
          -0.02588105946779251,
          -0.31821903586387634,
          -0.27271580696105957,
          -0.08400752395391464,
          -0.041161734610795975,
          -0.3619195818901062,
          -0.08373676985502243,
          -0.12451416254043579,
          -0.06720630079507828,
          -0.12772847712039948,
          0.06956818699836731,
          0.19508633017539978,
          0.11265529692173004,
          -0.016027944162487984,
          0.03149571642279625,
          0.08300633728504181,
          -0.1261458694934845,
          0.015750955790281296,
          0.08322882652282715,
          -0.13034410774707794,
          0.14792519807815552,
          -0.05494289472699165,
          0.20318208634853363,
          0.0810747891664505,
          -0.12892043590545654,
          -0.04285751283168793,
          -0.13261397182941437,
          -0.018651442602276802,
          0.027408558875322342,
          -0.1036958396434784,
          -0.13375213742256165,
          -0.20347166061401367,
          -0.041454002261161804,
          0.13966120779514313,
          0.04120033234357834,
          0.035798147320747375,
          0.043328870087862015,
          0.06218789517879486,
          0.09156373143196106,
          0.1051086038351059
        ],
        [
          -0.020291943103075027,
          -0.251775860786438,
          -0.17169365286827087,
          -0.041231557726860046,
          0.06393284350633621,
          -0.16367734968662262,
          -0.3125331699848175,
          0.07027596980333328,
          0.03254277631640434,
          0.13867047429084778,
          -0.011455275118350983,
          -0.12335759401321411,
          0.12067539244890213,
          0.13252493739128113,
          -0.1602068543434143,
          0.15409690141677856,
          0.018920911476016045,
          0.00694902753457427,
          0.002154735615476966,
          -0.02924494445323944,
          0.005555473268032074,
          0.025090759620070457,
          0.005634704139083624,
          -0.002673068782314658,
          0.11033685505390167,
          -0.05001651868224144,
          -0.025846118107438087,
          -0.08285018056631088,
          0.1486230045557022,
          -0.15480053424835205,
          0.10282550752162933,
          0.011967625468969345,
          0.04100789874792099,
          0.04887048900127411,
          0.05701887607574463,
          -0.08265165239572525,
          -0.02416379563510418,
          -0.14908328652381897,
          0.01836085319519043,
          0.07836170494556427,
          0.019164850935339928,
          0.034097835421562195,
          -0.009247745387256145,
          0.06885390728712082,
          0.009290944784879684,
          -0.12787356972694397,
          0.0892045795917511,
          -0.030345240607857704
        ],
        [
          -0.0233586635440588,
          -0.1404155194759369,
          -0.0394805446267128,
          0.08992907404899597,
          -0.0967470332980156,
          -0.2486218810081482,
          -0.2997432053089142,
          -0.22823621332645416,
          -0.02545236051082611,
          -0.05028792843222618,
          -0.2740805447101593,
          0.05130966752767563,
          0.08412399142980576,
          -0.34113380312919617,
          -0.32587218284606934,
          -0.14822639524936676,
          -0.1678071916103363,
          0.10512823611497879,
          -0.04096126928925514,
          0.1102232038974762,
          -0.16140133142471313,
          0.005768457893282175,
          0.07992725819349289,
          0.01163101103156805,
          0.06753543019294739,
          -0.12321805953979492,
          -0.05117766559123993,
          0.06187061220407486,
          0.030134357511997223,
          0.01773715950548649,
          -0.06577426940202713,
          -0.029493775218725204,
          -0.03382863849401474,
          -0.022701818495988846,
          -0.018382232636213303,
          -0.04811962693929672,
          0.07035790383815765,
          -0.020508557558059692,
          -0.07999814301729202,
          0.05558371916413307,
          0.041582535952329636,
          0.057478342205286026,
          0.09939451515674591,
          -0.050104208290576935,
          -0.036206524819135666,
          0.092784583568573,
          0.21028435230255127,
          0.05450408533215523
        ],
        [
          -0.2276775985956192,
          -0.21983672678470612,
          -0.1337176114320755,
          -0.2773957848548889,
          -0.24106481671333313,
          0.018616901710629463,
          -0.06636419147253036,
          0.11046534776687622,
          -0.1373269110918045,
          -0.1638626754283905,
          0.02679823525249958,
          0.06978651136159897,
          0.2792574167251587,
          0.0019079692428931594,
          -0.15145285427570343,
          0.058027081191539764,
          0.08677978068590164,
          -8.602422894909978e-05,
          -0.09903408586978912,
          0.09099718928337097,
          0.06648453325033188,
          0.05279767885804176,
          -0.07509683072566986,
          0.04528641700744629,
          -0.07755377143621445,
          0.041220102459192276,
          0.021078044548630714,
          0.08322618156671524,
          -0.06148034706711769,
          -0.07926315814256668,
          0.07850800454616547,
          -0.05511316657066345,
          0.057976748794317245,
          0.03739186376333237,
          -0.0325610376894474,
          -0.030519437044858932,
          -0.06560055166482925,
          0.1180746853351593,
          -0.07823475450277328,
          -0.06639588624238968,
          -0.07322811335325241,
          0.09209685772657394,
          0.06713879853487015,
          0.09970587491989136,
          0.027039265260100365,
          -0.07221905142068863,
          0.1440104842185974,
          -0.13638603687286377
        ],
        [
          -0.11360097676515579,
          -0.14106597006320953,
          -0.31637969613075256,
          -0.16635312139987946,
          -0.2758439779281616,
          0.020543988794088364,
          0.01944695971906185,
          -0.043093591928482056,
          -0.1745096892118454,
          -0.1779526323080063,
          -0.023590505123138428,
          0.0910414382815361,
          0.13834479451179504,
          0.0580923892557621,
          -0.19043323397636414,
          -0.04954364523291588,
          -0.04236241430044174,
          -0.05657871440052986,
          0.025895582512021065,
          0.038899362087249756,
          0.12548677623271942,
          0.008404994383454323,
          -0.021964456886053085,
          0.04446805641055107,
          -0.08693205565214157,
          -0.009057978168129921,
          -0.026200586929917336,
          -0.01976247876882553,
          0.04506155103445053,
          -0.004728451371192932,
          -0.0017736608861014247,
          -0.0014181783189997077,
          -0.06362365186214447,
          0.13442258536815643,
          -0.06316735595464706,
          -0.01277850940823555,
          0.05562673509120941,
          0.013060692697763443,
          0.13497482240200043,
          -0.19163282215595245,
          0.023479726165533066,
          -0.033986225724220276,
          0.09172292798757553,
          -0.05723719671368599,
          -0.06676029413938522,
          -0.0809890404343605,
          -0.031623441725969315,
          -0.02100951038300991
        ],
        [
          -0.37032681703567505,
          -0.23588146269321442,
          -0.28245359659194946,
          -0.22857889533042908,
          -0.3460271954536438,
          -0.3859553039073944,
          -0.035548798739910126,
          0.0405660904943943,
          -0.2456207126379013,
          0.062576524913311,
          -0.19145508110523224,
          -0.23332494497299194,
          0.12594757974147797,
          -0.2717106342315674,
          -0.21321895718574524,
          -0.07864270359277725,
          -0.02760700322687626,
          -0.08734095841646194,
          0.10615333169698715,
          -0.06776124984025955,
          -0.01890498585999012,
          0.07174369692802429,
          -0.07135012000799179,
          -0.055334366858005524,
          0.11538796871900558,
          -0.07926963269710541,
          -0.03644845634698868,
          0.08815135806798935,
          -0.1442447304725647,
          -0.1254548877477646,
          0.028536660596728325,
          -0.13484282791614532,
          -0.02620292268693447,
          -0.09223118424415588,
          0.023342441767454147,
          0.04531314969062805,
          0.14183087646961212,
          -0.11374948173761368,
          -0.0221153162419796,
          0.0072943586856126785,
          0.0896824449300766,
          -0.05093265697360039,
          -0.11248117685317993,
          0.003506801789626479,
          -0.04610389098525047,
          0.08836813271045685,
          -0.07310491055250168,
          -0.1308264434337616
        ],
        [
          -0.2564249336719513,
          -0.209705650806427,
          -0.2952713072299957,
          -0.5312870144844055,
          -0.14776988327503204,
          -0.09257084131240845,
          0.05060597509145737,
          0.05903444439172745,
          -0.19214104115962982,
          -0.07835154980421066,
          0.109956294298172,
          0.12871883809566498,
          0.029936157166957855,
          -0.19442981481552124,
          -0.14931797981262207,
          0.15097859501838684,
          0.057714711874723434,
          -0.033325083553791046,
          0.13573437929153442,
          -0.10250969976186752,
          -0.10259456187486649,
          0.06361959129571915,
          -0.07346991449594498,
          0.007572160102427006,
          0.03160816803574562,
          0.07239817827939987,
          -0.05504561960697174,
          0.015473433770239353,
          -0.12616108357906342,
          0.018008368089795113,
          0.06831063330173492,
          0.0761004090309143,
          0.08601776510477066,
          -0.11193344742059708,
          -0.058272480964660645,
          0.09187493473291397,
          0.09485363215208054,
          -0.005129500757902861,
          -0.07020992040634155,
          0.018937233835458755,
          -0.002797008492052555,
          -0.007364945020526648,
          -0.0026967127341777086,
          -0.039746370166540146,
          -0.06122018024325371,
          0.041327882558107376,
          -0.07131290435791016,
          0.07827691733837128
        ],
        [
          -0.007079675327986479,
          0.03170377016067505,
          -0.0730675607919693,
          0.06331895291805267,
          -0.20053181052207947,
          -0.15344631671905518,
          0.047159142792224884,
          -0.10156667977571487,
          -0.14286571741104126,
          0.1903282105922699,
          0.014463485218584538,
          -0.3021717667579651,
          -0.17874594032764435,
          0.09096283465623856,
          -0.14771641790866852,
          0.01781189814209938,
          0.04438956826925278,
          -0.012976777739822865,
          -0.07601390033960342,
          -0.10466387122869492,
          0.1743103414773941,
          0.1720619946718216,
          -0.01645929366350174,
          -0.057291362434625626,
          0.1768384873867035,
          -0.0843389704823494,
          0.11544381827116013,
          -0.02586907520890236,
          0.17161725461483002,
          0.017979156225919724,
          0.10073114931583405,
          -0.14841759204864502,
          0.05356787517666817,
          0.04619886353611946,
          -0.043964557349681854,
          0.09170672297477722,
          -0.016161613166332245,
          -0.011203943751752377,
          -0.03730197250843048,
          0.07850059121847153,
          -0.03581864386796951,
          -0.11859700828790665,
          -0.021521735936403275,
          0.03442715108394623,
          0.18941310048103333,
          -0.04216822609305382,
          -0.02442409284412861,
          0.08302643895149231
        ],
        [
          0.01465713232755661,
          0.08736636489629745,
          -0.030799616128206253,
          -0.051354698836803436,
          0.16933831572532654,
          0.09341804683208466,
          -0.2109973430633545,
          0.01697644032537937,
          0.001054686028510332,
          -0.011337168514728546,
          -0.07013439387083054,
          -0.02626204490661621,
          0.002429194049909711,
          0.12289568036794662,
          0.01493761781603098,
          0.09342744946479797,
          -0.027134299278259277,
          -0.056536026298999786,
          0.11125928163528442,
          -0.08179115504026413,
          -0.041155196726322174,
          -0.11718408018350601,
          0.013595923781394958,
          0.018545841798186302,
          0.06400557607412338,
          -0.02018268033862114,
          -0.03432906046509743,
          0.07316388934850693,
          -0.04370152950286865,
          -0.08179556578397751,
          -0.09808484464883804,
          -0.021077066659927368,
          0.021017998456954956,
          0.06891126185655594,
          -0.11918453127145767,
          -0.01152239739894867,
          -0.13225428760051727,
          -0.01230860035866499,
          0.07124602049589157,
          0.04272644221782684,
          -0.041811082512140274,
          -0.09806831926107407,
          -0.03275004029273987,
          -0.023616721853613853,
          0.12318920344114304,
          -0.014568669721484184,
          -0.07885543256998062,
          0.013766233809292316
        ],
        [
          0.06226232275366783,
          0.07851167023181915,
          -0.01360622514039278,
          -0.01724979095160961,
          0.17858551442623138,
          0.18711650371551514,
          0.0032879840582609177,
          0.12084286659955978,
          0.14251112937927246,
          0.24842144548892975,
          0.16280026733875275,
          0.23608087003231049,
          0.014697364531457424,
          0.13045023381710052,
          -0.21370074152946472,
          -0.00025204449775628746,
          -0.11115621775388718,
          -0.09756794571876526,
          0.032184384763240814,
          0.14182689785957336,
          0.08666285127401352,
          -0.05510253831744194,
          -0.04096825793385506,
          -0.004348669666796923,
          0.026320455595850945,
          0.1687992811203003,
          0.014456345699727535,
          0.030835792422294617,
          -0.04991334676742554,
          0.014092444442212582,
          0.040743280202150345,
          -0.07372280955314636,
          -0.13502252101898193,
          0.069396011531353,
          -0.0030098860152065754,
          0.033089779317379,
          -0.15504048764705658,
          0.09993060678243637,
          0.008458125405013561,
          0.006081628613173962,
          0.15812981128692627,
          -0.025469956919550896,
          -0.049883078783750534,
          0.008780266158282757,
          -0.21971845626831055,
          0.03718319907784462,
          -0.05260710418224335,
          0.07509598881006241
        ],
        [
          -0.04461205378174782,
          0.03236589580774307,
          -0.07728096842765808,
          -0.0043663689866662025,
          0.03621338680386543,
          -0.11857086420059204,
          -0.22731857001781464,
          -0.10224520415067673,
          0.06159638985991478,
          -0.261679083108902,
          -0.09397689998149872,
          0.03592963516712189,
          0.03168151155114174,
          -0.26648059487342834,
          0.02364678867161274,
          0.08643922209739685,
          0.060114480555057526,
          0.07752349227666855,
          0.005510109011083841,
          -0.1230887696146965,
          0.03392815589904785,
          0.04945719614624977,
          0.008816606365144253,
          -0.05112294852733612,
          0.0945252850651741,
          -0.004026649985462427,
          -0.039056919515132904,
          -0.06898374110460281,
          -0.045800454914569855,
          -0.022587554529309273,
          -0.006187481805682182,
          -0.03801978379487991,
          0.0949789509177208,
          -0.024217482656240463,
          -0.09120504558086395,
          -0.017122935503721237,
          -0.06959711760282516,
          0.0596979558467865,
          0.019751064479351044,
          -0.03577389195561409,
          0.024681484326720238,
          0.07179313153028488,
          -0.10998934507369995,
          -0.0334508940577507,
          0.10908237099647522,
          -0.044391047209501266,
          -0.03557432442903519,
          -0.0727975070476532
        ],
        [
          -0.1333072930574417,
          -0.3064625561237335,
          -0.32097646594047546,
          -0.2981795370578766,
          0.10520226508378983,
          -0.03590274974703789,
          0.22659823298454285,
          0.1773683875799179,
          0.00617622397840023,
          0.024885553866624832,
          0.277023583650589,
          -0.1387132704257965,
          -0.08233995735645294,
          0.04736221209168434,
          -0.4698163568973541,
          -0.2763100564479828,
          -0.06788814812898636,
          -0.028955407440662384,
          0.07739007472991943,
          0.065591961145401,
          -0.01517778541892767,
          0.08947447687387466,
          -0.020737720653414726,
          0.10185179114341736,
          -0.009569625370204449,
          -0.021793264895677567,
          -0.12381286919116974,
          0.24513515830039978,
          -0.07630537450313568,
          -0.06446447968482971,
          0.1416228860616684,
          0.022498242557048798,
          0.07262802124023438,
          -0.137054905295372,
          -0.12124954164028168,
          0.17143802344799042,
          0.0984065979719162,
          0.0639490857720375,
          -0.17569448053836823,
          0.1650216281414032,
          -0.03618369624018669,
          -0.050093814730644226,
          -0.15703102946281433,
          -0.012810884043574333,
          0.00033575730049051344,
          0.06026916950941086,
          0.042585741728544235,
          -0.06464590132236481
        ],
        [
          0.07791482657194138,
          0.10213582962751389,
          0.34202539920806885,
          0.33311185240745544,
          0.1019592136144638,
          0.08380098640918732,
          0.15702050924301147,
          -0.05034497007727623,
          0.04885553568601608,
          -0.5836096405982971,
          -0.03246123716235161,
          -0.00849654246121645,
          -0.19160884618759155,
          -0.2623054087162018,
          0.022777855396270752,
          -0.11472707986831665,
          0.1095513254404068,
          -0.0003926961508113891,
          0.006146819796413183,
          -0.05277658626437187,
          -0.07881779968738556,
          0.06998222321271896,
          -0.006757950410246849,
          -0.03687583655118942,
          0.13959679007530212,
          0.058487869799137115,
          -0.010704058222472668,
          -0.058168359100818634,
          -0.07314832508563995,
          0.011532534845173359,
          0.13517042994499207,
          0.011821282096207142,
          -0.026360904797911644,
          0.03580353036522865,
          -0.17573048174381256,
          0.15887266397476196,
          0.09680123627185822,
          0.036619722843170166,
          0.07065579295158386,
          0.014773047529160976,
          -0.0391143299639225,
          0.07628893852233887,
          -0.06640715152025223,
          -0.0804959163069725,
          0.04194086790084839,
          -0.016135739162564278,
          0.05751124024391174,
          0.0022129660937935114
        ],
        [
          0.21385180950164795,
          -0.1345619261264801,
          -0.08322934061288834,
          0.20982971787452698,
          0.2717512547969818,
          -0.023133788257837296,
          -0.29927435517311096,
          -0.07828233391046524,
          -0.11405977606773376,
          0.22920453548431396,
          -0.04784184321761131,
          -0.24410945177078247,
          -0.3563070297241211,
          0.07660966366529465,
          0.10988281667232513,
          0.22245021164417267,
          -0.019001303240656853,
          0.022895291447639465,
          -0.06001727655529976,
          -0.07869943976402283,
          -0.1419888287782669,
          0.003759800223633647,
          0.07983119040727615,
          -0.05720140039920807,
          0.18495947122573853,
          0.04523951932787895,
          -0.03952387347817421,
          0.030840259045362473,
          0.12045716494321823,
          0.06885784864425659,
          -0.000270028249360621,
          -0.1279153674840927,
          -0.03353358432650566,
          -0.03098486363887787,
          -0.02509930171072483,
          0.04549240320920944,
          -0.1500859260559082,
          -0.07256392389535904,
          0.09550908952951431,
          -0.056391071528196335,
          -0.08524178713560104,
          0.10685353726148605,
          -0.10288878530263901,
          0.020810158923268318,
          0.03035128489136696,
          0.17353790998458862,
          0.026227029040455818,
          0.10687875002622604
        ],
        [
          -0.07621478289365768,
          0.0006657419726252556,
          -0.04947542026638985,
          0.026137296110391617,
          -0.04368967562913895,
          -0.04127250611782074,
          -0.08398371934890747,
          -0.1710018515586853,
          -0.2354729026556015,
          0.032151080667972565,
          0.023621749132871628,
          0.1498035490512848,
          -0.22151896357536316,
          -0.3763917088508606,
          0.014429048635065556,
          -0.041946444660425186,
          0.08015360683202744,
          -0.034543491899967194,
          0.01428189966827631,
          -0.03455500677227974,
          -0.003852441906929016,
          0.04920659586787224,
          -0.058930400758981705,
          0.014582072384655476,
          -0.07794387638568878,
          0.0087852468714118,
          0.02825254388153553,
          0.018134083598852158,
          -0.12959864735603333,
          0.0059433793649077415,
          -0.05148822441697121,
          -0.03171911835670471,
          0.07494346052408218,
          -0.034980446100234985,
          -0.14256572723388672,
          -0.018621917814016342,
          0.08483058214187622,
          0.13560985028743744,
          0.15245670080184937,
          -0.07845159620046616,
          0.10572928190231323,
          -0.009909100830554962,
          0.04422709718346596,
          -0.18565581738948822,
          -0.06240512803196907,
          -0.11674902588129044,
          -0.1347256451845169,
          -0.06173577532172203
        ],
        [
          -0.05627306550741196,
          0.0252236295491457,
          0.1377047747373581,
          0.008829743601381779,
          0.06477132439613342,
          -0.08871442079544067,
          0.2021843045949936,
          -0.037800539284944534,
          -0.23026247322559357,
          -0.08070453256368637,
          0.1531371772289276,
          -0.21517103910446167,
          -0.17960157990455627,
          -0.09302658587694168,
          -0.25837117433547974,
          -0.041443925350904465,
          -0.07385338842868805,
          -0.1094125360250473,
          0.03971685469150543,
          -0.05049895867705345,
          -0.04918576776981354,
          0.029422137886285782,
          -0.059033412486314774,
          -0.14667589962482452,
          0.11671793460845947,
          0.11883553862571716,
          -0.007588531821966171,
          -0.07755576819181442,
          -0.09450381249189377,
          0.11083853244781494,
          0.24347713589668274,
          0.09115925431251526,
          -0.02847295068204403,
          0.06536000967025757,
          0.09154173731803894,
          0.05309769883751869,
          0.13672606647014618,
          0.0884627103805542,
          0.0712667778134346,
          0.006995644886046648,
          -0.024342594668269157,
          0.019634563475847244,
          -0.04654693603515625,
          0.02428177185356617,
          0.014761107042431831,
          -0.06360020488500595,
          -0.060516320168972015,
          -0.024097668007016182
        ],
        [
          -0.10465926676988602,
          0.1340022087097168,
          0.03981323167681694,
          -0.09170782566070557,
          -0.03210277482867241,
          -0.4134767949581146,
          -0.1986507624387741,
          -0.08399755507707596,
          -0.19221417605876923,
          -0.4195600152015686,
          -0.08461166173219681,
          -0.13816730678081512,
          -0.15885664522647858,
          -0.3502565622329712,
          0.25259992480278015,
          0.42540493607521057,
          0.16737444698810577,
          -0.05203254893422127,
          0.024604206904768944,
          -0.12212440371513367,
          0.03976261988282204,
          0.05187024548649788,
          -0.04131963104009628,
          0.05315406247973442,
          0.08382385224103928,
          0.06798648834228516,
          -0.08292536437511444,
          0.003848918015137315,
          -0.04208923131227493,
          -0.06369347125291824,
          0.050929050892591476,
          0.240670844912529,
          0.05854690074920654,
          -0.11457984894514084,
          0.021365053951740265,
          -0.04453463479876518,
          -0.0004850595141761005,
          0.054711971431970596,
          0.014606484211981297,
          0.024064835160970688,
          0.012649163603782654,
          -0.000903561944141984,
          0.008574280887842178,
          0.09814665466547012,
          -0.03189869597554207,
          0.01011655293405056,
          0.19476822018623352,
          0.15003105998039246
        ],
        [
          -0.018270205706357956,
          0.08836960047483444,
          0.3036133348941803,
          0.22026847302913666,
          0.2131562978029251,
          -0.013466449454426765,
          0.04773680120706558,
          -0.10357438772916794,
          0.03697332367300987,
          0.2193557769060135,
          0.10228873789310455,
          -0.11347150057554245,
          -0.05086882784962654,
          -0.16064238548278809,
          0.03230360895395279,
          -0.15049320459365845,
          0.01793544366955757,
          -0.08994999527931213,
          0.031352028250694275,
          0.021821461617946625,
          -0.19072920083999634,
          0.08036606758832932,
          -0.07285743206739426,
          -0.0033421041443943977,
          0.047924138605594635,
          0.06302373856306076,
          -0.08644351363182068,
          -0.017627939581871033,
          0.021542752161622047,
          0.046735621988773346,
          -0.08000266551971436,
          -0.008201527409255505,
          -0.01609892025589943,
          -0.02566785179078579,
          -0.008439887315034866,
          -0.02811250649392605,
          -0.07403118163347244,
          0.0562392883002758,
          -0.016933150589466095,
          0.040728382766246796,
          -0.029558144509792328,
          -0.15773943066596985,
          0.04645489901304245,
          0.05174863710999489,
          0.24978812038898468,
          0.059660784900188446,
          0.11574212461709976,
          0.11701774597167969
        ],
        [
          -0.10849759727716446,
          0.09744442254304886,
          0.2553606331348419,
          -0.014669022522866726,
          0.052108872681856155,
          0.09555083513259888,
          0.27473506331443787,
          0.07656467705965042,
          0.2300487458705902,
          -0.06125118210911751,
          0.04191454499959946,
          0.42409244179725647,
          0.10250145941972733,
          -0.08225814998149872,
          0.12739397585391998,
          -0.13947910070419312,
          -0.014283663593232632,
          0.020511506125330925,
          -0.06625673919916153,
          0.03247571364045143,
          -0.1062915176153183,
          -0.03637146204710007,
          0.006159997079521418,
          -0.09024590998888016,
          0.022179706022143364,
          -0.026747388765215874,
          -0.059221334755420685,
          -0.009521269239485264,
          -0.042175717651844025,
          0.00828513689339161,
          -0.035802677273750305,
          -0.09898736327886581,
          0.030547186732292175,
          -0.06444084644317627,
          -0.05610978230834007,
          0.09718887507915497,
          -0.12414995580911636,
          0.07963089644908905,
          -0.13876567780971527,
          0.21845118701457977,
          0.03564950451254845,
          -0.019681518897414207,
          -0.0612466037273407,
          0.04008089378476143,
          -0.1564573049545288,
          -0.036093130707740784,
          -0.11307466775178909,
          -0.021788926795125008
        ],
        [
          -0.5139503479003906,
          -0.44380074739456177,
          -0.44226333498954773,
          -0.44222235679626465,
          0.3951650559902191,
          0.4910939931869507,
          0.6711519956588745,
          0.4250241816043854,
          -0.02552127279341221,
          0.7203162908554077,
          0.8549088835716248,
          0.24962906539440155,
          0.02108420990407467,
          0.8925531506538391,
          -0.3412291705608368,
          0.3325384259223938,
          -0.14058159291744232,
          0.00042978080455213785,
          -0.0976276844739914,
          0.010975323617458344,
          0.04431070014834404,
          0.12257283180952072,
          -0.061301056295633316,
          0.19702358543872833,
          0.37298932671546936,
          -0.11174549162387848,
          -0.4237050712108612,
          -0.10558482259511948,
          -0.10960990935564041,
          -0.10816287994384766,
          0.007928336039185524,
          0.03057776764035225,
          -0.04411069303750992,
          -0.053203463554382324,
          -0.025307660922408104,
          -0.01941547356545925,
          -0.07310070097446442,
          -0.03309023007750511,
          -0.12332963943481445,
          0.10934044420719147,
          0.07257071137428284,
          -0.11869599670171738,
          -0.33032241463661194,
          0.08338009566068649,
          0.03131284564733505,
          -0.023173866793513298,
          -0.03737454488873482,
          0.07028981298208237
        ],
        [
          0.0020878915674984455,
          0.047821227461099625,
          -0.2005307525396347,
          0.02397281490266323,
          -0.017740454524755478,
          -0.17031648755073547,
          -0.12482057511806488,
          0.006971308961510658,
          -0.10354430973529816,
          -0.36195871233940125,
          -0.22078768908977509,
          0.006014158483594656,
          -0.05709114670753479,
          -0.21107496321201324,
          0.03621580824255943,
          -0.17817969620227814,
          -0.1509179323911667,
          0.11967359483242035,
          0.10645629465579987,
          0.030191777274012566,
          -0.11980144679546356,
          -0.018042007461190224,
          -0.17908407747745514,
          -0.20703785121440887,
          -0.0026992829516530037,
          0.1347823143005371,
          0.0058526149950921535,
          -0.05237630009651184,
          0.17947673797607422,
          0.05986054614186287,
          -0.09568846970796585,
          0.16835367679595947,
          0.05169123783707619,
          -0.09461891651153564,
          -0.09053769707679749,
          0.15637677907943726,
          -0.07806945592164993,
          0.15695242583751678,
          -0.11685068160295486,
          0.023460866883397102,
          0.01972743682563305,
          -0.06873667240142822,
          0.08192230015993118,
          -0.03259993717074394,
          0.15622740983963013,
          -0.040160659700632095,
          -0.16442827880382538,
          -0.02263944409787655
        ],
        [
          0.26683712005615234,
          0.28672781586647034,
          0.3448720872402191,
          0.09238768368959427,
          -0.06257331371307373,
          0.004546839278191328,
          -0.09662800282239914,
          -0.019774235785007477,
          0.054580558091402054,
          -0.16072309017181396,
          -0.07634072005748749,
          0.010548263788223267,
          -0.0723036453127861,
          -0.2508154511451721,
          0.047610651701688766,
          -0.09409695863723755,
          0.14733247458934784,
          -0.009658589027822018,
          0.0519544743001461,
          -0.028166066855192184,
          -0.06598041206598282,
          -0.15287046134471893,
          -0.07303638756275177,
          -0.005787086673080921,
          -0.12049199640750885,
          0.13151001930236816,
          0.013807130977511406,
          -0.060275062918663025,
          -0.036421746015548706,
          0.12584301829338074,
          0.009901062585413456,
          0.2358809858560562,
          0.026356270536780357,
          -0.15532368421554565,
          0.03974061459302902,
          -0.10252668708562851,
          -0.04282921552658081,
          -0.04968812316656113,
          -0.09603185206651688,
          0.001388397067785263,
          -0.20284344255924225,
          0.23863302171230316,
          0.09166120737791061,
          -0.2062249779701233,
          -0.01659100316464901,
          0.2248900830745697,
          0.10212801396846771,
          0.12791547179222107
        ],
        [
          0.12994155287742615,
          0.21452774107456207,
          0.18056711554527283,
          0.22635118663311005,
          -0.04467228800058365,
          0.131791353225708,
          -0.036836471408605576,
          -0.05703157186508179,
          -0.01367388479411602,
          -0.05591269209980965,
          -0.12836143374443054,
          0.144105926156044,
          -0.1559358835220337,
          -0.25658515095710754,
          0.03349995240569115,
          -0.08598935604095459,
          0.00011244385677855462,
          -0.004127622582018375,
          -0.02468474581837654,
          0.13009461760520935,
          0.02266603708267212,
          -0.1417047083377838,
          -0.10747262090444565,
          0.012819748371839523,
          -0.047661881893873215,
          0.10975288599729538,
          0.047866176813840866,
          0.025728555396199226,
          0.23121441900730133,
          0.05630815401673317,
          0.08375000953674316,
          0.12153172492980957,
          0.012906054966151714,
          -0.12775057554244995,
          -0.16245462000370026,
          0.07835113257169724,
          0.01335308700799942,
          0.0760350450873375,
          -0.06362797319889069,
          -0.04507865011692047,
          0.03050411306321621,
          -0.09326717257499695,
          -0.012658343650400639,
          -0.09240042418241501,
          0.04641343280673027,
          -0.07575517892837524,
          0.1468675434589386,
          0.10162265598773956
        ],
        [
          0.14806412160396576,
          0.0007171945762820542,
          0.08986455202102661,
          0.16015923023223877,
          0.16636185348033905,
          -0.16203004121780396,
          -0.6269116997718811,
          -0.2686382234096527,
          -0.11184430122375488,
          0.017581529915332794,
          -0.5025029182434082,
          -0.5576422810554504,
          -0.03853816166520119,
          -0.031291812658309937,
          -0.492031455039978,
          -0.165147602558136,
          -0.02165198139846325,
          0.03514698147773743,
          -0.06289248168468475,
          -0.12643687427043915,
          0.052181635051965714,
          0.030292587354779243,
          0.04551643133163452,
          -0.01862066611647606,
          -0.026930425316095352,
          -0.022032322362065315,
          0.0983932614326477,
          0.10118211805820465,
          0.03780687600374222,
          0.12463604658842087,
          -0.05885991454124451,
          -0.07698298990726471,
          0.055365417152643204,
          -0.1129227951169014,
          -0.11032082140445709,
          -0.14721359312534332,
          0.019315946847200394,
          -0.04380154237151146,
          -0.029528843238949776,
          0.06556017696857452,
          -0.09218636155128479,
          -0.03840711712837219,
          0.08041225373744965,
          -0.02676433138549328,
          0.15608569979667664,
          0.1876315027475357,
          -0.022275473922491074,
          -0.13217581808567047
        ],
        [
          -0.01657295599579811,
          0.19514335691928864,
          0.06601320207118988,
          -0.09193414449691772,
          0.1861339509487152,
          0.171905517578125,
          0.22213567793369293,
          -0.13714678585529327,
          -0.1844160556793213,
          0.043517179787158966,
          0.06868061423301697,
          -0.26572713255882263,
          0.03237181156873703,
          -0.05258364602923393,
          0.17180058360099792,
          -0.2221658080816269,
          -0.020112305879592896,
          0.05249806493520737,
          -0.03870908170938492,
          0.082131527364254,
          0.12760820984840393,
          -0.13840225338935852,
          -0.014603420160710812,
          0.027430154383182526,
          -0.05751582607626915,
          0.09940561652183533,
          0.04029962792992592,
          -0.011437011882662773,
          -0.00599832134321332,
          -0.11659122258424759,
          -0.035053499042987823,
          0.04943326860666275,
          0.09939452260732651,
          0.12693028151988983,
          0.035699937492609024,
          -0.15483073890209198,
          0.023528987541794777,
          0.006073700729757547,
          0.02148633636534214,
          0.029750818386673927,
          0.01607375405728817,
          0.0080633033066988,
          0.0013266658643260598,
          -0.016668977215886116,
          0.07031882554292679,
          0.07042999565601349,
          0.095633365213871,
          -0.10641249269247055
        ],
        [
          -0.2893616259098053,
          -0.16527335345745087,
          -0.38900184631347656,
          -0.23462127149105072,
          -0.24592147767543793,
          -0.19028973579406738,
          -0.3618451952934265,
          0.24102212488651276,
          -0.34197747707366943,
          -0.0899309441447258,
          0.10841811448335648,
          -0.16616684198379517,
          -0.08476971089839935,
          -0.10679712146520615,
          -0.22914989292621613,
          0.08966252207756042,
          0.02497236803174019,
          0.006790073588490486,
          -0.08879312127828598,
          0.0229591466486454,
          0.05678148567676544,
          0.008267425931990147,
          0.03729035332798958,
          -0.08998259902000427,
          -0.006965689826756716,
          -0.05632048845291138,
          -0.14073225855827332,
          -0.009867715649306774,
          -0.061553314328193665,
          0.0386594794690609,
          0.054847486317157745,
          -0.0845932811498642,
          -0.03696444630622864,
          -0.003828060580417514,
          -0.07180194556713104,
          -0.003124738810583949,
          -0.010080043226480484,
          -0.00046215637121349573,
          -0.11487928777933121,
          0.059213344007730484,
          -0.055893708020448685,
          0.023449378088116646,
          -0.028819886967539787,
          0.04035016894340515,
          0.1335158795118332,
          0.07762375473976135,
          -0.023367375135421753,
          -0.06875020265579224
        ],
        [
          0.15429569780826569,
          0.19555775821208954,
          0.2477598339319229,
          0.33694931864738464,
          0.15435390174388885,
          0.09637122601270676,
          -0.32943645119667053,
          -0.3200717568397522,
          0.3055637776851654,
          -0.5060325264930725,
          -0.34146708250045776,
          0.05397521331906319,
          -0.1609944850206375,
          -0.39446431398391724,
          0.02744959481060505,
          -0.43675780296325684,
          0.10774659365415573,
          -0.03194332495331764,
          -0.10864982008934021,
          0.17959553003311157,
          0.0071532451547682285,
          -0.1746176779270172,
          0.01489210408180952,
          -0.10719563066959381,
          -0.01671193353831768,
          0.09147699922323227,
          0.05495578795671463,
          -0.0017900282982736826,
          0.2618711292743683,
          0.013217235915362835,
          -0.03708958998322487,
          0.162180557847023,
          0.10363690555095673,
          0.013730024918913841,
          -0.15685288608074188,
          0.023279357701539993,
          0.10717666149139404,
          0.110681913793087,
          -0.12480174750089645,
          -0.013778223656117916,
          -0.17369583249092102,
          -0.08366639912128448,
          -0.038640525192022324,
          -0.0653534084558487,
          0.12280502170324326,
          -0.07671082019805908,
          0.05194978043437004,
          0.12386742234230042
        ],
        [
          -0.06668698042631149,
          -0.32152238488197327,
          -0.27122336626052856,
          -0.048444222658872604,
          -0.33295559883117676,
          -0.02224651724100113,
          -0.07020799815654755,
          0.03742557764053345,
          0.0021524971816688776,
          0.08134487271308899,
          0.13375510275363922,
          0.04667146876454353,
          0.03291543200612068,
          0.13180477917194366,
          -0.2065131813287735,
          0.20255017280578613,
          -0.0872064083814621,
          0.01657729595899582,
          -0.006846137810498476,
          0.0448700413107872,
          0.09266475588083267,
          -0.042690496891736984,
          0.002906639128923416,
          -0.013063233345746994,
          0.05537191405892372,
          0.012197596952319145,
          0.0619887039065361,
          -0.08731240034103394,
          -0.014141512103378773,
          -0.023865049704909325,
          -0.11473685503005981,
          -0.0020812915172427893,
          0.0737459659576416,
          -0.04968668892979622,
          -0.031330373138189316,
          0.0367908738553524,
          -0.016107963398098946,
          -0.08317849785089493,
          -0.006702805869281292,
          -0.10024554282426834,
          -0.018332714214920998,
          -0.01516881212592125,
          0.032391440123319626,
          0.19788524508476257,
          -0.028630491346120834,
          0.049569908529520035,
          0.09007035195827484,
          0.011531524360179901
        ],
        [
          0.1809123307466507,
          -0.042757175862789154,
          0.1022757738828659,
          0.056039948016405106,
          0.06435948610305786,
          -0.049074362963438034,
          -0.13002896308898926,
          0.01509475614875555,
          0.142371267080307,
          -0.14916257560253143,
          -0.1041593924164772,
          -0.14360018074512482,
          0.01766158454120159,
          -0.23512528836727142,
          -0.06344437599182129,
          -0.06252776831388474,
          -0.05292980745434761,
          0.07240114361047745,
          -0.025176161900162697,
          0.04263129085302353,
          0.003791970433667302,
          -0.015074384398758411,
          -0.005598046351224184,
          -0.06882144510746002,
          0.14731787145137787,
          0.0950220599770546,
          -0.08338844776153564,
          0.04836137965321541,
          -0.06128863990306854,
          0.10466495156288147,
          -0.14754463732242584,
          0.03760404512286186,
          -0.004799239803105593,
          -0.030216824263334274,
          -0.058302752673625946,
          0.08886177837848663,
          0.048703860491514206,
          0.10675305128097534,
          -0.07690555602312088,
          -0.1572079062461853,
          -0.16872885823249817,
          0.06308772414922714,
          -0.03313279151916504,
          0.043241217732429504,
          -0.10360614210367203,
          0.06461238116025925,
          0.037138164043426514,
          0.11545123159885406
        ],
        [
          -0.09168178588151932,
          -0.10947640985250473,
          -0.25198617577552795,
          0.02881811000406742,
          0.06624917685985565,
          -0.1387777477502823,
          -0.2227797955274582,
          -0.07897692173719406,
          -0.1271020472049713,
          0.3840484917163849,
          -0.18285498023033142,
          -0.34589362144470215,
          0.07568991929292679,
          0.13028176128864288,
          -0.17758794128894806,
          -0.010298339650034904,
          0.09679153561592102,
          -0.038008686155080795,
          0.08941242098808289,
          -0.16780972480773926,
          -0.02281045727431774,
          0.06159546971321106,
          -0.028793076053261757,
          -0.05422676354646683,
          0.029726851731538773,
          -0.03126602992415428,
          0.023681549355387688,
          0.045550379902124405,
          0.002868852810934186,
          0.023025069385766983,
          0.005472094751894474,
          -0.03568359091877937,
          0.0730658695101738,
          -0.00429185014218092,
          0.05870305001735687,
          -0.1684475839138031,
          0.05060620978474617,
          -0.057590287178754807,
          -0.05754735320806503,
          -0.004884921479970217,
          0.21228854358196259,
          0.006376113276928663,
          -0.06904058903455734,
          0.06736244261264801,
          0.09027465432882309,
          -0.037928417325019836,
          -0.027790693566203117,
          -0.11232610046863556
        ],
        [
          -0.44969668984413147,
          -0.2278897911310196,
          -0.28185468912124634,
          -0.18184496462345123,
          0.02882341295480728,
          -0.00895986333489418,
          0.3149353861808777,
          -0.147291898727417,
          -0.025450043380260468,
          -0.18330837786197662,
          -0.07764140516519547,
          -0.028431136161088943,
          -0.08178187906742096,
          -0.07712695747613907,
          -0.15483208000659943,
          -0.04408647119998932,
          0.012242312543094158,
          -0.0428258553147316,
          0.044964514672756195,
          -0.0425754152238369,
          -0.04098905995488167,
          0.08943317830562592,
          0.015545920468866825,
          -0.07688859850168228,
          -0.003182818181812763,
          -0.019403528422117233,
          -0.008579752407968044,
          -0.004415092524141073,
          -0.004202681127935648,
          0.13095654547214508,
          0.03328375890851021,
          -0.0018434937810525298,
          0.04260680451989174,
          0.0022235203068703413,
          -0.1502905935049057,
          0.032151367515325546,
          -0.04455454647541046,
          0.20812959969043732,
          -0.058579761534929276,
          0.14165613055229187,
          0.0016100328648462892,
          0.07342901825904846,
          -0.0621979795396328,
          -0.004374442622065544,
          0.03811782971024513,
          -0.046865809708833694,
          0.0017296280711889267,
          0.03042779304087162
        ],
        [
          0.13944250345230103,
          -0.06118735671043396,
          0.13727864623069763,
          0.16074369847774506,
          0.26684558391571045,
          -0.04713638499379158,
          -0.001834407332353294,
          0.21776923537254333,
          0.013707691803574562,
          0.06571837514638901,
          -0.06196281313896179,
          -0.10463103652000427,
          -0.25903400778770447,
          0.01515757292509079,
          -0.4172995984554291,
          -0.05873578414320946,
          0.035836827009916306,
          -0.06002066656947136,
          -0.12252002954483032,
          -0.24132710695266724,
          -0.24378281831741333,
          -0.18106995522975922,
          -0.3125162422657013,
          -0.003761939238756895,
          -0.10223964601755142,
          0.15086966753005981,
          0.14774371683597565,
          -0.2201668918132782,
          0.28690242767333984,
          0.08301736414432526,
          0.12580899894237518,
          0.034908320754766464,
          -0.08543524146080017,
          -0.003195785218849778,
          -0.06573019176721573,
          0.03325316682457924,
          -0.11421480774879456,
          0.10377930104732513,
          -0.07113344967365265,
          0.12616756558418274,
          -0.035364218056201935,
          0.138699010014534,
          -0.19601866602897644,
          -0.26211246848106384,
          0.01782374642789364,
          0.15429656207561493,
          0.06182122230529785,
          0.12438959628343582
        ],
        [
          0.06705564260482788,
          0.020514706149697304,
          -0.09397943317890167,
          -0.035876981914043427,
          0.01488338690251112,
          0.13970506191253662,
          -0.03298152983188629,
          -0.07145227491855621,
          -0.05415860190987587,
          0.2403179556131363,
          0.1620808094739914,
          -0.06760424375534058,
          0.03603392466902733,
          0.04460091516375542,
          -0.04344867542386055,
          0.11039886623620987,
          -0.11830953508615494,
          0.0007343966863118112,
          0.13870686292648315,
          -0.006497616413980722,
          0.11925628036260605,
          0.12723994255065918,
          0.0073989746160805225,
          0.01853686198592186,
          0.15908004343509674,
          -0.026406941935420036,
          -0.1620420515537262,
          0.0762852355837822,
          0.012909452430903912,
          0.020263543352484703,
          0.029291892424225807,
          -0.028093572705984116,
          0.015571599826216698,
          0.011160883121192455,
          0.052624739706516266,
          -0.02159876376390457,
          0.01651180349290371,
          0.048632893711328506,
          -0.033078353852033615,
          0.04697294905781746,
          0.09581352025270462,
          0.02459407038986683,
          0.06844306737184525,
          -0.044824227690696716,
          0.23690979182720184,
          -0.05277051776647568,
          0.05086507648229599,
          -0.01886706054210663
        ],
        [
          -0.1294204592704773,
          -0.16103048622608185,
          -0.009398472495377064,
          -0.24683798849582672,
          -0.06662269681692123,
          -0.17565298080444336,
          0.15339086949825287,
          0.30550599098205566,
          -0.08979776501655579,
          0.07206344604492188,
          0.08385234326124191,
          0.1905469447374344,
          0.07014428079128265,
          0.18100741505622864,
          -0.10498912632465363,
          0.3952435553073883,
          -0.04212309047579765,
          -0.14616194367408752,
          0.014294921420514584,
          -0.006651473697274923,
          0.03629168123006821,
          -0.06687445193529129,
          -0.02446640655398369,
          0.060859765857458115,
          -0.04724094644188881,
          -0.04277804493904114,
          -0.13842648267745972,
          -0.0780169814825058,
          -0.004359804093837738,
          -0.10162509232759476,
          -0.01755351759493351,
          -0.03168005123734474,
          -0.15841270983219147,
          -0.011565611697733402,
          0.06711685657501221,
          0.15450693666934967,
          0.0364999920129776,
          -0.1423550248146057,
          0.13709910213947296,
          0.055294834077358246,
          0.0018575278809294105,
          0.1572335660457611,
          0.009714757092297077,
          0.09516459703445435,
          -0.14792561531066895,
          -0.0018305949633941054,
          -0.1195935532450676,
          0.03333350643515587
        ],
        [
          -0.14122481644153595,
          0.07963477820158005,
          0.16836081445217133,
          0.10162293910980225,
          -0.13966460525989532,
          -0.0156859140843153,
          0.28360530734062195,
          0.21025006473064423,
          -0.2696492373943329,
          0.11349198967218399,
          -0.0054032448679208755,
          0.15442459285259247,
          0.09210053831338882,
          -0.17127452790737152,
          -0.04170053079724312,
          0.09775586426258087,
          -0.1000405102968216,
          0.05236218124628067,
          0.0334133617579937,
          0.21955138444900513,
          -0.18503661453723907,
          0.13619361817836761,
          -0.08126852661371231,
          -0.04366564378142357,
          0.01863870769739151,
          -0.06748253107070923,
          -0.29002541303634644,
          -0.06219414994120598,
          -0.18273456394672394,
          0.04125693812966347,
          -0.1544138342142105,
          0.04971712827682495,
          0.08765769749879837,
          0.007559205871075392,
          -0.004689470399171114,
          -0.002252748468890786,
          0.07368545979261398,
          0.11501113325357437,
          -0.06312275677919388,
          -0.055728767067193985,
          -0.17692989110946655,
          -0.06252242624759674,
          0.06828653067350388,
          -0.05456899106502533,
          0.23916220664978027,
          -0.03454812988638878,
          0.2056008279323578,
          0.034801747649908066
        ],
        [
          0.06631047278642654,
          -0.09755239635705948,
          -0.026145655661821365,
          -0.12158811837434769,
          0.10964155197143555,
          0.17301122844219208,
          0.23771756887435913,
          0.02279159240424633,
          -0.12474922090768814,
          0.2235051989555359,
          0.3075711727142334,
          0.16357243061065674,
          0.11258270591497421,
          0.10495074093341827,
          -0.2630426287651062,
          0.0671432688832283,
          -0.02256304770708084,
          0.05735765025019646,
          -0.01535980124026537,
          -0.06354350596666336,
          0.15488982200622559,
          -0.005216675810515881,
          -0.1322546899318695,
          -0.0017032920150086284,
          0.12545394897460938,
          -0.06249173358082771,
          -0.03856145590543747,
          -0.08567479252815247,
          -0.004000245593488216,
          -0.013697759248316288,
          0.13450987637043,
          -0.014537850394845009,
          -0.11525580286979675,
          0.1040814220905304,
          -0.011941333301365376,
          0.06615345925092697,
          -0.02009032666683197,
          -0.06144881248474121,
          0.006933548022061586,
          0.052322182804346085,
          0.02637752890586853,
          0.0013708265032619238,
          0.003519155317917466,
          0.03416178748011589,
          0.14208227396011353,
          -0.012734154239296913,
          0.06410872936248779,
          -0.1457623690366745
        ],
        [
          -0.21499550342559814,
          -0.14541839063167572,
          -0.2639651894569397,
          -0.20621368288993835,
          -0.3433268070220947,
          -0.09021015465259552,
          -0.04974925518035889,
          0.17190667986869812,
          -0.2420220524072647,
          -0.33729246258735657,
          -0.08451957255601883,
          0.04648334160447121,
          0.020412925630807877,
          -0.07974882423877716,
          -0.2731758952140808,
          0.01086485106498003,
          -0.12383810430765152,
          0.040377285331487656,
          -0.0449552983045578,
          0.04701603576540947,
          -0.010490300133824348,
          0.02040121518075466,
          0.0368773378431797,
          0.10315203666687012,
          -0.043661512434482574,
          -0.02603159099817276,
          -0.018309414386749268,
          -0.031220026314258575,
          -0.056883420795202255,
          -0.009883395396173,
          0.05247003585100174,
          0.04708179458975792,
          -0.05300852656364441,
          -0.010389056988060474,
          -0.023409655317664146,
          0.040884941816329956,
          0.06107274070382118,
          0.12831197679042816,
          0.07780876010656357,
          0.03838737681508064,
          0.0048227738589048386,
          0.030110705643892288,
          -0.0346517488360405,
          -0.1696181446313858,
          0.16403555870056152,
          0.03109300322830677,
          -0.10209358483552933,
          -0.15256117284297943
        ],
        [
          -0.40013521909713745,
          -0.4687906503677368,
          -0.5258577466011047,
          -0.5155720710754395,
          0.06760234385728836,
          0.1938808113336563,
          -0.06979601085186005,
          0.5500470995903015,
          -0.09547358006238937,
          0.5657769441604614,
          0.7542272210121155,
          -0.05355004593729973,
          -0.16946928203105927,
          0.4544050693511963,
          -0.4548783600330353,
          0.22003969550132751,
          -0.011110812425613403,
          -0.02533917874097824,
          0.08435588330030441,
          -0.1029474064707756,
          0.04469330608844757,
          -0.1809094399213791,
          0.13764652609825134,
          -0.14132358133792877,
          -0.2562560439109802,
          0.17853207886219025,
          0.019858697429299355,
          0.08809680491685867,
          0.16529196500778198,
          -0.14330342411994934,
          0.04500364512205124,
          0.058037590235471725,
          0.032079990953207016,
          0.017523296177387238,
          -0.06249828264117241,
          -0.10920891165733337,
          0.00875296350568533,
          -0.28298652172088623,
          -0.08386566489934921,
          0.0023949879687279463,
          -0.36446988582611084,
          0.001926081720739603,
          0.10897395014762878,
          0.07342668622732162,
          0.45608365535736084,
          -0.1420448273420334,
          0.12135317176580429,
          -0.07575859874486923
        ],
        [
          -0.2687623202800751,
          -0.3611510097980499,
          -0.275688111782074,
          -0.3831976652145386,
          -0.051771968603134155,
          -0.0883093923330307,
          -0.1637062430381775,
          0.021440135315060616,
          -0.12999285757541656,
          0.24402174353599548,
          0.06982909888029099,
          -0.03548590466380119,
          -0.258797824382782,
          0.08681023120880127,
          -0.1528325080871582,
          -0.0011259096208959818,
          0.014353342354297638,
          0.06991522014141083,
          0.01686670444905758,
          -0.08485754579305649,
          -0.11540506035089493,
          0.08316054940223694,
          -0.02119387686252594,
          -0.029976030811667442,
          0.09224473685026169,
          0.03503599017858505,
          -0.06489565223455429,
          -0.012602767907083035,
          -0.09592431038618088,
          -0.01529695838689804,
          -0.0425521545112133,
          0.08406619727611542,
          0.12581108510494232,
          -0.09583970904350281,
          -0.059505246579647064,
          -0.0076020569540560246,
          -0.08476626873016357,
          0.07199232280254364,
          0.0004685275489464402,
          -0.06233200430870056,
          0.056322887539863586,
          0.037891753017902374,
          -0.11878494173288345,
          0.06336485594511032,
          0.04817427694797516,
          -0.05388926714658737,
          -0.02503998577594757,
          -0.030734475702047348
        ],
        [
          0.3532196879386902,
          0.49076858162879944,
          0.5148444771766663,
          0.4161093831062317,
          0.03684843331575394,
          -0.17460934817790985,
          -0.5854597687721252,
          -0.20834897458553314,
          -0.03318008780479431,
          -0.49167338013648987,
          -0.43164536356925964,
          0.19012682139873505,
          -0.3405677378177643,
          -0.523280918598175,
          0.2923393249511719,
          -0.10277552157640457,
          -0.07466648519039154,
          0.08508379012346268,
          -0.02627476118505001,
          0.08156183362007141,
          -0.006644677370786667,
          -0.1626899540424347,
          -0.04519020766019821,
          -0.08189073950052261,
          -0.06472159177064896,
          0.1167570948600769,
          -0.13633769750595093,
          -0.24189066886901855,
          -0.012749960646033287,
          0.11440395563840866,
          -0.15400482714176178,
          0.15375269949436188,
          0.050296686589717865,
          -0.09816832840442657,
          -0.08923960477113724,
          -0.030035510659217834,
          -0.01304707583039999,
          0.09800437092781067,
          -0.1976093202829361,
          -0.09319430589675903,
          0.04457562416791916,
          -0.0019244228024035692,
          -0.06931967288255692,
          -0.00731801288202405,
          0.0006253405590541661,
          0.02727474272251129,
          0.07222229242324829,
          -0.004659750033169985
        ],
        [
          -0.20609574019908905,
          -0.1622522622346878,
          -0.1867656409740448,
          -0.3404676914215088,
          -0.05569262057542801,
          -0.01800355687737465,
          0.08066575229167938,
          0.3117453455924988,
          -0.08641563355922699,
          0.28043556213378906,
          0.26638883352279663,
          0.3344697654247284,
          0.22554819285869598,
          0.1898205429315567,
          -0.028898935765028,
          0.14118479192256927,
          0.07373255491256714,
          -0.01226071547716856,
          -0.045873429626226425,
          0.04784900322556496,
          -0.04500608518719673,
          0.004268968477845192,
          -0.08214686065912247,
          0.04245051369071007,
          -0.07189437001943588,
          -0.014229902997612953,
          -0.040563106536865234,
          -0.0037931303959339857,
          -0.02423756755888462,
          -0.1324581354856491,
          -0.008446636609733105,
          -0.0693235918879509,
          0.10114341974258423,
          -0.15197989344596863,
          0.05334615707397461,
          -0.061771538108587265,
          -0.0478048212826252,
          -0.03705783933401108,
          -0.09364833682775497,
          -0.11779571324586868,
          -0.044804882258176804,
          -0.028012195602059364,
          -0.02514844387769699,
          0.04218462482094765,
          0.0022149744909256697,
          -0.04382845386862755,
          -0.09586704522371292,
          -0.07253575325012207
        ],
        [
          -0.15126076340675354,
          -0.034862205386161804,
          -0.016706015914678574,
          -0.05065900459885597,
          0.009058736264705658,
          -0.2863258719444275,
          -0.24274031817913055,
          -0.13832348585128784,
          -0.061155933886766434,
          -0.16263581812381744,
          0.07480041682720184,
          -0.01063453871756792,
          0.05452684685587883,
          0.046797014772892,
          0.2659160792827606,
          0.10758331418037415,
          -0.06337478756904602,
          0.0016183736734092236,
          -0.09609448909759521,
          0.10040654987096786,
          0.09141696244478226,
          0.01977994479238987,
          0.018101278692483902,
          0.08426494151353836,
          -0.0012540934840217233,
          -0.07291299104690552,
          -0.009502765722572803,
          0.03251814469695091,
          0.035915009677410126,
          -0.08511263132095337,
          0.06611938029527664,
          -0.014351863414049149,
          0.12410587072372437,
          0.0006621888605877757,
          0.027301251888275146,
          -0.0786142647266388,
          -0.011606486514210701,
          -0.008227073587477207,
          0.03299662470817566,
          0.052538808435201645,
          -0.09553483873605728,
          0.0815979465842247,
          -0.0690033957362175,
          -0.01823585480451584,
          0.0451011061668396,
          -0.040246035903692245,
          -0.0416533537209034,
          -0.04481908306479454
        ],
        [
          -0.150314062833786,
          -0.16409672796726227,
          -0.1130550354719162,
          -0.2697084844112396,
          -0.31220024824142456,
          0.06612242758274078,
          0.00046003377065062523,
          0.31270188093185425,
          -0.007506257854402065,
          -0.14769072830677032,
          -0.17728710174560547,
          0.016358578577637672,
          0.03921126201748848,
          -0.030341345816850662,
          -0.04105590656399727,
          0.22248874604701996,
          0.11601842939853668,
          -0.0006046656053513288,
          -0.07019457221031189,
          -0.019494742155075073,
          0.05407062545418739,
          0.04032290354371071,
          -0.04568086192011833,
          0.05517955496907234,
          0.13439787924289703,
          -0.03193587437272072,
          -0.08621880412101746,
          -0.08226411044597626,
          -0.01111904252320528,
          -0.05470883101224899,
          -0.21870733797550201,
          -0.22920480370521545,
          -0.07732552289962769,
          0.17118282616138458,
          -0.0017263367772102356,
          0.11290204524993896,
          -0.15542855858802795,
          0.036822523921728134,
          0.060888539999723434,
          0.005613855551928282,
          -0.14487065374851227,
          0.19169923663139343,
          -0.05716364085674286,
          0.15487875044345856,
          0.28064119815826416,
          0.08997182548046112,
          0.29404813051223755,
          0.28104349970817566
        ],
        [
          -0.3976942300796509,
          -0.45994314551353455,
          -0.7000364065170288,
          -0.6298382878303528,
          0.027996374294161797,
          -0.18762843310832977,
          0.09054764360189438,
          0.16627976298332214,
          -0.2369893491268158,
          -0.21212244033813477,
          -0.02847435511648655,
          0.3573131263256073,
          0.20385172963142395,
          0.04271343722939491,
          0.04711780697107315,
          0.39288926124572754,
          -0.04644766449928284,
          0.06792718917131424,
          -0.06780815869569778,
          -0.03555429354310036,
          -0.0976296067237854,
          0.16031379997730255,
          0.07694479823112488,
          0.04028469696640968,
          0.0371561273932457,
          -0.03515693545341492,
          -0.009389400482177734,
          0.06039385497570038,
          0.09473312646150589,
          0.01971510611474514,
          0.014105328358709812,
          -0.12842047214508057,
          0.07420426607131958,
          0.04093555733561516,
          0.003945541102439165,
          -0.0038161962293088436,
          0.06125647574663162,
          -0.011041113175451756,
          0.1337718665599823,
          -0.14390194416046143,
          0.005016040522605181,
          -0.07933222502470016,
          0.06517978012561798,
          -0.001080167479813099,
          -0.022118208929896355,
          -0.10499853640794754,
          -0.013005569577217102,
          -0.05874364823102951
        ],
        [
          0.35932567715644836,
          0.005272899754345417,
          0.1390560120344162,
          0.34059202671051025,
          -0.02660844475030899,
          -0.4118293821811676,
          -0.26644471287727356,
          -0.3114377558231354,
          -0.1660633087158203,
          -0.048848267644643784,
          -0.23499862849712372,
          -0.0012713560136035085,
          -0.03527911379933357,
          -0.39198529720306396,
          -0.1081017404794693,
          -0.10891512036323547,
          0.07218138128519058,
          0.0018001743592321873,
          0.03334437310695648,
          -0.09161902964115143,
          0.01866035908460617,
          -0.12105649709701538,
          -0.052426062524318695,
          -0.037420596927404404,
          0.10217998921871185,
          -0.07377493381500244,
          0.009365488775074482,
          0.060580845922231674,
          -0.057544559240341187,
          0.10053109377622604,
          0.035105448216199875,
          -0.06472636014223099,
          -0.10391505807638168,
          0.06247139722108841,
          -0.13993488252162933,
          0.14501133561134338,
          0.08244680613279343,
          -0.020539861172437668,
          -0.006760783959180117,
          -0.05592680722475052,
          0.07545367628335953,
          -0.11619780212640762,
          0.021498333662748337,
          -0.028505994006991386,
          0.18830691277980804,
          0.05756160616874695,
          -0.014718711376190186,
          0.1665419191122055
        ],
        [
          -0.06476792693138123,
          -0.1043386235833168,
          -0.2135152667760849,
          -0.18591052293777466,
          -0.028807220980525017,
          -0.1486719399690628,
          0.18908855319023132,
          0.014195659197866917,
          -0.11060886085033417,
          -0.0071767522022128105,
          0.2504695951938629,
          0.06656429171562195,
          0.2584134042263031,
          -0.09928533434867859,
          -0.06279107183218002,
          0.14279116690158844,
          0.029348211362957954,
          -0.14567790925502777,
          -0.021686121821403503,
          0.06874320656061172,
          0.027569491416215897,
          0.11654294282197952,
          -0.07209418714046478,
          0.0016241242410615087,
          0.016472188755869865,
          0.012727627530694008,
          -0.04257765784859657,
          0.07093825936317444,
          -0.027102520689368248,
          0.030280211940407753,
          0.016057239845395088,
          0.012640763074159622,
          -0.04159243777394295,
          0.12167759239673615,
          0.052682582288980484,
          -0.07297055423259735,
          -0.04528775438666344,
          -0.07445333153009415,
          0.04157772287726402,
          0.0813513770699501,
          -0.02784198522567749,
          0.11100369691848755,
          -0.0017648752545937896,
          -0.008730422705411911,
          -0.08793545514345169,
          0.054475728422403336,
          0.02805204503238201,
          0.02344556711614132
        ],
        [
          -0.35970810055732727,
          -0.38464412093162537,
          -0.4612545073032379,
          -0.5068195462226868,
          0.0421936959028244,
          -0.2743346095085144,
          0.04273027181625366,
          -0.04655122756958008,
          -0.12241147458553314,
          -0.18019187450408936,
          -0.0052452171221375465,
          -0.18319182097911835,
          0.19515495002269745,
          -0.13562099635601044,
          -0.018375279381871223,
          0.18886743485927582,
          -0.1498952955007553,
          -0.17956843972206116,
          0.06133453547954559,
          0.05267186835408211,
          -0.03147329390048981,
          0.11802969127893448,
          -0.020699268206954002,
          0.13225428760051727,
          0.0771569237112999,
          0.057832974940538406,
          -0.030766325071454048,
          0.009182539768517017,
          0.032346583902835846,
          0.013013974763453007,
          0.05162622034549713,
          0.07530700415372849,
          0.031033195555210114,
          -0.043883610516786575,
          0.03631765395402908,
          -0.04579528048634529,
          0.05713234841823578,
          0.06304308772087097,
          0.009971057064831257,
          0.05456952378153801,
          0.11323094367980957,
          -0.08560817688703537,
          -0.006592927034944296,
          0.04423488676548004,
          0.03151831775903702,
          -0.042416952550411224,
          -0.04191550984978676,
          -0.10247363150119781
        ],
        [
          -0.17952749133110046,
          -0.47957733273506165,
          -0.4368169903755188,
          -0.4663322865962982,
          0.012336174957454205,
          -0.33864274621009827,
          -0.021656222641468048,
          0.20385615527629852,
          -0.054160553961992264,
          0.028121981769800186,
          0.13503757119178772,
          0.21924743056297302,
          0.1578870713710785,
          0.05267173424363136,
          -0.012814683839678764,
          -0.029383817687630653,
          -0.03867450729012489,
          0.10332091897726059,
          -0.046520914882421494,
          -0.052140504121780396,
          0.03496159613132477,
          0.03259895369410515,
          0.14948536455631256,
          -0.10405664145946503,
          0.06205783784389496,
          -0.12217285484075546,
          0.0001367827644571662,
          -0.1436716616153717,
          0.07497897744178772,
          0.058974429965019226,
          -0.07139647752046585,
          -0.026360996067523956,
          -0.03872982785105705,
          0.06771432608366013,
          -0.04005444794893265,
          0.06437136232852936,
          0.03258451074361801,
          0.04276172071695328,
          0.019559625536203384,
          -0.165298730134964,
          0.01677744649350643,
          -0.09640081971883774,
          0.060749925673007965,
          0.04644046723842621,
          0.009831658564507961,
          -0.04229971393942833,
          -0.0247441828250885,
          -0.053408410400152206
        ],
        [
          0.25152692198753357,
          0.27481454610824585,
          0.0759294256567955,
          0.19223511219024658,
          0.3516125977039337,
          0.3036126494407654,
          0.11799226701259613,
          -0.04706527292728424,
          0.04304086044430733,
          0.07858924567699432,
          0.10776422917842865,
          0.2813149392604828,
          0.00041196748497895896,
          -0.04379165172576904,
          0.24323594570159912,
          0.1409960240125656,
          -0.12933588027954102,
          -0.0008807794074527919,
          0.06580787152051926,
          0.022100156173110008,
          0.010336722247302532,
          0.021234815940260887,
          0.09475090354681015,
          0.03881106898188591,
          0.1797676980495453,
          0.028906460851430893,
          -0.22713647782802582,
          -0.21289373934268951,
          0.24506156146526337,
          0.12391333281993866,
          0.036953188478946686,
          0.3892023265361786,
          0.024958183988928795,
          0.019141336902976036,
          0.043790195137262344,
          -0.06751862913370132,
          -0.17309799790382385,
          0.13553515076637268,
          -0.0048909056931734085,
          0.23102375864982605,
          -0.03875219076871872,
          0.07696020603179932,
          -0.04936720430850983,
          -0.17868201434612274,
          -0.0932512953877449,
          0.2137664258480072,
          -0.10277406871318817,
          0.1339448243379593
        ],
        [
          0.5054506063461304,
          0.40655088424682617,
          0.28511524200439453,
          0.3040187954902649,
          0.4060588777065277,
          0.2200714349746704,
          -0.0997098758816719,
          -0.20718048512935638,
          0.18101908266544342,
          -0.09938031435012817,
          -0.1759701818227768,
          -0.12164666503667831,
          -0.05634476616978645,
          -0.1754290908575058,
          -0.04497448727488518,
          -0.3698021173477173,
          0.049250856041908264,
          0.026783429086208344,
          0.06799984723329544,
          -0.07936696708202362,
          -0.07945830374956131,
          -0.279956579208374,
          -0.16670846939086914,
          0.03647603839635849,
          0.19705253839492798,
          0.04793982207775116,
          -0.0628977119922638,
          -0.18430469930171967,
          -0.1012803316116333,
          0.017024215310811996,
          -0.21268759667873383,
          -0.0045366305857896805,
          -0.03757787495851517,
          -0.037404004484415054,
          -0.035348448902368546,
          0.12634722888469696,
          0.15371635556221008,
          0.019074028357863426,
          -0.13829141855239868,
          0.11347292363643646,
          -0.015797888860106468,
          -0.10902640223503113,
          -0.2544422745704651,
          -0.052180320024490356,
          -0.011593645438551903,
          -0.08432284742593765,
          -0.15187740325927734,
          0.19444288313388824
        ],
        [
          -0.3485926687717438,
          -0.2733393609523773,
          -0.2349543571472168,
          -0.4247840642929077,
          0.017390942201018333,
          -0.24725280702114105,
          -0.07565406709909439,
          -0.3100876212120056,
          -0.12121138721704483,
          -0.11141429096460342,
          -0.27869343757629395,
          -0.17360247671604156,
          -0.023445196449756622,
          -0.021930303424596786,
          -0.09680666774511337,
          0.14504221081733704,
          -0.099103644490242,
          0.04812917113304138,
          -0.06959986686706543,
          0.011145154014229774,
          -0.02145104482769966,
          -0.029190048575401306,
          -0.030066411942243576,
          0.05446493253111839,
          0.06121399998664856,
          0.013606276363134384,
          -0.039616506546735764,
          0.008542738854885101,
          0.0503820963203907,
          0.14323115348815918,
          0.022876717150211334,
          0.018633095547556877,
          0.05555083975195885,
          -0.0023888866417109966,
          -0.06249348819255829,
          -0.05991324037313461,
          0.10033654421567917,
          0.044181108474731445,
          0.13069511950016022,
          -0.07520196586847305,
          0.12568338215351105,
          -0.055244769901037216,
          -0.004907864611595869,
          -0.11161066591739655,
          0.08829488605260849,
          0.03644150495529175,
          0.03833738714456558,
          0.029216710478067398
        ],
        [
          0.09831678867340088,
          -0.2608407437801361,
          -0.150060772895813,
          0.016601379960775375,
          0.2269819974899292,
          0.14781267940998077,
          -0.24004264175891876,
          0.009445469826459885,
          -0.09595449268817902,
          0.2763271629810333,
          -0.08354707062244415,
          -0.33311188220977783,
          0.012725126929581165,
          0.33434993028640747,
          -0.19227033853530884,
          -0.06582102924585342,
          0.008548274636268616,
          -0.044996198266744614,
          0.058348335325717926,
          -0.200490802526474,
          0.03300881013274193,
          -0.13782237470149994,
          -0.0369076244533062,
          0.09980153292417526,
          -0.025537827983498573,
          -0.03852355107665062,
          0.09178326278924942,
          0.16481995582580566,
          0.04308532550930977,
          -0.04168930649757385,
          0.11914199590682983,
          -0.06619884073734283,
          0.07084140181541443,
          -0.07159678637981415,
          0.0449746809899807,
          -0.17995861172676086,
          -0.09789100289344788,
          -0.14286234974861145,
          -0.00970982015132904,
          0.032098617404699326,
          0.0983845591545105,
          0.055831536650657654,
          0.19109907746315002,
          -0.11007067561149597,
          0.0925169587135315,
          0.20214581489562988,
          0.17123983800411224,
          -0.055662695318460464
        ],
        [
          0.020120874047279358,
          0.0642804354429245,
          -0.06846455484628677,
          -0.060769472271203995,
          -0.04791148379445076,
          -0.014574036933481693,
          0.042404912412166595,
          0.16161446273326874,
          -0.1352875679731369,
          0.21638312935829163,
          0.13972724974155426,
          0.08718215674161911,
          -0.18365581333637238,
          -0.12665902078151703,
          -0.055056095123291016,
          -0.04600143805146217,
          0.0494353212416172,
          -0.05374426767230034,
          -0.08168814331293106,
          0.0875696986913681,
          -0.15216782689094543,
          0.007577146869152784,
          -0.06616992503404617,
          -0.027698451653122902,
          0.08444472402334213,
          -0.036266542971134186,
          -0.2353280782699585,
          -0.06729104369878769,
          -0.1820080727338791,
          -0.03547364100813866,
          0.00712156668305397,
          0.03885519132018089,
          0.059303466230630875,
          -0.11944475024938583,
          -0.09089795500040054,
          -0.12590907514095306,
          0.06497441977262497,
          0.06428860872983932,
          -0.08050205558538437,
          -0.021427778527140617,
          -0.038537900894880295,
          0.03143893927335739,
          0.09627431631088257,
          -0.02315434068441391,
          0.05745047703385353,
          -0.010376818478107452,
          0.18146014213562012,
          -0.07356637716293335
        ],
        [
          0.297893762588501,
          -0.254646897315979,
          -0.15713398158550262,
          0.25018036365509033,
          0.002744177356362343,
          -0.17145869135856628,
          -0.4727066457271576,
          -0.1894918531179428,
          -0.02138201706111431,
          0.3333964943885803,
          -0.1679687798023224,
          -0.24694688618183136,
          -0.1282310038805008,
          0.21577654778957367,
          -0.13869905471801758,
          -0.1585143655538559,
          0.1173248291015625,
          0.11578332632780075,
          -0.062101829797029495,
          -0.040903232991695404,
          -0.01915150135755539,
          0.04834432899951935,
          0.07958241552114487,
          -0.04295612499117851,
          0.1239587813615799,
          -0.009671276435256004,
          0.08157391101121902,
          0.11219054460525513,
          0.07478424906730652,
          0.040829118341207504,
          -0.03686052933335304,
          0.10710368305444717,
          -0.020226046442985535,
          0.07036925107240677,
          -0.08435163646936417,
          0.005414554383605719,
          -0.16322185099124908,
          -0.09034737199544907,
          0.06512303650379181,
          0.07788048684597015,
          0.12503226101398468,
          -0.06408732384443283,
          -0.008165369741618633,
          0.11171969771385193,
          0.013699683360755444,
          0.06669363379478455,
          0.13282452523708344,
          0.1687174141407013
        ],
        [
          0.22093725204467773,
          0.19088658690452576,
          0.18260565400123596,
          0.24610669910907745,
          0.07504631578922272,
          -0.2942349314689636,
          -0.25668972730636597,
          -0.25698256492614746,
          0.06142779067158699,
          -0.7293762564659119,
          -0.372715026140213,
          -0.41468095779418945,
          -0.4152284860610962,
          -0.5128417611122131,
          0.053602755069732666,
          -0.2843533456325531,
          -0.08994831144809723,
          0.06544806808233261,
          -0.011021682061254978,
          0.03864504396915436,
          -0.04233811795711517,
          -0.06135481223464012,
          -0.08189031481742859,
          -0.12749500572681427,
          -0.01782640442252159,
          0.02051708474755287,
          -0.10600795596837997,
          0.006982776336371899,
          0.14006942510604858,
          0.060059528797864914,
          -0.058616526424884796,
          0.02695084735751152,
          0.04058568924665451,
          -0.008846323937177658,
          0.03793349117040634,
          -0.11580455303192139,
          0.04759926721453667,
          0.07869663834571838,
          -0.1648186892271042,
          -0.0935986340045929,
          0.0008559689158573747,
          -0.05152570828795433,
          -0.060260023921728134,
          -0.07976655662059784,
          0.0378180555999279,
          0.11924271285533905,
          -0.06902289390563965,
          -0.04870186746120453
        ],
        [
          0.14146313071250916,
          -0.36374932527542114,
          -0.3164924383163452,
          -0.047962483018636703,
          -0.057070426642894745,
          -0.21614889800548553,
          -0.11384034156799316,
          -0.07781486213207245,
          -0.14303109049797058,
          -0.12351567298173904,
          -0.2733890116214752,
          -0.11160381138324738,
          -0.03057781793177128,
          -0.15720416605472565,
          -0.032939959317445755,
          0.07694799453020096,
          0.10386714339256287,
          -0.07887967675924301,
          -0.08608360588550568,
          0.11633674800395966,
          -0.10308261960744858,
          0.05877109616994858,
          0.10270851850509644,
          0.14443908631801605,
          0.0983685627579689,
          -0.06136759743094444,
          -0.047992005944252014,
          0.024002939462661743,
          -0.0010606866562739015,
          -0.06124119460582733,
          -0.088907390832901,
          -0.00012519511801656336,
          -0.08685144037008286,
          -0.012387330643832684,
          0.015682121738791466,
          -0.049925029277801514,
          -0.02055203542113304,
          -0.01477071177214384,
          -0.01966455765068531,
          -0.0952073186635971,
          0.05720117688179016,
          -0.015694519504904747,
          0.021356236189603806,
          -0.04409028962254524,
          -0.09059958904981613,
          0.03871072083711624,
