{
  "layers": [
    {
      "index": 0,
      "weight": [
        [
          0.10870834439992905,
          -0.06374891102313995,
          0.006293222773820162,
          0.14925067126750946,
          -0.05909520015120506,
          0.18709777295589447,
          0.10577954351902008,
          0.09017553925514221,
          0.11090658605098724,
          0.11427874118089676,
          0.1326112151145935,
          0.09186529368162155,
          0.15029431879520416,
          0.02249852567911148,
          0.06590019166469574,
          0.10318678617477417,
          0.0183170884847641,
          -0.023101594299077988,
          0.135391503572464,
          0.10619106888771057,
          -0.06419982016086578,
          -0.08882737159729004,
          0.04058196395635605,
          -0.07440388947725296,
          0.016709282994270325,
          0.07549788802862167,
          0.05041908845305443,
          0.05566570162773132,
          -0.000730837055016309,
          0.06583884358406067,
          -0.020299604162573814,
          0.0653538852930069,
          0.18590819835662842,
          -0.16572660207748413,
          -0.10114164650440216,
          -0.11357872188091278,
          0.09712754189968109,
          0.022321199998259544,
          0.13097955286502838,
          -0.11334630846977234,
          0.14878705143928528,
          -0.11186563968658447,
          0.08051583915948868,
          -0.055189456790685654,
          -0.03192660212516785,
          0.07310909777879715,
          -0.10491960495710373,
          0.03131785988807678
        ],
        [
          -0.054752323776483536,
          -0.1129370704293251,
          -0.21605607867240906,
          -0.07102686166763306,
          0.09295936673879623,
          -0.021664712578058243,
          0.08347557485103607,
          -0.012202471494674683,
          -0.06594026833772659,
          -0.09006161987781525,
          0.007868900895118713,
          0.050787970423698425,
          -0.1328495740890503,
          0.09806516766548157,
          0.05012403428554535,
          0.09903743863105774,
          -0.03975086286664009,
          -0.014901106245815754,
          0.028180133551359177,
          -0.03663133457303047,
          -0.15125365555286407,
          -0.10049615800380707,
          0.0621192529797554,
          0.0747290551662445,
          -0.0014694564742967486,
          5.90176168770995e-05,
          0.018750635907053947,
          -0.07555229216814041,
          -0.030654199421405792,
          0.12488776445388794,
          -0.06878254562616348,
          0.00021909917995799333,
          -0.06461390852928162,
          -0.12074168026447296,
          -0.008641978725790977,
          -0.09280744940042496,
          0.032767388969659805,
          -0.037906624376773834,
          -0.08528342097997665,
          0.1580726057291031,
          -0.011942259967327118,
          0.05567505583167076,
          -0.024760715663433075,
          -0.10233199596405029,
          -0.06902306526899338,
          0.06899280101060867,
          0.007288014050573111,
          -0.07159016281366348
        ],
        [
          -0.06449014693498611,
          0.03765232115983963,
          -0.17023101449012756,
          -0.06118539720773697,
          0.04058697819709778,
          -0.052101533859968185,
          0.0955827385187149,
          0.12054824084043503,
          -0.12783315777778625,
          -0.11472582072019577,
          0.06140037998557091,
          0.10407381504774094,
          0.06953441351652145,
          0.06935567408800125,
          -0.0762091726064682,
          0.22125433385372162,
          0.14777739346027374,
          0.015933403745293617,
          0.005512178409844637,
          0.12777547538280487,
          0.09943191707134247,
          0.05586221069097519,
          -0.07517186552286148,
          -0.046219926327466965,
          0.02309768833220005,
          0.014841943047940731,
          0.16849420964717865,
          -0.11007190495729446,
          0.05337323993444443,
          0.015989992767572403,
          -0.049548111855983734,
          0.015689892694354057,
          0.04397818073630333,
          0.15943695604801178,
          -0.0809527337551117,
          0.05701524391770363,
          0.18178090453147888,
          -0.0022500602062791586,
          0.022178370505571365,
          0.007099973037838936,
          0.04371747374534607,
          0.050295863300561905,
          -0.12388300150632858,
          -0.055913228541612625,
          -0.0025817900896072388,
          -0.08652158826589584,
          -0.08496780693531036,
          0.020067211240530014
        ],
        [
          -0.17677851021289825,
          -0.1011652871966362,
          -0.09058526903390884,
          0.1261347383260727,
          0.04142839461565018,
          0.13876613974571228,
          -0.017399407923221588,
          0.0676683783531189,
          0.014463894069194794,
          0.1027921736240387,
          -0.20371828973293304,
          -0.007413117680698633,
          -0.1787145882844925,
          0.00973234511911869,
          -0.010514562949538231,
          0.07988332957029343,
          -0.03945056349039078,
          0.10538656264543533,
          -0.006713841576129198,
          0.11887051165103912,
          0.01440510619431734,
          0.05296051874756813,
          -0.07672681659460068,
          -0.05645523965358734,
          -0.1008252501487732,
          -0.12138153612613678,
          -0.08478841930627823,
          -0.025563154369592667,
          -0.009717036969959736,
          0.0563642717897892,
          0.06871546059846878,
          0.16718794405460358,
          0.11852756142616272,
          0.0023913253098726273,
          -0.10230397433042526,
          0.0962735041975975,
          0.002128603169694543,
          0.01860973984003067,
          -0.10114621371030807,
          0.016496358439326286,
          -0.04720689356327057,
          0.06896135210990906,
          -0.11198409646749496,
          -0.10860472172498703,
          -0.012688583694398403,
          -0.0360838957130909,
          -0.055862728506326675,
          -0.10099191963672638
        ],
        [
          -0.19413475692272186,
          -0.07154735177755356,
          0.013811144977807999,
          -0.21989835798740387,
          0.051033180207014084,
          0.032501254230737686,
          0.13994200527668,
          -0.0672823041677475,
          0.017738398164510727,
          -0.13924261927604675,
          0.05544677749276161,
          -0.03281760960817337,
          0.032964494079351425,
          -0.02306898683309555,
          -0.11871283501386642,
          0.05597301572561264,
          -0.005491524003446102,
          0.061204228550195694,
          0.09435582906007767,
          0.06990175694227219,
          -0.14431481063365936,
          0.06371437013149261,
          0.1789587289094925,
          -0.009151661768555641,
          0.09841571003198624,
          -0.04526089131832123,
          0.15235695242881775,
          0.06917428225278854,
          -0.11152862757444382,
          0.07642683386802673,
          -0.1015319749712944,
          -0.15342548489570618,
          0.0449691005051136,
          -0.006248738616704941,
          -0.0048784008249640465,
          0.05203783139586449,
          0.13968977332115173,
          0.06721606105566025,
          -0.053616899996995926,
          -0.04671555012464523,
          0.06536789983510971,
          0.02818511798977852,
          -0.15425683557987213,
          -0.020076172426342964,
          -0.07816997915506363,
          -0.1090593934059143,
          -0.043570373207330704,
          -0.14280931651592255
        ],
        [
          -0.1293802559375763,
          -0.010659783147275448,
          0.09907664358615875,
          0.06636101752519608,
          -0.08025490492582321,
          0.08566433191299438,
          -0.05152140557765961,
          0.18493567407131195,
          0.07188613712787628,
          0.2145119607448578,
          0.21692879498004913,
          0.014374343678355217,
          -0.06043007969856262,
          0.19913795590400696,
          0.0023200518917292356,
          0.0590958371758461,
          0.019436275586485863,
          0.045509058982133865,
          0.0043044970370829105,
          -0.03497152030467987,
          0.10007117688655853,
          0.13124920427799225,
          -0.10359884798526764,
          0.06542258709669113,
          0.054712433367967606,
          -0.20676183700561523,
          0.05943407118320465,
          -0.12791794538497925,
          0.15326586365699768,
          -0.004548615776002407,
          0.04486072435975075,
          -0.02962152473628521,
          0.02000054344534874,
          0.2248183786869049,
          -0.0937570109963417,
          -0.06114572659134865,
          -0.08033282309770584,
          -0.009593681432306767,
          -0.09454647451639175,
          -0.03846772387623787,
          0.032161105424165726,
          0.08090300112962723,
          0.08545592427253723,
          0.0933464989066124,
          -0.0679464116692543,
          -0.14913587272167206,
          -0.12431389093399048,
          0.10449456423521042
        ],
        [
          -0.065546914935112,
          0.02354632318019867,
          -0.047736138105392456,
          -0.08578275889158249,
          0.1666320264339447,
          0.11612453311681747,
          0.06124454364180565,
          -0.2639526426792145,
          -0.002845668001100421,
          0.031784527003765106,
          -0.17294855415821075,
          -0.0706038624048233,
          0.05212266743183136,
          -0.07951950281858444,
          0.007142265792936087,
          0.021460438147187233,
          -0.05472457781434059,
          -0.0837864801287651,
          -0.10753650963306427,
          0.1723407655954361,
          -0.13715888559818268,
          0.0767395943403244,
          0.019259953871369362,
          -0.0945458859205246,
          -0.034566838294267654,
          -0.06189868971705437,
          0.04156726226210594,
          -0.059064216911792755,
          -0.08689673990011215,
          0.007910938933491707,
          0.10504423826932907,
          -0.057047002017498016,
          -0.06736516207456589,
          0.08944033831357956,
          -0.03560164198279381,
          -0.09086596220731735,
          0.0711476132273674,
          -0.08267755061388016,
          -0.05418461561203003,
          -0.042377978563308716,
          -0.03393958881497383,
          -0.05405491590499878,
          0.018008006736636162,
          0.07379216700792313,
          0.16088582575321198,
          -0.12240106612443924,
          -0.11189784854650497,
          -0.09098006039857864
        ],
        [
          -0.21384742856025696,
          -0.13336563110351562,
          -0.14936861395835876,
          -0.03834271430969238,
          -0.14288467168807983,
          -0.017080185934901237,
          -0.11753211170434952,
          0.1376281976699829,
          -0.027894092723727226,
          0.08046910911798477,
          -0.16981223225593567,
          -0.013809537515044212,
          -0.0955580547451973,
          -0.02959027700126171,
          -0.0029101998079568148,
          0.08664710819721222,
          -0.009711628779768944,
          -0.010211490094661713,
          0.11421367526054382,
          0.04726766422390938,
          0.0926685631275177,
          0.006197866052389145,
          0.21437914669513702,
          -0.06960839033126831,
          -0.19143171608448029,
          -0.16891330480575562,
          0.027009522542357445,
          -0.09167777001857758,
          -0.01721685379743576,
          0.04671168327331543,
          -0.14286981523036957,
          -0.17129988968372345,
          0.065993532538414,
          0.0005364325479604304,
          -0.12145232409238815,
          0.013951337896287441,
          0.016850721091032028,
          -0.0675061047077179,
          0.03654151409864426,
          0.09455776959657669,
          -0.07845106720924377,
          0.2217964231967926,
          0.04801178351044655,
          0.010372846387326717,
          0.02380121685564518,
          -0.10796061158180237,
          0.0982731431722641,
          -0.008824694901704788
        ],
        [
          -0.11474673449993134,
          0.0732538178563118,
          0.004789306782186031,
          0.06150133162736893,
          -0.020377404987812042,
          -0.052094414830207825,
          -0.021080847829580307,
          0.24211706221103668,
          0.14092324674129486,
          -0.011179188266396523,
          0.08437906205654144,
          0.05140238255262375,
          0.0789705365896225,
          0.14507143199443817,
          0.06748499721288681,
          0.10687202215194702,
          -0.08826975524425507,
          0.11711730808019638,
          -0.017648646607995033,
          -0.07020007818937302,
          0.014854982495307922,
          -0.17674747109413147,
          -0.08398258686065674,
          -0.08083824068307877,
          0.11547990143299103,
          0.0672360509634018,
          0.0012816695962101221,
          0.024594658985733986,
          -0.0011545763118192554,
          -0.07094249129295349,
          0.07767210155725479,
          0.041632506996393204,
          -0.16296079754829407,
          0.17719103395938873,
          -0.09021519124507904,
          -0.12378894537687302,
          -0.07498574256896973,
          0.03904518857598305,
          -0.04082833230495453,
          0.04326045140624046,
          0.05219488590955734,
          0.13755501806735992,
          -0.04583032801747322,
          -0.021728746592998505,
          0.017270982265472412,
          -0.07326392829418182,
          -0.06495595723390579,
          -0.1081329882144928
        ],
        [
          -0.07114376127719879,
          -0.053313568234443665,
          -0.060174647718667984,
          -0.06058061495423317,
          0.04146470129489899,
          0.06326865404844284,
          0.15225625038146973,
          0.10011457651853561,
          0.03669876977801323,
          0.23213258385658264,
          -0.1484435349702835,
          0.18509544432163239,
          0.0861155241727829,
          0.0724954903125763,
          -0.15299394726753235,
          0.13658608496189117,
          -0.09780070930719376,
          -0.1827615648508072,
          0.04935309290885925,
          0.11662990599870682,
          0.14804188907146454,
          0.024449646472930908,
          0.11832845211029053,
          -0.02471241168677807,
          -0.09233236312866211,
          -0.1117929220199585,
          0.122005894780159,
          -0.14152520895004272,
          0.14551953971385956,
          -0.07294362038373947,
          0.2522526681423187,
          0.07914832979440689,
          0.06670279055833817,
          0.14539749920368195,
          -0.07815000414848328,
          -0.04597042128443718,
          0.0053033665753901005,
          -0.06497956067323685,
          -0.020575305446982384,
          -0.10127772390842438,
          0.09148018807172775,
          0.09638994187116623,
          0.0892694890499115,
          0.1509326547384262,
          -0.12239773571491241,
          0.010505588725209236,
          0.034967269748449326,
          -0.034618135541677475
        ],
        [
          0.013326636515557766,
          -0.0987129807472229,
          0.006220847833901644,
          -0.041657183319330215,
          0.06748486310243607,
          -0.12009569257497787,
          -0.14916616678237915,
          0.33785489201545715,
          0.13617734611034393,
          0.06732934713363647,
          0.09264633059501648,
          -0.1667320877313614,
          0.07137136906385422,
          -0.12592555582523346,
          -1.0506651051400695e-06,
          0.036817532032728195,
          0.04610846936702728,
          -0.06895983219146729,
          -0.13769778609275818,
          0.021972568705677986,
          -0.0697396919131279,
          -0.1278187781572342,
          -0.11441146582365036,
          0.006982874590903521,
          0.009210208430886269,
          -0.06585819274187088,
          -0.03121417574584484,
          -0.0660845935344696,
          0.038340888917446136,
          -0.025011414662003517,
          -0.036192696541547775,
          -0.007739401888102293,
          -0.1432235687971115,
          0.06807192414999008,
          0.043996043503284454,
          -0.09305480867624283,
          -0.08334195613861084,
          -0.08441513031721115,
          -0.041218843311071396,
          -0.009402021765708923,
          -0.05562973767518997,
          -0.03603506088256836,
          0.0964103639125824,
          0.047405678778886795,
          -0.03010808303952217,
          -0.15999853610992432,
          -0.04721691459417343,
          0.04785174876451492
        ],
        [
          -0.1705043911933899,
          -0.20271621644496918,
          -0.14898458123207092,
          0.07514731585979462,
          0.12815815210342407,
          0.042179182171821594,
          0.007145413663238287,
          -0.22737956047058105,
          0.015451095998287201,
          0.02697894349694252,
          -0.2825895845890045,
          0.16815300285816193,
          -0.02755771018564701,
          -0.1600378304719925,
          -0.18550366163253784,
          -0.03781290724873543,
          -0.023759769275784492,
          0.13448823988437653,
          -0.05910862982273102,
          0.09018782526254654,
          -0.1708143800497055,
          0.012702375650405884,
          0.0007150140008889139,
          0.055973201990127563,
          0.03398973494768143,
          -0.10707128793001175,
          -0.08223357051610947,
          0.0073630730621516705,
          0.21793600916862488,
          0.0038716422859579325,
          -0.15448178350925446,
          -0.15895631909370422,
          -0.05614183098077774,
          -0.062336184084415436,
          0.03946221247315407,
          -0.05882692709565163,
          0.08857866376638412,
          -0.08842671662569046,
          -0.14496983587741852,
          -0.032115865498781204,
          -0.019868141040205956,
          0.0952870100736618,
          0.10669635236263275,
          0.06866852939128876,
          -0.10360096395015717,
          -0.13605430722236633,
          -0.023012060672044754,
          -0.008109606802463531
        ],
        [
          -0.06556296348571777,
          -0.1733635663986206,
          -0.08082450926303864,
          -0.09476330876350403,
          0.12691864371299744,
          0.015254894271492958,
          -0.048469167202711105,
          0.057329170405864716,
          -0.006695629563182592,
          -0.08418703824281693,
          -0.2547033727169037,
          0.009722129441797733,
          0.018592489883303642,
          0.1391948163509369,
          -0.21023419499397278,
          0.055832743644714355,
          0.043729256838560104,
          0.02668529376387596,
          -0.0367296002805233,
          0.06885217875242233,
          -0.020444311201572418,
          -0.033933769911527634,
          -0.08689184486865997,
          0.024619901552796364,
          0.06130429357290268,
          -0.07231094688177109,
          0.08765270560979843,
          0.028174888342618942,
          -0.18115383386611938,
          -0.08296262472867966,
          0.10036146640777588,
          0.06937224417924881,
          -0.053444284945726395,
          0.11084035038948059,
          0.013235370628535748,
          -0.058378931134939194,
          -0.030269257724285126,
          0.08262214064598083,
          0.08982451260089874,
          0.014617406763136387,
          0.019157595932483673,
          0.04035570099949837,
          0.05225203186273575,
          0.08113207668066025,
          0.041648346930742264,
          -0.1107349544763565,
          0.05346668139100075,
          0.042750630527734756
        ],
        [
          -0.01517564058303833,
          0.03047795407474041,
          -0.1507941037416458,
          0.04320138692855835,
          -0.017327122390270233,
          0.08348633348941803,
          0.0701153501868248,
          -0.143228679895401,
          0.02947726845741272,
          -0.061574921011924744,
          -0.2111244946718216,
          -0.14074546098709106,
          0.011064614169299603,
          -0.058143626898527145,
          -0.30411332845687866,
          -0.17137065529823303,
          0.00421134615316987,
          -0.08424390852451324,
          0.08213474601507187,
          0.06323415040969849,
          0.109180748462677,
          0.019661445170640945,
          -0.09535108506679535,
          0.030049210414290428,
          0.048763927072286606,
          -0.007314085494726896,
          -0.11138587445020676,
          0.02045893482863903,
          -0.0924297347664833,
          -0.03738357126712799,
          -0.14964310824871063,
          -0.09378661960363388,
          -0.017276130616664886,
          0.1164173111319542,
          0.019999811425805092,
          0.05699455738067627,
          -0.12232590466737747,
          0.1526634693145752,
          0.030571313574910164,
          -0.0335090346634388,
          0.09146473556756973,
          -0.07598833739757538,
          0.021877199411392212,
          -0.09843812137842178,
          -0.10952949523925781,
          -0.11224248260259628,
          0.021006884053349495,
          -0.0358273908495903
        ],
        [
          -0.2398359477519989,
          -0.12095916271209717,
          -0.1521417796611786,
          0.09959263354539871,
          -0.19281816482543945,
          -0.0856369137763977,
          0.052578914910554886,
          -0.11638839542865753,
          0.20797958970069885,
          0.18181739747524261,
          -0.22134676575660706,
          -0.018519271165132523,
          -0.03384972736239433,
          -0.028173526749014854,
          -0.058339688926935196,
          0.006500265561044216,
          -0.0615059956908226,
          -0.10778788477182388,
          0.030471893027424812,
          -0.0029702752362936735,
          -0.04629666358232498,
          -0.0649053081870079,
          -0.016399921849370003,
          -0.1660619080066681,
          0.02068866416811943,
          -0.016506686806678772,
          0.04101338982582092,
          0.09301996976137161,
          -0.018502220511436462,
          0.0360136441886425,
          0.022906752303242683,
          0.046636275947093964,
          -0.048716265708208084,
          0.025868354365229607,
          0.06469659507274628,
          0.1327778398990631,
          0.055139269679784775,
          -0.11742930114269257,
          0.009540129452943802,
          -0.05250301584601402,
          0.0022201647516340017,
          -0.06841009855270386,
          0.016742467880249023,
          -0.03558918461203575,
          -0.026681778952479362,
          0.05133683979511261,
          -0.04250308871269226,
          -0.13935637474060059
        ],
        [
          0.014608071185648441,
          0.00010814132110681385,
          -0.10188202559947968,
          -0.15118026733398438,
          0.016852393746376038,
          0.16695620119571686,
          0.10540679097175598,
          0.09366818517446518,
          0.12300046533346176,
          0.018780672922730446,
          0.03561079129576683,
          0.2441832423210144,
          0.031514257192611694,
          -0.07358377426862717,
          -0.030795611441135406,
          0.09797948598861694,
          0.08525368571281433,
          -0.0767088308930397,
          0.06230645999312401,
          -0.04044421762228012,
          -0.18673565983772278,
          -0.1774933636188507,
          0.0525653176009655,
          0.07618565857410431,
          -0.19353704154491425,
          0.10861041396856308,
          0.14012673497200012,
          0.0542818158864975,
          0.2518494129180908,
          -0.025776010006666183,
          0.12893331050872803,
          -0.029475046321749687,
          0.13484014570713043,
          -0.059258610010147095,
          -0.007542598061263561,
          0.08841325342655182,
          0.08043822646141052,
          0.057272057980298996,
          -0.023982662707567215,
          -0.054194167256355286,
          -0.06897030025720596,
          -0.07377693802118301,
          0.09658607840538025,
          -0.05920303240418434,
          -0.048112571239471436,
          0.007749249693006277,
          -0.10783055424690247,
          -0.03925769403576851
        ],
        [
          -0.08990484476089478,
          0.00020785901870112866,
          -0.2267952412366867,
          0.03373686969280243,
          -0.2551524341106415,
          0.14537975192070007,
          0.22576606273651123,
          -0.1247435137629509,
          0.053991060703992844,
          0.12498031556606293,
          -0.15985657274723053,
          -0.056512847542762756,
          -0.17294588685035706,
          0.09563644230365753,
          -0.06360768526792526,
          0.05793950334191322,
          -0.03845028951764107,
          0.00040033282130025327,
          -0.028485139831900597,
          -0.12400006502866745,
          0.04590923711657524,
          -0.08511556684970856,
          -0.045749861747026443,
          -0.09179431945085526,
          -0.0325387604534626,
          0.07383215427398682,
          0.06416210532188416,
          -0.09674539417028427,
          0.10581038892269135,
          -0.09360901266336441,
          -0.024564383551478386,
          -0.1046571433544159,
          -0.0028751250356435776,
          0.20837929844856262,
          0.07969708740711212,
          0.13783925771713257,
          -0.005581773351877928,
          0.010263215750455856,
          0.09090686589479446,
          0.03216644749045372,
          -0.10928879678249359,
          -0.13066653907299042,
          0.011334048584103584,
          -0.05695395916700363,
          -0.04376449063420296,
          0.04647999256849289,
          -0.021009601652622223,
          0.06280713528394699
        ],
        [
          -0.013824746012687683,
          0.08505542576313019,
          -0.03470031917095184,
          0.09325829893350601,
          0.07513871788978577,
          0.19695071876049042,
          0.024348827078938484,
          0.12809158861637115,
          0.09154321253299713,
          0.08462919294834137,
          -0.15986056625843048,
          0.046378958970308304,
          -0.07290641218423843,
          0.05963674932718277,
          -0.04156818613409996,
          0.20462843775749207,
          0.04289615899324417,
          -0.08081060647964478,
          0.07959964871406555,
          -0.00523859728127718,
          0.06845619529485703,
          0.0027220803312957287,
          0.059716422110795975,
          0.12016676366329193,
          0.004235158674418926,
          -0.04277438670396805,
          -0.09549596160650253,
          0.014337297528982162,
          0.04129665344953537,
          -0.03314688801765442,
          -0.0025630490854382515,
          0.08138281106948853,
          -0.06004713848233223,
          0.08455447107553482,
          -0.14958113431930542,
          0.019138535484671593,
          -0.06058485805988312,
          -0.028293246403336525,
          -0.057950057089328766,
          -0.021713485941290855,
          -0.1205945685505867,
          -0.10924118012189865,
          -0.03975730389356613,
          -0.11798547208309174,
          0.08896071463823318,
          -0.054103635251522064,
          -0.04104090854525566,
          0.11685682833194733
        ],
        [
          -0.1836383193731308,
          -0.05688429996371269,
          -0.20147940516471863,
          -0.10982523113489151,
          -0.043900903314352036,
          0.1040509045124054,
          -0.09959632158279419,
          0.024903101846575737,
          0.04385993629693985,
          0.05975005403161049,
          -0.15726599097251892,
          0.0008282470516860485,
          -0.17019148170948029,
          0.07335197180509567,
          -0.21340079605579376,
          -0.07644810527563095,
          -0.0534963458776474,
          -0.03193631023168564,
          0.03464028611779213,
          0.007477350998669863,
          0.08844492584466934,
          -0.09792094677686691,
          0.03739289566874504,
          0.041530709713697433,
          -0.0416165292263031,
          -0.0914832279086113,
          -0.010279630310833454,
          0.08803880959749222,
          -0.0008555882959626615,
          0.024040332064032555,
          -0.039027951657772064,
          0.06161055713891983,
          -0.11537381261587143,
          0.09628307074308395,
          -0.0037222085520625114,
          0.062181439250707626,
          -0.059067606925964355,
          -0.04598601534962654,
          -0.058330144733190536,
          -0.10234476625919342,
          0.11474331468343735,
          -0.13717509806156158,
          0.007296690251678228,
          0.011965553276240826,
          -0.05053388699889183,
          0.08958812803030014,
          -0.0015149241080507636,
          0.03815913945436478
        ],
        [
          0.01546876784414053,
          0.04720491170883179,
          -0.04927141219377518,
          0.15076038241386414,
          0.16759729385375977,
          0.13230302929878235,
          0.05669045075774193,
          -0.1274222880601883,
          0.007547654211521149,
          0.07268282026052475,
          -0.11304648965597153,
          0.17287680506706238,
          0.006707563530653715,
          -0.0484997034072876,
          0.03935055062174797,
          0.177320197224617,
          0.12499772757291794,
          0.14168418943881989,
          0.010583708062767982,
          -0.053951311856508255,
          0.019524604082107544,
          0.07212286442518234,
          -0.10436276346445084,
          0.02535509504377842,
          0.015214122831821442,
          -0.04280609264969826,
          0.10432145744562149,
          0.0899718627333641,
          -0.15008129179477692,
          0.09061525017023087,
          0.07803051173686981,
          0.015806347131729126,
          0.18063844740390778,
          -0.061042916029691696,
          -0.03225558251142502,
          0.0006245049880817533,
          0.0031490230467170477,
          0.02239420637488365,
          0.14437732100486755,
          -0.13149327039718628,
          0.009908550418913364,
          0.04746224731206894,
          -0.12617191672325134,
          -0.023298149928450584,
          0.06464211642742157,
          0.1259777694940567,
          0.10689923912286758,
          -0.14507654309272766
        ],
        [
          -0.052111394703388214,
          -0.22912941873073578,
          -0.18912994861602783,
          -0.07256634533405304,
          0.18659019470214844,
          0.17757460474967957,
          0.12078143656253815,
          -0.01009401399642229,
          0.23044376075267792,
          0.04146752506494522,
          0.0784546434879303,
          0.07496916502714157,
          0.03258694335818291,
          0.08486020565032959,
          -0.022376827895641327,
          -0.0924026295542717,
          0.11818628013134003,
          -0.07309568673372269,
          0.08324844390153885,
          -0.03204887732863426,
          -0.06843499094247818,
          0.10248757898807526,
          -0.022501612082123756,
          0.12154089659452438,
          -0.07503227889537811,
          -0.04892227426171303,
          0.026693658903241158,
          0.1458401083946228,
          -0.024831725284457207,
          -0.09252625703811646,
          0.05092106759548187,
          0.057755544781684875,
          0.12521740794181824,
          -0.20822885632514954,
          -0.05138136073946953,
          0.08298669755458832,
          -0.003495879005640745,
          -0.07661576569080353,
          -0.0028974320739507675,
          0.09160763025283813,
          -0.03929661959409714,
          -0.12298174202442169,
          -0.05586099624633789,
          -0.044101059436798096,
          0.05180055648088455,
          0.12842145562171936,
          0.07766392081975937,
          -0.020880194380879402
        ],
        [
          -0.006225195247679949,
          -0.14078247547149658,
          0.10648202151060104,
          0.1660078465938568,
          0.15152780711650848,
          -0.004130649846047163,
          -0.03608755022287369,
          -0.08775736391544342,
          0.06707421690225601,
          -0.13761049509048462,
          0.03421200066804886,
          -0.13826718926429749,
          -0.10057580471038818,
          -0.018988579511642456,
          -0.040512386709451675,
          -0.09107408672571182,
          0.05420145392417908,
          0.01409935113042593,
          0.030951302498579025,
          -0.050540126860141754,
          -0.06742332875728607,
          -0.007016646675765514,
          -0.014953907579183578,
          -0.15739873051643372,
          0.12905935943126678,
          0.06261618435382843,
          -0.020365143194794655,
          -0.049142055213451385,
          -0.15123003721237183,
          0.031150376424193382,
          -0.054899103939533234,
          -0.05466732010245323,
          -0.1299726516008377,
          0.16886261105537415,
          -0.12570220232009888,
          0.13758787512779236,
          0.0846782699227333,
          0.07358667999505997,
          0.10608962178230286,
          0.029416348785161972,
          0.017984215170145035,
          -0.026695063337683678,
          -0.08920526504516602,
          -0.09043743461370468,
          0.16149267554283142,
          -0.05029822140932083,
          0.037484440952539444,
          -0.0016278665279969573
        ],
        [
          -0.027782410383224487,
          -0.14314208924770355,
          -0.16785334050655365,
          0.14491815865039825,
          0.06577512621879578,
          0.13614997267723083,
          -0.11433057487010956,
          0.05325081944465637,
          -0.027832595631480217,
          0.05882854759693146,
          -0.11307497322559357,
          -0.1315571516752243,
          -0.2323671281337738,
          0.08715319633483887,
          0.06486537307500839,
          0.20439192652702332,
          0.02960418350994587,
          -0.000575978949200362,
          -0.019257916137576103,
          -0.10756686329841614,
          -0.01128105353564024,
          0.12593330442905426,
          0.050368305295705795,
          -0.02670595794916153,
          0.011203965172171593,
          -0.06408920139074326,
          -0.002645213156938553,
          0.06718125939369202,
          0.07884922623634338,
          0.01920395903289318,
          -0.10868054628372192,
          -0.001173594268038869,
          -0.14638651907444,
          0.17885707318782806,
          0.02752329595386982,
          0.07733256369829178,
          -0.061869047582149506,
          -0.06308861076831818,
          0.14341066777706146,
          -0.004335228353738785,
          -0.15421214699745178,
          0.013398579321801662,
          -0.040158115327358246,
          -0.02078111283481121,
          0.08003104478120804,
          -0.002441558288410306,
          -0.020356783643364906,
          0.01182495802640915
        ],
        [
          -0.1029336154460907,
          0.02010354772210121,
          0.02115277200937271,
          0.10913687199354172,
          0.19555515050888062,
          0.14545707404613495,
          -0.10383215546607971,
          -0.016907138749957085,
          -0.16153641045093536,
          0.08584633469581604,
          -0.03731042519211769,
          0.14107906818389893,
          -0.2300044447183609,
          -0.07313958555459976,
          -0.067686527967453,
          0.11353016644716263,
          0.08856497704982758,
          0.1256604939699173,
          0.04175340011715889,
          0.046808384358882904,
          0.008493026718497276,
          0.0031265111174434423,
          -0.10621984302997589,
          -0.05710579454898834,
          -0.10805565863847733,
          0.0482422411441803,
          0.11711065471172333,
          0.1344083845615387,
          -0.1360493004322052,
          0.24101291596889496,
          -0.14388170838356018,
          0.01402021013200283,
          0.17506833374500275,
          0.12434691935777664,
          -0.04446377232670784,
          0.14448517560958862,
          -0.12833602726459503,
          0.1756771355867386,
          0.18352273106575012,
          -0.02498818002641201,
          -0.03536486625671387,
          0.023934805765748024,
          -0.08656919002532959,
          -0.08815828710794449,
          0.013203090988099575,
          -0.21446651220321655,
          -0.09058175981044769,
          0.02704048343002796
        ],
        [
          -0.1586790233850479,
          -0.13213218748569489,
          -0.1066664531826973,
          0.08637481182813644,
          0.26464247703552246,
          0.05104842409491539,
          0.06392215192317963,
          -0.06796438246965408,
          0.0668124184012413,
          0.13573111593723297,
          0.07673441618680954,
          -0.012581722810864449,
          0.025096137076616287,
          0.22424796223640442,
          -0.16950984299182892,
          0.10199625790119171,
          -0.09913691878318787,
          -0.15554243326187134,
          0.04333655163645744,
          -0.07934579998254776,
          0.14382998645305634,
          -0.039535220712423325,
          0.017463425174355507,
          -0.061622850596904755,
          0.005663796328008175,
          0.08801550418138504,
          -0.002021360443904996,
          -0.12009510397911072,
          -0.09176752716302872,
          0.056441470980644226,
          0.0663270577788353,
          0.008296763524413109,
          0.07518317550420761,
          0.14450562000274658,
          0.06119721755385399,
          0.06124719977378845,
          0.09584692865610123,
          0.034868236631155014,
          0.030931418761610985,
          0.12808535993099213,
          -0.011574038304388523,
          -0.05851984769105911,
          -0.0883047953248024,
          0.159621462225914,
          0.021289037540555,
          -0.1092933788895607,
          -0.03332912549376488,
          0.02882213331758976
        ],
        [
          -0.015181885100901127,
          0.15876226127147675,
          0.0602639764547348,
          0.12298721075057983,
          0.10761311650276184,
          -0.006387963425368071,
          0.06113719940185547,
          0.044662684202194214,
          -0.05754842236638069,
          -0.044272225350141525,
          0.034600820392370224,
          0.19853849709033966,
          -0.10863258689641953,
          0.09597630053758621,
          0.0493968203663826,
          0.21315591037273407,
          0.1886436641216278,
          -0.03893115743994713,
          0.0605863519012928,
          -0.10692060738801956,
          -0.05047241598367691,
          -0.18664085865020752,
          0.0223979689180851,
          0.02073589712381363,
          0.027311792597174644,
          -0.10501836240291595,
          -0.07943637669086456,
          -0.06478520482778549,
          -0.009346405044198036,
          -0.07025656849145889,
          0.05723932012915611,
          0.19172830879688263,
          0.11082649230957031,
          -0.1799876093864441,
          0.09759528934955597,
          -0.03683698549866676,
          -0.06696165353059769,
          -0.08509717881679535,
          -0.03227017819881439,
          -0.08089187741279602,
          0.04798698052763939,
          -0.026318054646253586,
          0.09341996163129807,
          -0.07580869644880295,
          0.0005656565772369504,
          -0.04158401861786842,
          0.14345331490039825,
          0.09034762531518936
        ],
        [
          -0.22526676952838898,
          -0.16148991882801056,
          0.018318787217140198,
          0.048824112862348557,
          0.026460759341716766,
          -0.15774491429328918,
          0.020832471549510956,
          0.03447655215859413,
          -0.14863985776901245,
          -0.02022835612297058,
          0.014301294460892677,
          0.03410680964589119,
          -0.04075618460774422,
          -0.003607973223552108,
          -0.2540587782859802,
          -0.09692659229040146,
          0.07568331062793732,
          0.06551837921142578,
          0.1061040535569191,
          0.03892352432012558,
          -0.06372872740030289,
          0.06113256886601448,
          -0.02414063736796379,
          0.015909265726804733,
          -0.02498532272875309,
          0.031997814774513245,
          0.0007787106442265213,
          -0.06409478932619095,
          -0.044294193387031555,
          -0.02292601577937603,
          0.0374763086438179,
          0.03592627868056297,
          -0.03647706285119057,
          0.0037303282879292965,
          0.010316619649529457,
          -0.013084244914352894,
          0.0263630673289299,
          -0.04079817607998848,
          0.0589253194630146,
          0.005057459697127342,
          -0.003727868665009737,
          0.016010580584406853,
          0.08372830599546432,
          0.08932145684957504,
          0.09830758720636368,
          -0.1233290359377861,
          0.001103141694329679,
          0.10299043357372284
        ],
        [
          -0.17160664498806,
          -0.05815083533525467,
          0.10029483586549759,
          -0.06916460394859314,
          -0.10421501845121384,
          -0.032050251960754395,
          0.0005956713575869799,
          0.09015770256519318,
          0.04763250797986984,
          0.1357603371143341,
          -0.16435158252716064,
          0.21306316554546356,
          0.028964269906282425,
          0.08593732118606567,
          -0.04283701628446579,
          -0.09002896398305893,
          -0.07179979979991913,
          0.05406681075692177,
          -0.03728266432881355,
          -0.038618117570877075,
          0.10068169981241226,
          0.053427137434482574,
          -0.006108585279434919,
          -0.13879971206188202,
          -0.038119975477457047,
          0.009183527901768684,
          -0.11950727552175522,
          0.042406219989061356,
          0.024856247007846832,
          0.11691168695688248,
          -0.07295200228691101,
          -0.27551665902137756,
          -0.004739899653941393,
          0.021633073687553406,
          -0.015855809673666954,
          0.0530615895986557,
          -0.13763275742530823,
          0.07969383150339127,
          -0.06703097373247147,
          0.05274815112352371,
          0.016826847568154335,
          -0.014164585620164871,
          -0.17223933339118958,
          -0.03137614578008652,
          -0.0881003737449646,
          0.035494912415742874,
          -0.0873267650604248,
          -0.07090016454458237
        ],
        [
          -0.23502600193023682,
          -0.2209630310535431,
          -0.15086020529270172,
          0.0768742486834526,
          0.07281962782144547,
          0.03870619460940361,
          0.08107728511095047,
          -0.26722362637519836,
          -0.37778449058532715,
          -0.02954563871026039,
          -0.00793516542762518,
          0.046996671706438065,
          -0.3185597062110901,
          0.13051444292068481,
          -0.04093867912888527,
          0.11696113646030426,
          -0.009523824788630009,
          0.06527359783649445,
          -0.06540481746196747,
          -0.013504735194146633,
          0.1630834937095642,
          -0.16172300279140472,
          -0.0035374497529119253,
          0.15702681243419647,
          0.022338688373565674,
          0.06794644147157669,
          -0.04781682416796684,
          0.09035522490739822,
          -0.07375513017177582,
          -0.08169838786125183,
          0.012601996771991253,
          0.07529757916927338,
          0.11357110738754272,
          0.022325614467263222,
          -0.009058442898094654,
          0.06348062306642532,
          0.09308416396379471,
          -0.027038339525461197,
          -0.07434865832328796,
          0.016713932156562805,
          -0.003935297951102257,
          -0.11264965683221817,
          -0.07242974638938904,
          0.1096096932888031,
          0.04336610808968544,
          -0.07313263416290283,
          -0.07885902374982834,
          -0.043203338980674744
        ],
        [
          -0.11990063637495041,
          0.0975787565112114,
          -0.18867851793766022,
          0.07918307185173035,
          -0.005739340092986822,
          -0.1094830185174942,
          0.019058849662542343,
          -0.09785498678684235,
          -0.06838886439800262,
          -0.053778260946273804,
          -0.07489480078220367,
          -0.0291006937623024,
          -0.052600763738155365,
          -0.09201902896165848,
          0.13141335546970367,
          -0.048891808837652206,
          -0.2019846886396408,
          0.02792876400053501,
          -0.05206165462732315,
          0.11090853065252304,
          -0.2084454745054245,
          -0.05212525650858879,
          -0.09415330737829208,
          -0.08846855908632278,
          0.03136295825242996,
          0.07616257667541504,
          0.048073917627334595,
          -0.11200832575559616,
          0.12475799769163132,
          0.010981009341776371,
          -0.08706167340278625,
          -0.023457448929548264,
          0.03471745550632477,
          0.015265358611941338,
          -0.007755822967737913,
          0.09627258777618408,
          0.033417291939258575,
          0.10407464951276779,
          -0.006398452911525965,
          -0.036284204572439194,
          0.08938369899988174,
          0.02833773009479046,
          0.03257021680474281,
          0.007449647877365351,
          0.18354323506355286,
          -0.07241920381784439,
          0.014034301042556763,
          -0.07022202759981155
        ],
        [
          -0.02681649662554264,
          -0.030523335561156273,
          -0.021647430956363678,
          -0.1679290235042572,
          -0.2471524178981781,
          0.06128691881895065,
          -0.08744257688522339,
          -0.0811249315738678,
          -0.1948603391647339,
          -0.036370180547237396,
          -0.13647082448005676,
          0.08284776657819748,
          -0.04799209535121918,
          -0.0014318941393867135,
          -0.1940811425447464,
          -0.012307552620768547,
          0.15363219380378723,
          0.019308658316731453,
          0.06534694135189056,
          -0.07914400100708008,
          0.02286994270980358,
          0.058983102440834045,
          0.03702392801642418,
          0.0730181410908699,
          -0.07353988289833069,
          -0.0558093786239624,
          0.030450500547885895,
          -0.04519667476415634,
          -0.014593563042581081,
          -0.032899562269449234,
          -0.012705330736935139,
          0.07326648384332657,
          0.04572753980755806,
          -0.010566720739006996,
          0.03168719261884689,
          -0.03760182857513428,
          -0.021183382719755173,
          -0.06621876358985901,
          -0.0772920474410057,
          -0.05864163115620613,
          0.0029430456925183535,
          0.10619279742240906,
          0.0463663674890995,
          -0.09176531434059143,
          0.06540610641241074,
          -0.0011357523035258055,
          -0.04975367337465286,
          0.005766935180872679
        ],
        [
          -0.08008931577205658,
          0.026114191859960556,
          -0.01836569607257843,
          0.06653259694576263,
          -0.0015031318180263042,
          0.004460152238607407,
          -0.015489032492041588,
          -0.24873170256614685,
          0.0008689865935593843,
          -0.11337840557098389,
          -0.10975754261016846,
          -0.06186039000749588,
          -0.08263198286294937,
          -0.03775547072291374,
          -0.11860071867704391,
          -0.1081538200378418,
          0.009405793622136116,
          0.007172315381467342,
          -0.030436551198363304,
          0.10424865037202835,
          0.036362603306770325,
          0.0009966512443497777,
          -0.014489846304059029,
          -0.008440704084932804,
          -0.09024303406476974,
          0.023609032854437828,
          -0.027813958004117012,
          -0.05622028186917305,
          0.04626822471618652,
          0.09826009720563889,
          -0.016602149233222008,
          -0.048045478761196136,
          -0.02681857720017433,
          0.09574354439973831,
          -0.12938043475151062,
          -0.03356969356536865,
          0.007954737171530724,
          0.07501187175512314,
          -0.038022492080926895,
          0.06331639736890793,
          0.09352430701255798,
          -0.037380069494247437,
          -0.036552757024765015,
          -0.010055441409349442,
          -0.024134784936904907,
          -0.13200156390666962,
          0.011896096169948578,
          0.022747596725821495
        ],
        [
          -0.10696178674697876,
          -0.045230865478515625,
          0.018098821863532066,
          0.09582079201936722,
          -0.017690708860754967,
          0.03683182969689369,
          -0.06623276323080063,
          -0.27694568037986755,
          -0.13331805169582367,
          0.10663115978240967,
          -0.17393486201763153,
          -0.05571666732430458,
          0.08150819689035416,
          0.022985512390732765,
          -0.11725177615880966,
          0.11101088672876358,
          -0.05679038539528847,
          0.00607637595385313,
          -0.10219112038612366,
          0.0427137054502964,
          0.09269551932811737,
          0.11801828444004059,
          0.03633634373545647,
          -0.009802117012441158,
          -0.15686865150928497,
          0.07900198549032211,
          0.07360582053661346,
          0.06363188475370407,
          -0.12097667157649994,
          -0.07515465468168259,
          0.003603160148486495,
          -0.14058658480644226,
          0.13729014992713928,
          -0.042649127542972565,
          -0.06753447651863098,
          -0.03453307971358299,
          -0.007140373345464468,
          -0.08672471344470978,
          -0.024249931797385216,
          0.05143234133720398,
          0.0024779103696346283,
          0.005207927897572517,
          0.08610691875219345,
          0.08113081008195877,
          0.11072652041912079,
          0.01673199236392975,
          -0.01980268396437168,
          -0.11707602441310883
        ],
        [
          -0.12258340418338776,
          0.0676143541932106,
          -0.08710065484046936,
          -0.11166740208864212,
          0.03228257969021797,
          0.19510313868522644,
          0.14275383949279785,
          0.0976804867386818,
          0.1352529525756836,
          0.058589719235897064,
          -0.14874157309532166,
          -0.0002930774353444576,
          0.04224612936377525,
          0.08879438042640686,
          0.12689240276813507,
          -0.008737853728234768,
          -0.05249267444014549,
          0.03036677837371826,
          -0.10224621742963791,
          0.14526934921741486,
          0.16052953898906708,
          -0.04885995388031006,
          0.13096031546592712,
          0.02987375669181347,
          -0.08788514137268066,
          0.04680878669023514,
          0.13789424300193787,
          -0.07812429219484329,
          -0.03536134585738182,
          -0.1284630000591278,
          0.1212797686457634,
          0.06618804484605789,
          0.026127208024263382,
          0.07473153620958328,
          -0.0269693024456501,
          -0.08513262867927551,
          0.01958969421684742,
          -0.021394720301032066,
          0.03147319331765175,
          0.03391733765602112,
          -0.001968124182894826,
          -0.007289969827979803,
          0.10415153205394745,
          0.09174437820911407,
          0.04327312484383583,
          0.09436535835266113,
          0.04881324991583824,
          -0.09506484121084213
        ],
        [
          0.01659720577299595,
          -0.026007771492004395,
          -0.16168735921382904,
          0.15454314649105072,
          0.11500536650419235,
          0.1951058804988861,
          -0.0365162268280983,
          0.19499161839485168,
          0.07391700893640518,
          0.15977105498313904,
          0.12951570749282837,
          0.055385228246450424,
          0.03887680172920227,
          0.043998897075653076,
          -0.08212766796350479,
          0.11919017136096954,
          0.07911170274019241,
          -0.05755975842475891,
          -0.0796240046620369,
          0.0695546343922615,
          0.14794392883777618,
          -0.1392504870891571,
          -0.04960131272673607,
          0.016066698357462883,
          0.20100386440753937,
          -0.08517543971538544,
          -0.2516539692878723,
          -0.07526206970214844,
          0.07456019520759583,
          0.04392087459564209,
          0.16897070407867432,
          -0.07022154331207275,
          0.06257662922143936,
          0.019612714648246765,
          -0.023231739178299904,
          -0.0207915548235178,
          0.04370860382914543,
          0.12356095016002655,
          -0.1518656611442566,
          0.0006814331281930208,
          -0.13220800459384918,
          -0.056711066514253616,
          0.01731986552476883,
          -0.027210211381316185,
          0.1456049680709839,
          0.12785284221172333,
          -0.005018035881221294,
          -0.025639589875936508
        ],
        [
          -0.12864254415035248,
          -0.04928625002503395,
          0.0434044748544693,
          0.19821450114250183,
          -0.14899568259716034,
          0.11628193408250809,
          0.09135659784078598,
          -0.14322660863399506,
          0.33038657903671265,
          0.06756377220153809,
          -0.038764648139476776,
          0.14377754926681519,
          0.12310612946748734,
          -0.03730727732181549,
          -0.05906481295824051,
          0.06413083523511887,
          0.07951758056879044,
          -0.07339484989643097,
          -0.07202111184597015,
          -0.03371177986264229,
          -0.16588662564754486,
          0.01376253180205822,
          0.15812334418296814,
          -0.056625738739967346,
          -0.16111546754837036,
          -0.014030959457159042,
          0.10905110836029053,
          -0.07557670772075653,
          -0.04964195936918259,
          0.040121711790561676,
          0.019152842462062836,
          0.030473848804831505,
          0.0834701731801033,
          0.017797326669096947,
          -0.09042814373970032,
          -0.007316784001886845,
          0.04801417142152786,
          0.007201413158327341,
          0.01284260954707861,
          0.106864795088768,
          0.013285474851727486,
          0.05597083270549774,
          0.12779894471168518,
          -0.09982562065124512,
          0.05918360501527786,
          0.008941498585045338,
          -0.022588688880205154,
          -0.08431722968816757
        ],
        [
          0.009894262999296188,
          -0.09081866592168808,
          -0.15530093014240265,
          0.07364941388368607,
          0.013004527427256107,
          0.024091193452477455,
          0.1502874493598938,
          -0.12211095541715622,
          -0.056135620921850204,
          -0.16325926780700684,
          -0.026802795007824898,
          -0.13908609747886658,
          0.07356857508420944,
          -0.24076597392559052,
          -0.19450734555721283,
          0.19110962748527527,
          -0.03813708946108818,
          -0.029169688001275063,
          -0.02894260175526142,
          0.07427781075239182,
          -0.016956765204668045,
          0.07592111825942993,
          -0.10759443789720535,
          -0.06542643159627914,
          0.2598978877067566,
          0.0823308601975441,
          0.06528753787279129,
          -0.12446361035108566,
          -0.07722048461437225,
          -0.04042448475956917,
          -0.10602550953626633,
          0.15993915498256683,
          0.13169434666633606,
          -0.008990271016955376,
          -0.043929148465394974,
          0.12843650579452515,
          -0.09327461570501328,
          -0.10580787807703018,
          -0.08387140184640884,
          0.046569179743528366,
          -0.025573911145329475,
          0.0883755311369896,
          0.11600588262081146,
          -0.007334190420806408,
          -0.003174184588715434,
          0.06777743995189667,
          -0.03906017541885376,
          -0.037125300616025925
        ],
        [
          0.07783150672912598,
          -0.11699093878269196,
          -0.0018396505620330572,
          0.029346106573939323,
          -0.01795291341841221,
          0.05921822041273117,
          -0.16620394587516785,
          0.047870978713035583,
          0.11569490283727646,
          -0.0635385811328888,
          -0.1750786304473877,
          0.051598746329545975,
          0.07588337361812592,
          0.00603287760168314,
          -0.17083579301834106,
          0.13057804107666016,
          0.055099789053201675,
          0.21757207810878754,
          0.09158428758382797,
          0.03606123477220535,
          0.0698116198182106,
          0.007817632518708706,
          0.006630294024944305,
          -0.07856438308954239,
          -0.005414135288447142,
          -0.030592260882258415,
          0.04837334528565407,
          0.0011830097064375877,
          -0.09327086806297302,
          0.06927173584699631,
          -0.06632722914218903,
          0.07291719317436218,
          -0.03183479234576225,
          0.08697683364152908,
          -0.015643427148461342,
          0.03011922910809517,
          0.0514567531645298,
          -0.13113722205162048,
          0.0864284411072731,
          -0.03488072007894516,
          -0.08054521679878235,
          0.10428851842880249,
          0.024733630940318108,
          -0.01608116924762726,
          -0.04711030796170235,
          0.012980753555893898,
          -0.12201037257909775,
          0.024717925116419792
        ],
        [
          -0.023948224261403084,
          -0.032784488052129745,
          -0.1944001466035843,
          0.07045496255159378,
          5.82347420277074e-05,
          -0.055081918835639954,
          0.08576945215463638,
          -0.020865097641944885,
          0.1902357041835785,
          0.18259689211845398,
          -0.15890458226203918,
          -0.029683392494916916,
          0.10000070929527283,
          0.04239293560385704,
          -0.1232689917087555,
          -0.09568213671445847,
          -0.05733323097229004,
          -0.17165932059288025,
          0.017066827043890953,
          -0.03290438652038574,
          -0.022237788885831833,
          0.07446408271789551,
          -0.11041296273469925,
          -0.05176204815506935,
          -0.14554569125175476,
          0.1257098913192749,
          -0.10697244852781296,
          -0.025954749435186386,
          0.023876119405031204,
          0.14469702541828156,
          -0.09758724272251129,
          0.047534968703985214,
          -0.016073165461421013,
          0.015879511833190918,
          0.02525951899588108,
          -0.011060326360166073,
          -0.009921323508024216,
          0.04549423232674599,
          -0.06656726449728012,
          -0.046722449362277985,
          -0.08832977712154388,
          0.1099647581577301,
          -0.007557753007858992,
          -0.0939360037446022,
          0.05602901801466942,
          -0.03137202933430672,
          0.0931129977107048,
          -0.1340874582529068
        ],
        [
          -0.16952267289161682,
          0.01108302641659975,
          -0.09368637204170227,
          0.16507762670516968,
          0.24030175805091858,
          0.11400502920150757,
          0.11006668955087662,
          -0.1498962938785553,
          0.15381333231925964,
          0.18262147903442383,
          -0.10105228424072266,
          0.09428563714027405,
          0.025688812136650085,
          0.11764579266309738,
          -0.1647566705942154,
          0.0023541355039924383,
          -0.22172316908836365,
          -0.08401107788085938,
          -0.061653830111026764,
          -0.07257819175720215,
          -0.08240591734647751,
          0.10062745958566666,
          -0.020926188677549362,
          -0.10957019031047821,
          -0.023171067237854004,
          -0.07833778113126755,
          -0.06316450238227844,
          0.08962923288345337,
          0.024393413215875626,
          0.12575843930244446,
          0.045409392565488815,
          0.10928121954202652,
          -0.10925345122814178,
          0.10670284181833267,
          -0.0762430727481842,
          -0.006387830711901188,
          -0.0461546890437603,
          0.034994203597307205,
          -0.11901967972517014,
          0.023352842777967453,
          0.04276684671640396,
          0.13973680138587952,
          -0.039663199335336685,
          0.019740283489227295,
          -0.07474736124277115,
          -0.16878220438957214,
          0.050888415426015854,
          -0.009907670319080353
        ],
        [
          -0.06614240258932114,
          -0.20848023891448975,
          0.029881522059440613,
          0.05433482676744461,
          -0.03641647845506668,
          0.054917383939027786,
          -0.009502642787992954,
          0.08290179818868637,
          -0.03870653361082077,
          0.03917600214481354,
          -0.10732906311750412,
          0.1389203816652298,
          0.1513574719429016,
          0.19619064033031464,
          0.040515508502721786,
          0.19425339996814728,
          0.06711230427026749,
          -0.049655888229608536,
          -0.016688043251633644,
          -0.03967657312750816,
          -0.0015093334950506687,
          -0.03805080056190491,
          -0.10984229296445847,
          0.014987868256866932,
          -0.028285162523388863,
          0.02239222638309002,
          -0.022761978209018707,
          -0.14476995170116425,
          -0.0506034716963768,
          -0.11546993255615234,
          -0.1843237727880478,
          -0.06281498819589615,
          -0.056867584586143494,
          0.0264827199280262,
          -0.048808369785547256,
          0.007140626665204763,
          -0.10664010792970657,
          0.0598214790225029,
          0.08388648927211761,
          0.03902323916554451,
          -0.03506375849246979,
          0.05380748584866524,
          -0.15442171692848206,
          -0.10463964939117432,
          0.0892571285367012,
          -0.013658194802701473,
          0.03795149177312851,
          -0.014721411280333996
        ],
        [
          -0.005433572921901941,
          0.01878431625664234,
          -0.12682883441448212,
          -0.061868008226156235,
          -0.004865631461143494,
          0.0379561111330986,
          -0.10228422284126282,
          -0.1583801805973053,
          0.11884113401174545,
          0.07321976870298386,
          -0.04137006774544716,
          -0.08510135114192963,
          -0.21050603687763214,
          -0.01664980687201023,
          -0.009256402030587196,
          -0.19444140791893005,
          -0.04555650055408478,
          -0.13154076039791107,
          0.08459224551916122,
          0.08164674788713455,
          0.16100351512432098,
          0.05411400645971298,
          -0.14823481440544128,
          0.06151336431503296,
          -0.03695721551775932,
          -0.023901965469121933,
          -0.10924021899700165,
          0.1470867097377777,
          0.0018412333447486162,
          0.04370582476258278,
          -0.12345415353775024,
          -0.0261736698448658,
          -0.04838854447007179,
          -0.012934958562254906,
          0.10172183811664581,
          0.04581812769174576,
          0.02876840904355049,
          0.14750680327415466,
          -0.07337421923875809,
          -0.023320326581597328,
          -0.0773158147931099,
          0.0880245491862297,
          0.10220251977443695,
          -0.09846806526184082,
          0.013306331820786,
          -0.1904718279838562,
          -0.09317846596240997,
          -0.032181818038225174
        ],
        [
          0.005010967142879963,
          -0.07552945613861084,
          0.05143357813358307,
          -0.10884284973144531,
          0.09539616852998734,
          0.059742096811532974,
          0.024962875992059708,
          -0.014000914990901947,
          0.10557527095079422,
          -0.06215007230639458,
          -0.1177445724606514,
          -0.09302952885627747,
          -0.0036414898931980133,
          0.06560291349887848,
          0.0029509959276765585,
          0.21882255375385284,
          0.03648168221116066,
          -0.10247435420751572,
          0.16259904205799103,
          0.00815685372799635,
          -0.030253838747739792,
          0.11837632954120636,
          0.1313612312078476,
          -0.1396796852350235,
          -0.058596398681402206,
          -0.19806908071041107,
          -0.059186097234487534,
          -0.016998492181301117,
          0.04276028275489807,
          -0.09625081717967987,
          -0.0663839802145958,
          0.03208102285861969,
          -0.15304447710514069,
          0.13891199231147766,
          0.07461421191692352,
          0.15084342658519745,
          0.004613811615854502,
          -0.13621725142002106,
          0.1193392276763916,
          -0.06284019351005554,
          0.03915185108780861,
          0.07322578877210617,
          0.05795631557703018,
          0.019576512277126312,
          -0.10022775828838348,
          -0.10932177305221558,
          -0.14502914249897003,
          0.039889708161354065
        ],
        [
          -0.1279207468032837,
          -0.04556705430150032,
          0.05850207433104515,
          0.15111853182315826,
          -0.11637278646230698,
          -0.07644616067409515,
          0.17004235088825226,
          0.045935072004795074,
          -0.07151317596435547,
          0.15622583031654358,
          -0.13383223116397858,
          0.1589965969324112,
          0.10823728144168854,
          0.10914237797260284,
          -0.06898391246795654,
          0.007977289147675037,
          -0.17400957643985748,
          0.04550893232226372,
          0.04430321976542473,
          0.11766833811998367,
          -0.10626731812953949,
          0.13009409606456757,
          0.13644659519195557,
          -0.0176073107868433,
          0.0865478441119194,
          -0.02180589735507965,
          -0.11064993590116501,
          0.034410275518894196,
          -0.11276637762784958,
          0.016760343685746193,
          -0.047715023159980774,
          -0.05703918635845184,
          0.08558358997106552,
          0.035978201776742935,
          -0.11286362260580063,
          -0.031238973140716553,
          0.0332963801920414,
          0.04612760990858078,
          0.0985877737402916,
          0.07886356860399246,
          -0.036027953028678894,
          -0.0018016835674643517,
          -0.03110680729150772,
          0.03606642037630081,
          0.04044752195477486,
          -0.007519379258155823,
          0.05465748533606529,
          -0.14389558136463165
        ],
        [
          -0.0340396985411644,
          -0.1633554995059967,
          -0.08290102332830429,
          0.018408358097076416,
          0.0687231719493866,
          0.024251258000731468,
          0.06718993932008743,
          -0.22046664357185364,
          0.09011166542768478,
          0.18927478790283203,
          -0.015573353506624699,
          0.20024196803569794,
          -0.05996650457382202,
          0.1536121964454651,
          -0.06024546921253204,
          0.06391650438308716,
          -0.037282925099134445,
          -0.06930989027023315,
          -0.11520993709564209,
          -0.09728731960058212,
          0.044405218213796616,
          0.00865945965051651,
          0.019703920930624008,
          0.011977551504969597,
          -0.00226493738591671,
          -0.13793736696243286,
          0.020992720499634743,
          -0.04871656745672226,
          -0.11608326435089111,
          0.03821640461683273,
          0.06409580260515213,
          -0.0741237998008728,
          -0.14131203293800354,
          0.1289139986038208,
          0.015688512474298477,
          0.15876822173595428,
          0.061721544712781906,
          -0.02294301986694336,
          0.018136706203222275,
          -0.03714826703071594,
          -0.09793433547019958,
          -0.02154604159295559,
          -0.002602280117571354,
          0.10777116566896439,
          0.06454719603061676,
          0.052873849868774414,
          0.10215072333812714,
          -0.09333337098360062
        ],
        [
          -0.19949020445346832,
          -0.10812906920909882,
          -0.20366086065769196,
          -0.01586383394896984,
          -0.09035937488079071,
          0.023768750950694084,
          0.000615418772213161,
          -0.05637483298778534,
          -0.15233448147773743,
          -0.2051253467798233,
          -0.06465926021337509,
          0.062009360641241074,
          -0.10084522515535355,
          -0.1386127918958664,
          0.01807151921093464,
          0.08255866169929504,
          0.05046962574124336,
          0.07406774163246155,
          0.0066672433167696,
          0.12835079431533813,
          -0.21560357511043549,
          -0.03876592591404915,
          -0.09236248582601547,
          -0.002301344182342291,
          -0.012478865683078766,
          -0.041920021176338196,
          0.05831563100218773,
          -0.0764753445982933,
          -0.10400880128145218,
          0.052945587784051895,
          0.29702919721603394,
          -0.16354335844516754,
          -0.016423815861344337,
          -0.03703444451093674,
          -0.04653133451938629,
          -0.07995706051588058,
          0.0762384682893753,
          0.0436565987765789,
          0.05957379192113876,
          -0.06942980736494064,
          -0.026412516832351685,
          -0.061581529676914215,
          0.0682029202580452,
          -0.0015756312059238553,
          0.11860518902540207,
          -0.08350025117397308,
          -0.1039193645119667,
          -0.14647966623306274
        ],
        [
          0.020601850003004074,
          0.028057146817445755,
          -0.06460490077733994,
          -0.028237206861376762,
          0.08028533309698105,
          0.09621580690145493,
          0.07045247405767441,
          -0.16582091152668,
          0.04878171160817146,
          0.1258777379989624,
          -0.23380906879901886,
          0.1640385389328003,
          -0.11997508257627487,
          -0.029318083077669144,
          -0.12145447731018066,
          0.034410346299409866,
          -0.02689218334853649,
          -0.08850792050361633,
          -0.010157451964914799,
          0.06613083928823471,
          -0.057897940278053284,
          -0.1092229038476944,
          0.08325798064470291,
          -0.0043509164825081825,
          -0.030319545418024063,
          0.06923873722553253,
          0.002529368968680501,
          0.052586548030376434,
          0.033145736902952194,
          -0.07463373243808746,
          -0.19944781064987183,
          -0.06479758024215698,
          0.06368052959442139,
          0.07195097208023071,
          0.013548099435865879,
          -0.08344047516584396,
          -0.025180112570524216,
          -0.05277102813124657,
          0.1722228080034256,
          -0.01734129898250103,
          -0.021230122074484825,
          -0.15661153197288513,
          0.0497480146586895,
          0.05063370242714882,
          0.1073380634188652,
          0.0647466704249382,
          -0.055331554263830185,
          0.06482817977666855
        ],
        [
          -0.043992478400468826,
          -0.043932102620601654,
          0.04556962475180626,
          0.05612334981560707,
          0.03339548408985138,
          0.15277031064033508,
          0.058376576751470566,
          0.041847653687000275,
          0.13880275189876556,
          0.3343312740325928,
          0.045915599912405014,
          0.23962286114692688,
          0.018823755905032158,
          0.16137921810150146,
          -0.0258099976927042,
          0.023880042135715485,
          0.08127019554376602,
          0.052908413112163544,
          0.0711582750082016,
          -0.0349862277507782,
          -0.04002376273274422,
          0.13617609441280365,
          -0.011987630277872086,
          -0.07548889517784119,
          -0.011942735873162746,
          0.04119515046477318,
          -0.048887740820646286,
          -0.04870247095823288,
          -0.16197842359542847,
          0.08741866797208786,
          -0.08883970230817795,
          0.005214638542383909,
          0.1320725977420807,
          -0.16236281394958496,
          0.012397218495607376,
          -0.03534881770610809,
          -0.039143096655607224,
          0.0869762971997261,
          -0.041940707713365555,
          0.014908217824995518,
          -0.0582614466547966,
          -0.019634602591395378,
          0.039147842675447464,
          -0.1244991272687912,
          0.03854214772582054,
          0.05586200952529907,
          0.12523014843463898,
          -0.1701965183019638
        ],
        [
          0.01221324410289526,
          0.0877867192029953,
          0.12446103245019913,
          0.07646771520376205,
          -0.04237761348485947,
          -0.05470054969191551,
          -0.06603261083364487,
          0.12010340392589569,
          -0.2189212143421173,
          -0.024538815021514893,
          0.09160246700048447,
          0.12292981147766113,
          -0.22016292810440063,
          0.08650796115398407,
          0.04201648756861687,
          0.2745664715766907,
          -0.02331049181520939,
          0.18315359950065613,
          -0.08160123229026794,
          0.060848549008369446,
          0.019451791420578957,
          -0.10840572416782379,
          0.006848805118352175,
          -0.1843075007200241,
          0.07029275596141815,
          0.1746608316898346,
          -0.05713990703225136,
          -0.10920827835798264,
          0.07168079912662506,
          -0.019067978486418724,
          -0.06572695076465607,
          0.18662934005260468,
          0.0011574147501960397,
          -0.0184176005423069,
          0.03265601396560669,
          0.04914934188127518,
          -0.08941271156072617,
          0.07652706652879715,
          -0.14327497780323029,
          -0.06404894590377808,
          0.04678723216056824,
          -0.11264809221029282,
          0.06336455792188644,
          0.16093431413173676,
          0.042745426297187805,
          -0.0927310660481453,
          0.02845572680234909,
          -0.1859537661075592
        ],
        [
          0.02935805916786194,
          0.12697121500968933,
          0.11567866802215576,
          0.06610868126153946,
          0.10173410922288895,
          0.045385222882032394,
          0.04188404232263565,
          -0.13989505171775818,
          -0.01705186255276203,
          0.10175244510173798,
          0.02153700590133667,
          0.07902837544679642,
          0.026826057583093643,
          -0.04667680338025093,
          -0.0009176247986033559,
          0.14319071173667908,
          0.1373579353094101,
          -0.07352130115032196,
          -0.052920933812856674,
          0.06363268196582794,
          0.12633761763572693,
          -0.07564806938171387,
          0.04703065752983093,
          0.033094245940446854,
          0.09918764978647232,
          0.0789959654211998,
          0.133562371134758,
          -0.1373162567615509,
          -0.12452959269285202,
          -0.1642911434173584,
          0.021448785439133644,
          -0.07782870531082153,
          0.11180535703897476,
          -0.0841902643442154,
          0.13032953441143036,
          -0.09516414999961853,
          0.018683791160583496,
          0.019654981791973114,
          0.10784164816141129,
          -0.11541800945997238,
          -0.042122095823287964,
          -0.020622476935386658,
          -0.020177023485302925,
          0.036948855966329575,
          0.09260625392198563,
          -0.009719252586364746,
          -0.14789016544818878,
          0.04404445365071297
        ],
        [
          -0.06394058465957642,
          -0.007751035038381815,
          0.007698963396251202,
          0.05635268986225128,
          -0.0329328253865242,
          -0.17510713636875153,
          -0.23159871995449066,
          0.07664178311824799,
          -0.005533264484256506,
          -0.08633527159690857,
          0.03948424756526947,
          -0.07182848453521729,
          -0.16686537861824036,
          0.08570612967014313,
          0.09982506185770035,
          0.003932169172912836,
          -0.025249261409044266,
          0.030387992039322853,
          -0.10121215134859085,
          0.09329579025506973,
          0.11308253556489944,
          -0.011453702114522457,
          -0.021802810952067375,
          0.0783415213227272,
          -0.015412778593599796,
          -0.12962409853935242,
          -0.035618480294942856,
          -0.03903811797499657,
          0.02591852843761444,
          0.1059296727180481,
          0.01314700860530138,
          -0.11602118611335754,
          0.10460842400789261,
          0.06703571230173111,
          0.009289996698498726,
          0.02427530847489834,
          -0.09078941494226456,
          0.06762833893299103,
          -0.0464518703520298,
          -0.06612227857112885,
          -0.0933690071105957,
          0.21620652079582214,
          -0.11968681961297989,
          0.04662692919373512,
          0.026833426207304,
          0.0802341029047966,
          0.06187492609024048,
          -0.03891623020172119
        ],
        [
          0.08678236603736877,
          -0.06454891711473465,
          0.06569016724824905,
          -0.0422707162797451,
          -0.08569109439849854,
          -0.007698316127061844,
          -0.16649602353572845,
          0.09810268878936768,
          -0.04594409093260765,
          -0.12192899733781815,
          -0.11646206676959991,
          -0.10557098686695099,
          -0.21302171051502228,
          -0.11357775330543518,
          0.04703109711408615,
          0.07717957347631454,
          0.09919393807649612,
          0.026902716606855392,
          -0.008086470887064934,
          -0.0034862940665334463,
          -0.021628599613904953,
          0.10157298296689987,
          -0.16783994436264038,
          -0.14137966930866241,
          0.0541682094335556,
          -0.027936451137065887,
          -0.04656187444925308,
          -0.05882720649242401,
          -0.11230190098285675,
          -0.027528472244739532,
          -0.05754537507891655,
          -0.026681995019316673,
          -0.125919371843338,
          0.16054733097553253,
          -0.10607126355171204,
          0.12639249861240387,
          -0.1295928806066513,
          -0.02290111966431141,
          -0.006485230755060911,
          -0.152916818857193,
          -0.0095513965934515,
          0.05167755112051964,
          -0.07862608879804611,
          -0.008523216471076012,
          -0.014191136695444584,
          -0.12450949102640152,
          0.04055855795741081,
          0.049062296748161316
        ],
        [
          0.014096691273152828,
          -0.053306568413972855,
          -0.2447800189256668,
          -0.038286272436380386,
          0.00016202079132199287,
          -0.026632681488990784,
          0.05834292247891426,
          -0.13816171884536743,
          -0.2804480791091919,
          -0.047058507800102234,
          -0.23603184521198273,
          0.0887635126709938,
          -0.2868495583534241,
          -0.014378542080521584,
          -0.11529595404863358,
          0.14365479350090027,
          -0.02389160357415676,
          0.1339896023273468,
          -0.030066294595599174,
          -0.02150147594511509,
          0.04634041711688042,
          -0.014692294411361217,
          0.07091502845287323,
          -0.08995671570301056,
          -0.09145636111497879,
          0.061398107558488846,
          -0.15538258850574493,
          0.07032784074544907,
          0.05792106315493584,
          0.05050718039274216,
          -0.18755416572093964,
          0.04415850713849068,
          -0.06172921136021614,
          0.007562653627246618,
          0.04378339275717735,
          -0.008964174427092075,
          0.018844429403543472,
          0.032328199595212936,
          0.03258353844285011,
          -0.031178804114460945,
          -0.11287333071231842,
          0.0524032823741436,
          0.003520652186125517,
          -0.11552812904119492,
          0.03185640648007393,
          -0.07473152875900269,
          -0.06271350383758545,
          -0.07733273506164551
        ],
        [
          0.06023631989955902,
          -0.14179082214832306,
          -0.10083602368831635,
          0.17751294374465942,
          0.16366510093212128,
          -0.03857513517141342,
          0.17925655841827393,
          -0.0783170610666275,
          0.16237309575080872,
          0.1318751573562622,
          -0.05958695709705353,
          0.2358534336090088,
          0.06010150909423828,
          -0.037689290940761566,
          0.012283517979085445,
          0.13775745034217834,
          0.0778348296880722,
          -0.1729976385831833,
          -0.03855428472161293,
          -0.11566410958766937,
          -0.09518706798553467,
          -0.07582870870828629,
          -0.16521409153938293,
          -0.10673590749502182,
          0.07752532511949539,
          0.007425413001328707,
          0.04425746947526932,
          0.02963828854262829,
          0.03900783881545067,
          0.048851609230041504,
          0.09540220350027084,
          -0.09403116255998611,
          0.02100120484828949,
          0.11857850104570389,
          -0.06270308047533035,
          0.10849129408597946,
          -0.0011895183706656098,
          0.03905794769525528,
          0.08332590013742447,
          0.009061937220394611,
          0.1620778739452362,
          -0.09178727865219116,
          0.028216136619448662,
          0.04308607429265976,
          0.06934980303049088,
          -0.09273906797170639,
          -0.19668368995189667,
          0.03583196550607681
        ],
        [
          0.07634435594081879,
          -0.014062090776860714,
          -0.14153404533863068,
          -0.005409440491348505,
          -0.04548303037881851,
          0.07643387466669083,
          0.07963373512029648,
          0.05058658495545387,
          0.16513307392597198,
          0.06244955584406853,
          0.06831252574920654,
          0.09156480431556702,
          0.2133210301399231,
          0.01645025797188282,
          -0.020741555839776993,
          0.14214415848255157,
          0.004380214959383011,
          -0.09778404235839844,
          0.018301278352737427,
          0.09493716061115265,
          -0.0027627532836049795,
          0.0980389341711998,
          -0.05900153890252113,
          0.030353989452123642,
          0.006370068062096834,
          -0.05747578293085098,
          0.02710060402750969,
          0.010510625317692757,
          0.016141805797815323,
          -0.03916606307029724,
          0.10267914086580276,
          0.06023205444216728,
          -0.06467922031879425,
          0.15171553194522858,
          0.056329380720853806,
          -0.05569010227918625,
          0.12520846724510193,
          -0.09388669580221176,
          0.11287298798561096,
          0.09600701183080673,
          0.014238355681300163,
          0.03422250226140022,
          -0.00036520190769806504,
          -0.09224899858236313,
          -0.1211833655834198,
          0.046845704317092896,
          -0.028764313086867332,
          -0.007792412769049406
        ],
        [
          -0.18176640570163727,
          -0.1798892468214035,
          -0.23869949579238892,
          -0.04971097782254219,
          0.008663345128297806,
          -0.04262770712375641,
          0.19309456646442413,
          0.05660654604434967,
          0.062908835709095,
          0.12371879070997238,
          -0.22066329419612885,
          0.09010566025972366,
          0.07393033802509308,
          -0.1062532514333725,
          -0.08532604575157166,
          0.06526963412761688,
          -0.15109655261039734,
          -0.10930467396974564,
          0.012849189341068268,
          0.20642253756523132,
          0.09136203676462173,
          0.028888998553156853,
          -0.01731538027524948,
          -0.09581120312213898,
          -0.038940150290727615,
          0.04061702638864517,
          0.028432950377464294,
          0.08779756724834442,
          0.1251436471939087,
          -0.08084149658679962,
          0.11932659149169922,
          -0.0062884315848350525,
          0.02236373908817768,
          -0.08793442696332932,
          0.030263982713222504,
          -0.09067245572805405,
          0.09401053190231323,
          -0.007185410708189011,
          -0.050549477338790894,
          0.053075455129146576,
          0.06010349094867706,
          -0.0003739351814147085,
          0.08308395743370056,
          -0.10694542527198792,
          0.038437601178884506,
          -0.06774652749300003,
          0.03783514350652695,
          -0.048308223485946655
        ],
        [
          0.07389592379331589,
          -0.06782583892345428,
          -0.04511592909693718,
          -0.15331803262233734,
          0.06521131098270416,
          -0.16747041046619415,
          0.04152471944689751,
          0.0354292094707489,
          -0.015911975875496864,
          0.03143143653869629,
          -0.10533183068037033,
          -0.05911371856927872,
          -0.11616513878107071,
          -0.18420323729515076,
          0.0719943717122078,
          -0.08386347442865372,
          0.06827112287282944,
          0.08403404802083969,
          -0.010352947749197483,
          -0.04601172357797623,
          0.10112752765417099,
          0.07811926305294037,
          0.1101091057062149,
          -0.06544201821088791,
          0.06272516399621964,
          -0.04626138508319855,
          0.0213454719632864,
          -0.1178814098238945,
          0.029423344880342484,
          0.02899751253426075,
          -0.047660425305366516,
          0.018699374049901962,
          -0.02276148647069931,
          0.09863388538360596,
          0.01250641979277134,
          0.028926704078912735,
          -0.06228375807404518,
          -0.023200908675789833,
          0.010025321505963802,
          0.053678784519433975,
          -0.040316615253686905,
          -0.03906343877315521,
          0.08555081486701965,
          0.06720138341188431,
          0.006127569824457169,
          0.07004807889461517,
          0.01119648665189743,
          -0.1769973188638687
        ],
        [
          -0.15965385735034943,
          0.018665889278054237,
          -0.25627538561820984,
          -0.0582747682929039,
          -0.032414015382528305,
          0.08004695177078247,
          0.021955624222755432,
          -0.007888245396316051,
          -0.06602497398853302,
          -0.020982913672924042,
          0.038919396698474884,
          0.05165427550673485,
          -0.054373353719711304,
          0.14791914820671082,
          0.006440906319767237,
          0.10652410984039307,
          -0.0875987783074379,
          0.0208425372838974,
          -0.007985341362655163,
          0.025957370176911354,
          -0.02225552126765251,
          0.0003852992958854884,
          0.03771042451262474,
          -0.07982233166694641,
          0.056371647864580154,
          0.015420363284647465,
          0.01933979243040085,
          -0.09936190396547318,
          -0.046147484332323074,
          -0.04340604692697525,
          -0.09193553030490875,
          0.006467317696660757,
          -0.002717430703341961,
          0.09187442809343338,
          0.04045461490750313,
          -0.15096184611320496,
          -0.048641275614500046,
          0.03953259438276291,
          -0.1296754777431488,
          0.00020235872943885624,
          0.010450112633407116,
          0.09401583671569824,
          0.03695543110370636,
          0.08044618368148804,
          0.07476848363876343,
          -0.03576023131608963,
          -0.0663309395313263,
          0.039423223584890366
        ],
        [
          0.004082293249666691,
          -0.013495002873241901,
          -0.17513146996498108,
          -0.1341097205877304,
          0.05481180176138878,
          0.07099037617444992,
          0.07809782773256302,
          -0.09267764538526535,
          -0.14216798543930054,
          0.19508172571659088,
          -0.20234796404838562,
          -0.05478116124868393,
          0.008712063543498516,
          0.1621411144733429,
          -0.12633487582206726,
          -0.07450898736715317,
          0.027424652129411697,
          0.09153474867343903,
          0.01850217953324318,
          -0.13182270526885986,
          0.11261776089668274,
          0.08844652771949768,
          0.09857476502656937,
          -0.05097217485308647,
          -0.0031605681870132685,
          -0.05837002396583557,
          0.053055766969919205,
          -0.1189240962266922,
          -0.14026817679405212,
          0.013284197077155113,
          -0.044561516493558884,
          0.05616247281432152,
          0.03708021715283394,
          0.0903964415192604,
          -0.034455858170986176,
          0.058468759059906006,
          0.11829152703285217,
          -0.02490360662341118,
          0.05034409090876579,
          0.04119487106800079,
          0.054713111370801926,
          -0.10218629986047745,
          0.04874648153781891,
          -0.011934543028473854,
          -0.014017966575920582,
          -0.02365247905254364,
          -0.0894792303442955,
          0.005877517629414797
        ],
        [
          -0.16905821859836578,
          -0.1035083681344986,
          -0.05181766301393509,
          0.063164621591568,
          0.077145516872406,
          -0.06226571276783943,
          0.23081225156784058,
          -0.2030973732471466,
          0.12350733578205109,
          0.20940250158309937,
          -0.15758655965328217,
          -0.0031474181450903416,
          0.08207947015762329,
          -0.012804723344743252,
          -0.1204526275396347,
          0.2123255878686905,
          -0.05703366547822952,
          0.12146100401878357,
          -0.06246591731905937,
          0.016782071441411972,
          -0.1166968122124672,
          -0.01773655414581299,
          -0.06114758923649788,
          -0.11767284572124481,
          0.049336232244968414,
          0.008283565752208233,
          0.06971722841262817,
          0.1358557641506195,
          -0.009203486144542694,
          0.04969693720340729,
          -0.007348154671490192,
          -0.08323167264461517,
          -0.022854680195450783,
          -0.12682974338531494,
          -0.061764027923345566,
          -0.10970396548509598,
          0.16890406608581543,
          0.020881781354546547,
          0.03094606101512909,
          -0.1084163635969162,
          0.02033766731619835,
          -0.11471591889858246,
          -0.16977141797542572,
          0.008602581918239594,
          0.1351025253534317,
          -0.08524517714977264,
          0.09745420515537262,
          0.0428164042532444
        ],
        [
          0.007835175842046738,
          -0.23628666996955872,
          -0.16797363758087158,
          0.011419849470257759,
          0.07415995746850967,
          0.10696771740913391,
          -0.1198052242398262,
          -0.38158008456230164,
          -0.019570913165807724,
          -0.054310500621795654,
          -0.2913486063480377,
          -0.05780664458870888,
          0.005932366009801626,
          0.053323738276958466,
          0.05954480171203613,
          -0.05137665942311287,
          0.008181856013834476,
          0.021618491038680077,
          0.09595857560634613,
          -0.162849560379982,
          0.10516709834337234,
          -0.1067526564002037,
          -0.028898941352963448,
          -0.005874392110854387,
          -0.0012465097242966294,
          0.005986836738884449,
          -0.12073450535535812,
          0.08166723698377609,
          0.11000324040651321,
          -0.015454732812941074,
          0.03463411331176758,
          -0.03762122616171837,
          -0.015375418588519096,
          -0.09781664609909058,
          0.05416608229279518,
          -0.04390358924865723,
          -0.06596416234970093,
          -0.0909501388669014,
          0.006331443786621094,
          -0.03001236356794834,
          -0.05941962078213692,
          0.006232953630387783,
          0.14081299304962158,
          -0.024421004578471184,
          0.0556175522506237,
          0.059662505984306335,
          -0.015104598365724087,
          -0.07746847718954086
        ],
        [
          0.08273734152317047,
          0.0034688354935497046,
          -0.06291283667087555,
          -0.11250410228967667,
          -0.11269526928663254,
          -0.06488989293575287,
          -0.026691125705838203,
          0.021412236616015434,
          0.12561991810798645,
          0.10604686290025711,
          0.05165620520710945,
          -0.02829796075820923,
          -0.057253215461969376,
          0.014764339663088322,
          0.085109181702137,
          -0.04734006151556969,
          -0.07866757363080978,
          -0.27810367941856384,
          -0.17996108531951904,
          0.04815339297056198,
          -0.08341098576784134,
          -0.033346544951200485,
          -0.04718204215168953,
          -0.07538699358701706,
          -0.020953863859176636,
          0.07147137820720673,
          -0.09772152453660965,
          -0.025149201974272728,
          -0.005683280061930418,
          0.0910734012722969,
          -0.12403224408626556,
          0.03807876631617546,
          -0.044201452285051346,
          -0.11844859272241592,
          -0.12472754716873169,
          -0.04488080367445946,
          0.027989406138658524,
          -0.007981356233358383,
          -0.05519559979438782,
          -0.027087543159723282,
          -0.08183057606220245,
          0.06338807195425034,
          -0.007546295877546072,
          -0.04204648733139038,
          -0.0024625856894999743,
          -0.12091716378927231,
          -0.006274320650845766,
          -0.16259445250034332
        ],
        [
          -0.09371687471866608,
          -0.15831449627876282,
          -0.1168050467967987,
          0.04569665715098381,
          -0.14035727083683014,
          -0.003447500290349126,
          0.010470569133758545,
          -0.03426283970475197,
          -0.08945506811141968,
          0.006713060196489096,
          -0.10075760632753372,
          0.027814289554953575,
          -0.08878522366285324,
          -0.07277188450098038,
          -0.19137904047966003,
          -0.02422930859029293,
          0.06724218279123306,
          0.15647414326667786,
          -0.08642145246267319,
          -0.10741786658763885,
          0.06773947179317474,
          0.04464195296168327,
          0.06046026200056076,
          -0.014154031872749329,
          0.06504016369581223,
          -0.08653713017702103,
          0.11606219410896301,
          0.02399475872516632,
          0.04269915819168091,
          0.07798811048269272,
          -0.18624243140220642,
          0.0061688050627708435,
          -0.12715017795562744,
          0.1278982311487198,
          -0.1005975604057312,
          -0.04303625971078873,
          -0.06213029846549034,
          -0.0575738251209259,
          -0.010914236307144165,
          -0.07488437741994858,
          0.047932662069797516,
          -0.06910958886146545,
          -0.007976886816322803,
          0.049012087285518646,
          0.01278783567249775,
          -0.06326936185359955,
          0.06506139039993286,
          0.10807309299707413
        ],
        [
          -0.003226937260478735,
          0.06385989487171173,
          0.025481833145022392,
          0.029570454731583595,
          -0.09458692371845245,
          0.02783210575580597,
          -0.037098851054906845,
          0.3058537542819977,
          0.2030457854270935,
          0.03695379197597504,
          0.1278112232685089,
          0.03541220724582672,
          0.07473108172416687,
          -0.06475813686847687,
          0.03747096657752991,
          0.07563884556293488,
          -0.17360031604766846,
          0.08884157240390778,
          -0.01187171321362257,
          -0.005435912404209375,
          -0.03714055195450783,
          0.018364913761615753,
          0.03087121807038784,
          0.06230470538139343,
          0.0035255076363682747,
          0.003855338552966714,
          -0.09249766170978546,
          0.05197399482131004,
          -0.009836114943027496,
          -0.10093552619218826,
          0.011513353325426579,
          0.003488325048238039,
          0.12866947054862976,
          0.23010943830013275,
          0.13785354793071747,
          -0.07540363818407059,
          0.10695449262857437,
          0.1294369101524353,
          -0.12032219767570496,
          0.04787219688296318,
          0.0023392653092741966,
          -0.015946712344884872,
          0.021896187216043472,
          0.053608156740665436,
          -0.09994132816791534,
          -0.011474049650132656,
          -0.0914577767252922,
          -0.0031025668140500784
        ],
        [
          0.014812345616519451,
          -0.18209348618984222,
          -0.1758492887020111,
          0.0017714427085593343,
          -0.04482613503932953,
          0.09102551639080048,
          0.1080268919467926,
          0.13806244730949402,
          0.07149693369865417,
          0.14558802545070648,
          -0.21003520488739014,
          0.0550631582736969,
          0.11087517440319061,
          -0.147335946559906,
          -0.008194340392947197,
          0.09980196505784988,
          -0.031003514304757118,
          -0.18492361903190613,
          -0.1611214429140091,
          0.09183197468519211,
          -0.20788392424583435,
          0.09874902665615082,
          0.11059662699699402,
          -0.027368513867259026,
          0.1392347663640976,
          -0.07168497145175934,
          -0.14321112632751465,
          0.14111369848251343,
          0.0019657034426927567,
          -0.11243679374456406,
          0.06927955895662308,
          0.08050095289945602,
          0.013354982249438763,
          0.026064366102218628,
          0.09396349638700485,
          -0.0014011901803314686,
          0.11982228606939316,
          0.02389153651893139,
          -0.05311639979481697,
          -0.10941460728645325,
          0.06943923979997635,
          0.08303757756948471,
